<?xml version="1.0"?>
<MethodSetup Method="BDT::BDTG">
  <GeneralInfo>
    <Info name="TMVA Release" value="4.2.1 [262657]"/>
    <Info name="ROOT Release" value="6.14/09 [396809]"/>
    <Info name="Creator" value="twamorka"/>
    <Info name="Date" value="Thu Oct 15 11:02:12 2020"/>
    <Info name="Host" value="Linux cmsbuild02.cern.ch 3.10.0-1062.1.2.el7.x86_64 #1 SMP Mon Sep 30 14:19:46 UTC 2019 x86_64 x86_64 x86_64 GNU/Linux"/>
    <Info name="Dir" value="/afs/cern.ch/work/t/twamorka/flashgg_16aug2020/CMSSW_10_6_8/src/flashgg/Scripts"/>
    <Info name="Training events" value="503066"/>
    <Info name="TrainingTime" value="2.27597164e+02"/>
    <Info name="AnalysisType" value="Classification"/>
  </GeneralInfo>
  <Options>
    <Option name="V" modified="Yes">False</Option>
    <Option name="VerbosityLevel" modified="No">Default</Option>
    <Option name="VarTransform" modified="No">None</Option>
    <Option name="H" modified="Yes">False</Option>
    <Option name="CreateMVAPdfs" modified="No">False</Option>
    <Option name="IgnoreNegWeightsInTraining" modified="No">False</Option>
    <Option name="NTrees" modified="Yes">1000</Option>
    <Option name="MaxDepth" modified="Yes">2</Option>
    <Option name="MinNodeSize" modified="Yes">2.5%</Option>
    <Option name="nCuts" modified="Yes">20</Option>
    <Option name="BoostType" modified="Yes">Grad</Option>
    <Option name="AdaBoostR2Loss" modified="No">quadratic</Option>
    <Option name="UseBaggedBoost" modified="Yes">True</Option>
    <Option name="Shrinkage" modified="Yes">1.000000e-01</Option>
    <Option name="AdaBoostBeta" modified="No">5.000000e-01</Option>
    <Option name="UseRandomisedTrees" modified="No">False</Option>
    <Option name="UseNvars" modified="No">3</Option>
    <Option name="UsePoissonNvars" modified="No">True</Option>
    <Option name="BaggedSampleFraction" modified="Yes">5.000000e-01</Option>
    <Option name="UseYesNoLeaf" modified="No">True</Option>
    <Option name="NegWeightTreatment" modified="No">pray</Option>
    <Option name="Css" modified="No">1.000000e+00</Option>
    <Option name="Cts_sb" modified="No">1.000000e+00</Option>
    <Option name="Ctb_ss" modified="No">1.000000e+00</Option>
    <Option name="Cbb" modified="No">1.000000e+00</Option>
    <Option name="NodePurityLimit" modified="No">5.000000e-01</Option>
    <Option name="SeparationType" modified="No">giniindex</Option>
    <Option name="RegressionLossFunctionBDTG" modified="No">huber</Option>
    <Option name="HuberQuantile" modified="No">7.000000e-01</Option>
    <Option name="DoBoostMonitor" modified="No">False</Option>
    <Option name="UseFisherCuts" modified="No">False</Option>
    <Option name="MinLinCorrForFisher" modified="No">8.000000e-01</Option>
    <Option name="UseExclusiveVars" modified="No">False</Option>
    <Option name="DoPreselection" modified="No">False</Option>
    <Option name="SigToBkgFraction" modified="No">1.000000e+00</Option>
    <Option name="PruneMethod" modified="No">nopruning</Option>
    <Option name="PruneStrength" modified="No">0.000000e+00</Option>
    <Option name="PruningValFraction" modified="No">5.000000e-01</Option>
    <Option name="SkipNormalization" modified="No">False</Option>
    <Option name="nEventsMin" modified="No">0</Option>
    <Option name="UseBaggedGrad" modified="No">False</Option>
    <Option name="GradBaggingFraction" modified="No">5.000000e-01</Option>
    <Option name="UseNTrainEvents" modified="No">0</Option>
    <Option name="NNodesMax" modified="No">0</Option>
  </Options>
  <Variables NVar="8">
    <Variable VarIndex="0" Expression="a1_mass_dM-a2_mass_dM" Label="a1_mass_dM-a2_mass_dM" Title="a1_mass_dM-a2_mass_dM" Unit="" Internal="a1_mass_dM_M_a2_mass_dM" Type="F" Min="-7.94176559e+01" Max="8.13023834e+01"/>
    <Variable VarIndex="1" Expression="cosTheta_a1_dM" Label="cosTheta_a1_dM" Title="cosTheta_a1_dM" Unit="" Internal="cosTheta_a1_dM" Type="F" Min="-9.99919832e-01" Max="9.99965668e-01"/>
    <Variable VarIndex="2" Expression="a1_pt_dM" Label="a1_pt_dM" Title="a1_pt_dM" Unit="" Internal="a1_pt_dM" Type="F" Min="3.16446215e-01" Max="4.60944031e+02"/>
    <Variable VarIndex="3" Expression="a2_pt_dM" Label="a2_pt_dM" Title="a2_pt_dM" Unit="" Internal="a2_pt_dM" Type="F" Min="6.77325726e-02" Max="3.93650726e+02"/>
    <Variable VarIndex="4" Expression="pho1_MVA" Label="pho1_MVA" Title="pho1_MVA" Unit="" Internal="pho1_MVA" Type="F" Min="-1.00000000e+00" Max="9.96663034e-01"/>
    <Variable VarIndex="5" Expression="pho2_MVA" Label="pho2_MVA" Title="pho2_MVA" Unit="" Internal="pho2_MVA" Type="F" Min="-1.00000000e+00" Max="9.96636033e-01"/>
    <Variable VarIndex="6" Expression="pho3_MVA" Label="pho3_MVA" Title="pho3_MVA" Unit="" Internal="pho3_MVA" Type="F" Min="-1.00000000e+00" Max="9.96345878e-01"/>
    <Variable VarIndex="7" Expression="pho4_MVA" Label="pho4_MVA" Title="pho4_MVA" Unit="" Internal="pho4_MVA" Type="F" Min="-1.00000000e+00" Max="9.93553519e-01"/>
  </Variables>
  <Spectators NSpec="0"/>
  <Classes NClass="2">
    <Class Name="Signal" Index="0"/>
    <Class Name="Background" Index="1"/>
  </Classes>
  <Transformations NTransformations="0"/>
  <MVAPdfs/>
  <Weights NTrees="1000" AnalysisType="1">
    <BinaryTree type="DecisionTree" boostWeight="1.0000000000000000e+00" itree="0">
      <Node pos="s" depth="0" NCoef="0" IVar="7" Cut="-2.4055103957653046e-01" cType="1" res="-6.0272013070061803e-04" rms="4.9999964237213135e-01" purity="4.9939727783203125e-01" nType="0">
        <Node pos="l" depth="1" NCoef="0" IVar="6" Cut="1.3846601545810699e-01" cType="1" res="-3.8018622994422913e-01" rms="3.2474362850189209e-01" purity="1.1981376260519028e-01" nType="0">
          <Node pos="l" depth="2" NCoef="0" IVar="-1" Cut="0.0000000000000000e+00" cType="1" res="-9.6272863447666168e-02" rms="1.3523462414741516e-01" purity="1.8635693937540054e-02" nType="-99"/>
          <Node pos="r" depth="2" NCoef="0" IVar="-1" Cut="0.0000000000000000e+00" cType="1" res="-2.4536222219467163e-02" rms="4.8471572995185852e-01" purity="3.7731888890266418e-01" nType="-99"/>
        </Node>
        <Node pos="r" depth="1" NCoef="0" IVar="5" Cut="-5.2461045980453491e-01" cType="1" res="3.1904375553131104e-01" rms="3.8498193025588989e-01" purity="8.1904375553131104e-01" nType="0">
          <Node pos="l" depth="2" NCoef="0" IVar="-1" Cut="0.0000000000000000e+00" cType="1" res="-6.2752865254878998e-02" rms="3.8929674029350281e-01" purity="1.8623566627502441e-01" nType="-99"/>
          <Node pos="r" depth="2" NCoef="0" IVar="-1" Cut="0.0000000000000000e+00" cType="1" res="7.9059854149818420e-02" rms="3.0616742372512817e-01" purity="8.9529925584793091e-01" nType="-99"/>
        </Node>
      </Node>
    </BinaryTree>
    <BinaryTree type="DecisionTree" boostWeight="1.0000000000000000e+00" itree="1">
      <Node pos="s" depth="0" NCoef="0" IVar="7" Cut="-5.0688799470663071e-02" cType="1" res="-6.5398373408243060e-04" rms="4.6885821223258972e-01" purity="4.9905863404273987e-01" nType="0">
        <Node pos="l" depth="1" NCoef="0" IVar="6" Cut="1.3813363015651703e-01" cType="1" res="-3.2347896695137024e-01" rms="3.3740836381912231e-01" purity="1.4166726171970367e-01" nType="0">
          <Node pos="l" depth="2" NCoef="0" IVar="-1" Cut="0.0000000000000000e+00" cType="1" res="-8.6952514946460724e-02" rms="1.4855343103408813e-01" purity="2.3105656728148460e-02" nType="-99"/>
          <Node pos="r" depth="2" NCoef="0" IVar="-1" Cut="0.0000000000000000e+00" cType="1" res="-1.2611904181540012e-02" rms="4.9062478542327881e-01" purity="4.2934980988502502e-01" nType="-99"/>
        </Node>
        <Node pos="r" depth="1" NCoef="0" IVar="5" Cut="-4.2968901991844177e-01" cType="1" res="3.0428290367126465e-01" rms="3.5848459601402283e-01" purity="8.3664655685424805e-01" nType="0">
          <Node pos="l" depth="2" NCoef="0" IVar="-1" Cut="0.0000000000000000e+00" cType="1" res="-4.4913884252309799e-02" rms="4.2998272180557251e-01" purity="2.4961556494235992e-01" nType="-99"/>
          <Node pos="r" depth="2" NCoef="0" IVar="-1" Cut="0.0000000000000000e+00" cType="1" res="7.3974683880805969e-02" rms="2.9040589928627014e-01" purity="9.0701889991760254e-01" nType="-99"/>
        </Node>
      </Node>
    </BinaryTree>
    <BinaryTree type="DecisionTree" boostWeight="1.0000000000000000e+00" itree="2">
      <Node pos="s" depth="0" NCoef="0" IVar="7" Cut="-3.3588314056396484e-01" cType="1" res="6.5692112548276782e-04" rms="4.4201207160949707e-01" purity="5.0060498714447021e-01" nType="0">
        <Node pos="l" depth="1" NCoef="0" IVar="6" Cut="4.2308253049850464e-01" cType="1" res="-3.1691092252731323e-01" rms="3.0134671926498413e-01" purity="1.1223703622817993e-01" nType="0">
          <Node pos="l" depth="2" NCoef="0" IVar="-1" Cut="0.0000000000000000e+00" cType="1" res="-7.9848423600196838e-02" rms="1.5585422515869141e-01" purity="2.5833971798419952e-02" nType="-99"/>
          <Node pos="r" depth="2" NCoef="0" IVar="-1" Cut="0.0000000000000000e+00" cType="1" res="-1.9561206921935081e-02" rms="4.8630136251449585e-01" purity="3.8376328349113464e-01" nType="-99"/>
        </Node>
        <Node pos="r" depth="1" NCoef="0" IVar="5" Cut="-6.2012231349945068e-01" cType="1" res="2.5338792800903320e-01" rms="3.6668601632118225e-01" purity="8.0968105792999268e-01" nType="0">
          <Node pos="l" depth="2" NCoef="0" IVar="-1" Cut="0.0000000000000000e+00" cType="1" res="-5.9906452894210815e-02" rms="3.5244718194007874e-01" purity="1.4714533090591431e-01" nType="-99"/>
          <Node pos="r" depth="2" NCoef="0" IVar="-1" Cut="0.0000000000000000e+00" cType="1" res="6.4786911010742188e-02" rms="3.1107851862907410e-01" purity="8.8632118701934814e-01" nType="-99"/>
        </Node>
      </Node>
    </BinaryTree>
    <BinaryTree type="DecisionTree" boostWeight="1.0000000000000000e+00" itree="3">
      <Node pos="s" depth="0" NCoef="0" IVar="7" Cut="-3.3548215031623840e-01" cType="1" res="-6.5152964089065790e-04" rms="4.1861543059349060e-01" purity="4.9941018223762512e-01" nType="0">
        <Node pos="l" depth="1" NCoef="0" IVar="6" Cut="7.0759934186935425e-01" cType="1" res="-2.8995695710182190e-01" rms="2.9129147529602051e-01" purity="1.0790690779685974e-01" nType="0">
          <Node pos="l" depth="2" NCoef="0" IVar="-1" Cut="0.0000000000000000e+00" cType="1" res="-7.3160171508789062e-02" rms="1.8097211420536041e-01" purity="3.6786582320928574e-02" nType="-99"/>
          <Node pos="r" depth="2" NCoef="0" IVar="-1" Cut="0.0000000000000000e+00" cType="1" res="-1.1822240427136421e-02" rms="4.9231979250907898e-01" purity="4.1280549764633179e-01" nType="-99"/>
        </Node>
        <Node pos="r" depth="1" NCoef="0" IVar="4" Cut="-4.2964169383049011e-01" cType="1" res="2.2870293259620667e-01" rms="3.5768637061119080e-01" purity="8.0978465080261230e-01" nType="0">
          <Node pos="l" depth="2" NCoef="0" IVar="-1" Cut="0.0000000000000000e+00" cType="1" res="-7.1699045598506927e-02" rms="3.4105393290519714e-01" purity="1.6230838000774384e-01" nType="-99"/>
          <Node pos="r" depth="2" NCoef="0" IVar="-1" Cut="0.0000000000000000e+00" cType="1" res="5.9649996459484100e-02" rms="3.0523225665092468e-01" purity="8.7390184402465820e-01" nType="-99"/>
        </Node>
      </Node>
    </BinaryTree>
    <BinaryTree type="DecisionTree" boostWeight="1.0000000000000000e+00" itree="4">
      <Node pos="s" depth="0" NCoef="0" IVar="6" Cut="-5.0337869673967361e-02" cType="1" res="2.3629472125321627e-03" rms="3.9836186170578003e-01" purity="5.0303840637207031e-01" nType="0">
        <Node pos="l" depth="1" NCoef="0" IVar="7" Cut="6.1154532432556152e-01" cType="1" res="-2.8475639224052429e-01" rms="2.4260324239730835e-01" purity="1.0191448777914047e-01" nType="0">
          <Node pos="l" depth="2" NCoef="0" IVar="-1" Cut="0.0000000000000000e+00" cType="1" res="-7.1289427578449249e-02" rms="1.6807174682617188e-01" purity="3.7963859736919403e-02" nType="-99"/>
          <Node pos="r" depth="2" NCoef="0" IVar="-1" Cut="0.0000000000000000e+00" cType="1" res="-4.2325528338551521e-03" rms="4.4291737675666809e-01" purity="5.5594712495803833e-01" nType="-99"/>
        </Node>
        <Node pos="r" depth="1" NCoef="0" IVar="7" Cut="-7.1520662307739258e-01" cType="1" res="1.9996607303619385e-01" rms="3.6279356479644775e-01" purity="7.7910250425338745e-01" nType="0">
          <Node pos="l" depth="2" NCoef="0" IVar="-1" Cut="0.0000000000000000e+00" cType="1" res="-4.0552649646997452e-02" rms="4.2405748367309570e-01" purity="2.4335634708404541e-01" nType="-99"/>
          <Node pos="r" depth="2" NCoef="0" IVar="-1" Cut="0.0000000000000000e+00" cType="1" res="5.9720650315284729e-02" rms="2.8923025727272034e-01" purity="8.8653206825256348e-01" nType="-99"/>
        </Node>
      </Node>
    </BinaryTree>
    <BinaryTree type="DecisionTree" boostWeight="1.0000000000000000e+00" itree="5">
      <Node pos="s" depth="0" NCoef="0" IVar="7" Cut="-1.4561991393566132e-01" cType="1" res="-1.2934464029967785e-04" rms="3.7903085350990295e-01" purity="5.0019729137420654e-01" nType="0">
        <Node pos="l" depth="1" NCoef="0" IVar="5" Cut="3.2973781228065491e-01" cType="1" res="-2.2587172687053680e-01" rms="2.9477065801620483e-01" purity="1.2771624326705933e-01" nType="0">
          <Node pos="l" depth="2" NCoef="0" IVar="-1" Cut="0.0000000000000000e+00" cType="1" res="-7.0198334753513336e-02" rms="1.4665469527244568e-01" purity="2.5672476738691330e-02" nType="-99"/>
          <Node pos="r" depth="2" NCoef="0" IVar="-1" Cut="0.0000000000000000e+00" cType="1" res="-1.9539138302206993e-02" rms="4.0756943821907043e-01" purity="2.9774460196495056e-01" nType="-99"/>
        </Node>
        <Node pos="r" depth="1" NCoef="0" IVar="0" Cut="5.1630806922912598e+00" cType="1" res="1.9965383410453796e-01" rms="3.2999604940414429e-01" purity="8.2984489202499390e-01" nType="0">
          <Node pos="l" depth="2" NCoef="0" IVar="-1" Cut="0.0000000000000000e+00" cType="1" res="5.5188994854688644e-02" rms="2.7594497799873352e-01" purity="8.8898211717605591e-01" nType="-99"/>
          <Node pos="r" depth="2" NCoef="0" IVar="-1" Cut="0.0000000000000000e+00" cType="1" res="-6.0992375016212463e-02" rms="4.0086048841476440e-01" purity="2.6266151666641235e-01" nType="-99"/>
        </Node>
      </Node>
    </BinaryTree>
    <BinaryTree type="DecisionTree" boostWeight="1.0000000000000000e+00" itree="6">
      <Node pos="s" depth="0" NCoef="0" IVar="6" Cut="-4.9905169755220413e-02" cType="1" res="1.1980637209489942e-03" rms="3.6402288079261780e-01" purity="5.0185745954513550e-01" nType="0">
        <Node pos="l" depth="1" NCoef="0" IVar="7" Cut="6.1112296581268311e-01" cType="1" res="-2.3675550520420074e-01" rms="2.3812024295330048e-01" purity="1.0716509819030762e-01" nType="0">
          <Node pos="l" depth="2" NCoef="0" IVar="-1" Cut="0.0000000000000000e+00" cType="1" res="-6.4042896032333374e-02" rms="1.7552906274795532e-01" purity="4.3009851127862930e-02" nType="-99"/>
          <Node pos="r" depth="2" NCoef="0" IVar="-1" Cut="0.0000000000000000e+00" cType="1" res="-6.7212255671620369e-03" rms="4.3683010339736938e-01" purity="5.5907744169235229e-01" nType="-99"/>
        </Node>
        <Node pos="r" depth="1" NCoef="0" IVar="0" Cut="8.8121242523193359e+00" cType="1" res="1.6698586940765381e-01" rms="3.4408840537071228e-01" purity="7.7684885263442993e-01" nType="0">
          <Node pos="l" depth="2" NCoef="0" IVar="-1" Cut="0.0000000000000000e+00" cType="1" res="4.8521734774112701e-02" rms="3.0527576804161072e-01" purity="8.4054321050643921e-01" nType="-99"/>
          <Node pos="r" depth="2" NCoef="0" IVar="-1" Cut="0.0000000000000000e+00" cType="1" res="-7.6326943933963776e-02" rms="2.8540146350860596e-01" purity="8.9397981762886047e-02" nType="-99"/>
        </Node>
      </Node>
    </BinaryTree>
    <BinaryTree type="DecisionTree" boostWeight="1.0000000000000000e+00" itree="7">
      <Node pos="s" depth="0" NCoef="0" IVar="6" Cut="4.3281789869070053e-02" cType="1" res="-1.4585307799279690e-03" rms="3.4866338968276978e-01" purity="4.9860063195228577e-01" nType="0">
        <Node pos="l" depth="1" NCoef="0" IVar="7" Cut="4.2127355933189392e-01" cType="1" res="-2.0998460054397583e-01" rms="2.3949201405048370e-01" purity="1.1697803437709808e-01" nType="0">
          <Node pos="l" depth="2" NCoef="0" IVar="-1" Cut="0.0000000000000000e+00" cType="1" res="-6.2350649386644363e-02" rms="1.6058573126792908e-01" purity="3.4317575395107269e-02" nType="-99"/>
          <Node pos="r" depth="2" NCoef="0" IVar="-1" Cut="0.0000000000000000e+00" cType="1" res="-4.9518961459398270e-03" rms="4.2968681454658508e-01" purity="5.5897057056427002e-01" nType="-99"/>
        </Node>
        <Node pos="r" depth="1" NCoef="0" IVar="4" Cut="-4.2952483892440796e-01" cType="1" res="1.5333610773086548e-01" rms="3.3614090085029602e-01" purity="7.8188961744308472e-01" nType="0">
          <Node pos="l" depth="2" NCoef="0" IVar="-1" Cut="0.0000000000000000e+00" cType="1" res="-6.4794525504112244e-02" rms="3.2211241126060486e-01" purity="1.6676107048988342e-01" nType="-99"/>
          <Node pos="r" depth="2" NCoef="0" IVar="-1" Cut="0.0000000000000000e+00" cType="1" res="4.7268625348806381e-02" rms="2.9583978652954102e-01" purity="8.5053133964538574e-01" nType="-99"/>
        </Node>
      </Node>
    </BinaryTree>
    <BinaryTree type="DecisionTree" boostWeight="1.0000000000000000e+00" itree="8">
      <Node pos="s" depth="0" NCoef="0" IVar="7" Cut="-5.2572101354598999e-01" cType="1" res="-1.2550879037007689e-03" rms="3.3569642901420593e-01" purity="4.9889761209487915e-01" nType="0">
        <Node pos="l" depth="1" NCoef="0" IVar="5" Cut="2.3475654423236847e-01" cType="1" res="-2.0070552825927734e-01" rms="2.4383690953254700e-01" purity="8.8262014091014862e-02" nType="0">
          <Node pos="l" depth="2" NCoef="0" IVar="-1" Cut="0.0000000000000000e+00" cType="1" res="-6.5257780253887177e-02" rms="1.2075947225093842e-01" purity="1.5339111909270287e-02" nType="-99"/>
          <Node pos="r" depth="2" NCoef="0" IVar="-1" Cut="0.0000000000000000e+00" cType="1" res="-2.9243640601634979e-02" rms="3.5661610960960388e-01" purity="2.1344599127769470e-01" nType="-99"/>
        </Node>
        <Node pos="r" depth="1" NCoef="0" IVar="5" Cut="-1.4504519104957581e-01" cType="1" res="1.3706915080547333e-01" rms="3.2076475024223328e-01" purity="7.8368449211120605e-01" nType="0">
          <Node pos="l" depth="2" NCoef="0" IVar="-1" Cut="0.0000000000000000e+00" cType="1" res="-4.2955368757247925e-02" rms="3.4588164091110229e-01" purity="2.5046300888061523e-01" nType="-99"/>
          <Node pos="r" depth="2" NCoef="0" IVar="-1" Cut="0.0000000000000000e+00" cType="1" res="4.9066185951232910e-02" rms="2.7062141895294189e-01" purity="8.9143991470336914e-01" nType="-99"/>
        </Node>
      </Node>
    </BinaryTree>
    <BinaryTree type="DecisionTree" boostWeight="1.0000000000000000e+00" itree="9">
      <Node pos="s" depth="0" NCoef="0" IVar="6" Cut="-1.4442320168018341e-01" cType="1" res="2.7983184554614127e-04" rms="3.2401725649833679e-01" purity="5.0102818012237549e-01" nType="0">
        <Node pos="l" depth="1" NCoef="0" IVar="6" Cut="-7.5568717718124390e-01" cType="1" res="-1.8851743638515472e-01" rms="2.1406525373458862e-01" purity="9.3393355607986450e-02" nType="0">
          <Node pos="l" depth="2" NCoef="0" IVar="-1" Cut="0.0000000000000000e+00" cType="1" res="-6.1519030481576920e-02" rms="1.6082100570201874e-01" purity="4.0484048426151276e-02" nType="-99"/>
          <Node pos="r" depth="2" NCoef="0" IVar="-1" Cut="0.0000000000000000e+00" cType="1" res="-2.5338204577565193e-02" rms="3.0074518918991089e-01" purity="2.4192994832992554e-01" nType="-99"/>
        </Node>
        <Node pos="r" depth="1" NCoef="0" IVar="0" Cut="8.8121242523193359e+00" cType="1" res="1.2430942803621292e-01" rms="3.2412102818489075e-01" purity="7.6882225275039673e-01" nType="0">
          <Node pos="l" depth="2" NCoef="0" IVar="-1" Cut="0.0000000000000000e+00" cType="1" res="4.0707249194383621e-02" rms="2.9532325267791748e-01" purity="8.3415091037750244e-01" nType="-99"/>
          <Node pos="r" depth="2" NCoef="0" IVar="-1" Cut="0.0000000000000000e+00" cType="1" res="-7.0522315800189972e-02" rms="2.7756506204605103e-01" purity="8.3806343376636505e-02" nType="-99"/>
        </Node>
      </Node>
    </BinaryTree>
    <BinaryTree type="DecisionTree" boostWeight="1.0000000000000000e+00" itree="10">
      <Node pos="s" depth="0" NCoef="0" IVar="7" Cut="1.3826963305473328e-01" cType="1" res="-3.4821580629795790e-04" rms="3.1360170245170593e-01" purity="5.0057572126388550e-01" nType="0">
        <Node pos="l" depth="1" NCoef="0" IVar="5" Cut="2.3543831706047058e-01" cType="1" res="-1.4080227911472321e-01" rms="2.7428063750267029e-01" purity="1.6338908672332764e-01" nType="0">
          <Node pos="l" depth="2" NCoef="0" IVar="-1" Cut="0.0000000000000000e+00" cType="1" res="-6.1000373214483261e-02" rms="1.4563469588756561e-01" purity="2.8650661930441856e-02" nType="-99"/>
          <Node pos="r" depth="2" NCoef="0" IVar="-1" Cut="0.0000000000000000e+00" cType="1" res="-9.8932199180126190e-03" rms="3.6902108788490295e-01" purity="3.5768684744834900e-01" nType="-99"/>
        </Node>
        <Node pos="r" depth="1" NCoef="0" IVar="4" Cut="-6.1968320608139038e-01" cType="1" res="1.4611294865608215e-01" rms="2.8359988331794739e-01" purity="8.5218358039855957e-01" nType="0">
          <Node pos="l" depth="2" NCoef="0" IVar="-1" Cut="0.0000000000000000e+00" cType="1" res="-6.3809141516685486e-02" rms="3.5019990801811218e-01" purity="1.9409553706645966e-01" nType="-99"/>
          <Node pos="r" depth="2" NCoef="0" IVar="-1" Cut="0.0000000000000000e+00" cType="1" res="4.5479577034711838e-02" rms="2.5268217921257019e-01" purity="8.9613062143325806e-01" nType="-99"/>
        </Node>
      </Node>
    </BinaryTree>
    <BinaryTree type="DecisionTree" boostWeight="1.0000000000000000e+00" itree="11">
      <Node pos="s" depth="0" NCoef="0" IVar="5" Cut="4.5570105314254761e-02" cType="1" res="1.3339488068595529e-03" rms="3.0468234419822693e-01" purity="5.0262302160263062e-01" nType="0">
        <Node pos="l" depth="1" NCoef="0" IVar="5" Cut="-7.0138734579086304e-01" cType="1" res="-1.7640039324760437e-01" rms="2.1303333342075348e-01" purity="1.0263709723949432e-01" nType="0">
          <Node pos="l" depth="2" NCoef="0" IVar="-1" Cut="0.0000000000000000e+00" cType="1" res="-6.1091143637895584e-02" rms="1.5550488233566284e-01" purity="3.0687537044286728e-02" nType="-99"/>
          <Node pos="r" depth="2" NCoef="0" IVar="-1" Cut="0.0000000000000000e+00" cType="1" res="-2.9917189851403236e-02" rms="2.9159012436866760e-01" purity="2.6045426726341248e-01" nType="-99"/>
        </Node>
        <Node pos="r" depth="1" NCoef="0" IVar="6" Cut="-6.1974364519119263e-01" cType="1" res="1.0046891868114471e-01" rms="3.0306613445281982e-01" purity="7.2572326660156250e-01" nType="0">
          <Node pos="l" depth="2" NCoef="0" IVar="-1" Cut="0.0000000000000000e+00" cType="1" res="-4.6404007822275162e-02" rms="2.6053178310394287e-01" purity="1.3678863644599915e-01" nType="-99"/>
          <Node pos="r" depth="2" NCoef="0" IVar="-1" Cut="0.0000000000000000e+00" cType="1" res="4.0780726820230484e-02" rms="2.8044831752777100e-01" purity="8.4694266319274902e-01" nType="-99"/>
        </Node>
      </Node>
    </BinaryTree>
    <BinaryTree type="DecisionTree" boostWeight="1.0000000000000000e+00" itree="12">
      <Node pos="s" depth="0" NCoef="0" IVar="7" Cut="-5.2534437179565430e-01" cType="1" res="1.3725492171943188e-03" rms="2.9712820053100586e-01" purity="5.0234735012054443e-01" nType="0">
        <Node pos="l" depth="1" NCoef="0" IVar="4" Cut="4.2516842484474182e-01" cType="1" res="-1.4517986774444580e-01" rms="2.3468872904777527e-01" purity="9.0769827365875244e-02" nType="0">
          <Node pos="l" depth="2" NCoef="0" IVar="-1" Cut="0.0000000000000000e+00" cType="1" res="-5.9673544019460678e-02" rms="1.4012758433818817e-01" purity="2.2722300142049789e-02" nType="-99"/>
          <Node pos="r" depth="2" NCoef="0" IVar="-1" Cut="0.0000000000000000e+00" cType="1" res="-2.9089195653796196e-02" rms="2.9422411322593689e-01" purity="1.5854537487030029e-01" nType="-99"/>
        </Node>
        <Node pos="r" depth="1" NCoef="0" IVar="4" Cut="-2.3998664319515228e-01" cType="1" res="1.0256255418062210e-01" rms="2.9350316524505615e-01" purity="7.8652924299240112e-01" nType="0">
          <Node pos="l" depth="2" NCoef="0" IVar="-1" Cut="0.0000000000000000e+00" cType="1" res="-5.2803218364715576e-02" rms="3.1920167803764343e-01" purity="2.0899167656898499e-01" nType="-99"/>
          <Node pos="r" depth="2" NCoef="0" IVar="-1" Cut="0.0000000000000000e+00" cType="1" res="3.9681710302829742e-02" rms="2.6212742924690247e-01" purity="8.6241191625595093e-01" nType="-99"/>
        </Node>
      </Node>
    </BinaryTree>
    <BinaryTree type="DecisionTree" boostWeight="1.0000000000000000e+00" itree="13">
      <Node pos="s" depth="0" NCoef="0" IVar="6" Cut="3.3013275265693665e-01" cType="1" res="1.5341348480433226e-03" rms="2.8882572054862976e-01" purity="5.0287169218063354e-01" nType="0">
        <Node pos="l" depth="1" NCoef="0" IVar="7" Cut="6.1154532432556152e-01" cType="1" res="-1.2029049545526505e-01" rms="2.3463429510593414e-01" purity="1.6147710382938385e-01" nType="0">
          <Node pos="l" depth="2" NCoef="0" IVar="-1" Cut="0.0000000000000000e+00" cType="1" res="-5.0211247056722641e-02" rms="1.8595069646835327e-01" purity="6.3418194651603699e-02" nType="-99"/>
          <Node pos="r" depth="2" NCoef="0" IVar="-1" Cut="0.0000000000000000e+00" cType="1" res="9.1313505545258522e-03" rms="3.6560305953025818e-01" purity="6.7956405878067017e-01" nType="-99"/>
        </Node>
        <Node pos="r" depth="1" NCoef="0" IVar="4" Cut="-1.4458039402961731e-01" cType="1" res="1.0862999409437180e-01" rms="2.8955358266830444e-01" purity="8.0299121141433716e-01" nType="0">
          <Node pos="l" depth="2" NCoef="0" IVar="-1" Cut="0.0000000000000000e+00" cType="1" res="-4.6639069914817810e-02" rms="3.2782724499702454e-01" purity="2.4473550915718079e-01" nType="-99"/>
          <Node pos="r" depth="2" NCoef="0" IVar="-1" Cut="0.0000000000000000e+00" cType="1" res="4.1685998439788818e-02" rms="2.5822660326957703e-01" purity="8.7543040513992310e-01" nType="-99"/>
        </Node>
      </Node>
    </BinaryTree>
    <BinaryTree type="DecisionTree" boostWeight="1.0000000000000000e+00" itree="14">
      <Node pos="s" depth="0" NCoef="0" IVar="5" Cut="4.4794004410505295e-02" cType="1" res="-9.5907354261726141e-04" rms="2.8338912129402161e-01" purity="4.9855089187622070e-01" nType="0">
        <Node pos="l" depth="1" NCoef="0" IVar="7" Cut="8.0099749565124512e-01" cType="1" res="-1.4138746261596680e-01" rms="2.0614100992679596e-01" purity="1.0469996184110641e-01" nType="0">
          <Node pos="l" depth="2" NCoef="0" IVar="-1" Cut="0.0000000000000000e+00" cType="1" res="-5.3028110414743423e-02" rms="1.6967901587486267e-01" purity="5.5503670126199722e-02" nType="-99"/>
          <Node pos="r" depth="2" NCoef="0" IVar="-1" Cut="0.0000000000000000e+00" cType="1" res="-7.4073444120585918e-03" rms="3.8206070661544800e-01" purity="5.2447623014450073e-01" nType="-99"/>
        </Node>
        <Node pos="r" depth="1" NCoef="0" IVar="0" Cut="8.8121242523193359e+00" cType="1" res="7.8271783888339996e-02" rms="2.9024353623390198e-01" purity="7.2076481580734253e-01" nType="0">
          <Node pos="l" depth="2" NCoef="0" IVar="-1" Cut="0.0000000000000000e+00" cType="1" res="3.3380649983882904e-02" rms="2.6995673775672913e-01" purity="7.9499667882919312e-01" nType="-99"/>
          <Node pos="r" depth="2" NCoef="0" IVar="-1" Cut="0.0000000000000000e+00" cType="1" res="-6.2343925237655640e-02" rms="2.7342215180397034e-01" purity="7.9699762165546417e-02" nType="-99"/>
        </Node>
      </Node>
    </BinaryTree>
    <BinaryTree type="DecisionTree" boostWeight="1.0000000000000000e+00" itree="15">
      <Node pos="s" depth="0" NCoef="0" IVar="6" Cut="-2.3992413282394409e-01" cType="1" res="-2.5072402786463499e-03" rms="2.7610561251640320e-01" purity="4.9690809845924377e-01" nType="0">
        <Node pos="l" depth="1" NCoef="0" IVar="6" Cut="-7.4678075313568115e-01" cType="1" res="-1.2607398629188538e-01" rms="1.9004414975643158e-01" purity="8.2873225212097168e-02" nType="0">
          <Node pos="l" depth="2" NCoef="0" IVar="-1" Cut="0.0000000000000000e+00" cType="1" res="-5.4602246731519699e-02" rms="1.5635930001735687e-01" purity="3.9058905094861984e-02" nType="-99"/>
          <Node pos="r" depth="2" NCoef="0" IVar="-1" Cut="0.0000000000000000e+00" cType="1" res="-1.9876701757311821e-02" rms="2.6447904109954834e-01" purity="2.2985588014125824e-01" nType="-99"/>
        </Node>
        <Node pos="r" depth="1" NCoef="0" IVar="0" Cut="-5.8928394317626953e+00" cType="1" res="7.4638843536376953e-02" rms="2.9291048645973206e-01" purity="7.5540137290954590e-01" nType="0">
          <Node pos="l" depth="2" NCoef="0" IVar="-1" Cut="0.0000000000000000e+00" cType="1" res="-6.1966966837644577e-02" rms="3.7267035245895386e-01" purity="2.1125631034374237e-01" nType="-99"/>
          <Node pos="r" depth="2" NCoef="0" IVar="-1" Cut="0.0000000000000000e+00" cType="1" res="3.1959801912307739e-02" rms="2.6076522469520569e-01" purity="8.1026357412338257e-01" nType="-99"/>
        </Node>
      </Node>
    </BinaryTree>
    <BinaryTree type="DecisionTree" boostWeight="1.0000000000000000e+00" itree="16">
      <Node pos="s" depth="0" NCoef="0" IVar="7" Cut="-7.1537846326828003e-01" cType="1" res="-8.6514331633225083e-04" rms="2.7070033550262451e-01" purity="4.9828091263771057e-01" nType="0">
        <Node pos="l" depth="1" NCoef="0" IVar="7" Cut="-8.3740139007568359e-01" cType="1" res="-1.2390895187854767e-01" rms="2.0650419592857361e-01" purity="6.7874327301979065e-02" nType="0">
          <Node pos="l" depth="2" NCoef="0" IVar="-1" Cut="0.0000000000000000e+00" cType="1" res="-4.8094313591718674e-02" rms="1.9216851890087128e-01" purity="5.5510994046926498e-02" nType="-99"/>
          <Node pos="r" depth="2" NCoef="0" IVar="-1" Cut="0.0000000000000000e+00" cType="1" res="-2.1096324548125267e-02" rms="2.7947145700454712e-01" purity="1.5384058654308319e-01" nType="-99"/>
        </Node>
        <Node pos="r" depth="1" NCoef="0" IVar="0" Cut="5.1630806922912598e+00" cType="1" res="6.9987282156944275e-02" rms="2.7781477570533752e-01" purity="7.4612230062484741e-01" nType="0">
          <Node pos="l" depth="2" NCoef="0" IVar="-1" Cut="0.0000000000000000e+00" cType="1" res="3.4168988466262817e-02" rms="2.5107267498970032e-01" purity="8.3223420381546021e-01" nType="-99"/>
          <Node pos="r" depth="2" NCoef="0" IVar="-1" Cut="0.0000000000000000e+00" cType="1" res="-5.3505919873714447e-02" rms="2.9870763421058655e-01" purity="1.7266103625297546e-01" nType="-99"/>
        </Node>
      </Node>
    </BinaryTree>
    <BinaryTree type="DecisionTree" boostWeight="1.0000000000000000e+00" itree="17">
      <Node pos="s" depth="0" NCoef="0" IVar="5" Cut="2.3543831706047058e-01" cType="1" res="-2.5845866184681654e-03" rms="2.6427015662193298e-01" purity="4.9517270922660828e-01" nType="0">
        <Node pos="l" depth="1" NCoef="0" IVar="6" Cut="7.0691376924514771e-01" cType="1" res="-1.1326600611209869e-01" rms="2.0415590703487396e-01" purity="1.2634573876857758e-01" nType="0">
          <Node pos="l" depth="2" NCoef="0" IVar="-1" Cut="0.0000000000000000e+00" cType="1" res="-5.3314574062824249e-02" rms="1.5233469009399414e-01" purity="4.6296466141939163e-02" nType="-99"/>
          <Node pos="r" depth="2" NCoef="0" IVar="-1" Cut="0.0000000000000000e+00" cType="1" res="-9.2151537537574768e-03" rms="3.4173011779785156e-01" purity="4.8325252532958984e-01" nType="-99"/>
        </Node>
        <Node pos="r" depth="1" NCoef="0" IVar="0" Cut="8.8121242523193359e+00" cType="1" res="6.7994803190231323e-02" rms="2.7386477589607239e-01" purity="7.3036646842956543e-01" nType="0">
          <Node pos="l" depth="2" NCoef="0" IVar="-1" Cut="0.0000000000000000e+00" cType="1" res="3.0968237668275833e-02" rms="2.5852447748184204e-01" purity="8.0269914865493774e-01" nType="-99"/>
          <Node pos="r" depth="2" NCoef="0" IVar="-1" Cut="0.0000000000000000e+00" cType="1" res="-5.7648200541734695e-02" rms="2.6671046018600464e-01" purity="7.4526436626911163e-02" nType="-99"/>
        </Node>
      </Node>
    </BinaryTree>
    <BinaryTree type="DecisionTree" boostWeight="1.0000000000000000e+00" itree="18">
      <Node pos="s" depth="0" NCoef="0" IVar="7" Cut="-6.2027549743652344e-01" cType="1" res="1.1375425383448601e-03" rms="2.5996723771095276e-01" purity="5.0254774093627930e-01" nType="0">
        <Node pos="l" depth="1" NCoef="0" IVar="4" Cut="3.3015719056129456e-01" cType="1" res="-1.0117562115192413e-01" rms="2.1280206739902496e-01" purity="7.9641744494438171e-02" nType="0">
          <Node pos="l" depth="2" NCoef="0" IVar="-1" Cut="0.0000000000000000e+00" cType="1" res="-5.4807554930448532e-02" rms="1.3047574460506439e-01" purity="1.9463583827018738e-02" nType="-99"/>
          <Node pos="r" depth="2" NCoef="0" IVar="-1" Cut="0.0000000000000000e+00" cType="1" res="-2.6760216802358627e-02" rms="2.6579046249389648e-01" purity="1.3632932305335999e-01" nType="-99"/>
        </Node>
        <Node pos="r" depth="1" NCoef="0" IVar="0" Cut="-8.9337091445922852e+00" cType="1" res="6.5608769655227661e-02" rms="2.6623502373695374e-01" purity="7.6903611421585083e-01" nType="0">
          <Node pos="l" depth="2" NCoef="0" IVar="-1" Cut="0.0000000000000000e+00" cType="1" res="-8.2518577575683594e-02" rms="3.1353071331977844e-01" purity="9.6801333129405975e-02" nType="-99"/>
          <Node pos="r" depth="2" NCoef="0" IVar="-1" Cut="0.0000000000000000e+00" cType="1" res="3.0091905966401100e-02" rms="2.4134273827075958e-01" purity="8.1544911861419678e-01" nType="-99"/>
        </Node>
      </Node>
    </BinaryTree>
    <BinaryTree type="DecisionTree" boostWeight="1.0000000000000000e+00" itree="19">
      <Node pos="s" depth="0" NCoef="0" IVar="6" Cut="4.2596134543418884e-01" cType="1" res="-1.8839013064280152e-03" rms="2.5555366277694702e-01" purity="4.9894285202026367e-01" nType="0">
        <Node pos="l" depth="1" NCoef="0" IVar="7" Cut="5.1721930503845215e-01" cType="1" res="-8.2100637257099152e-02" rms="2.1724031865596771e-01" purity="1.7581324279308319e-01" nType="0">
          <Node pos="l" depth="2" NCoef="0" IVar="-1" Cut="0.0000000000000000e+00" cType="1" res="-4.5760650187730789e-02" rms="1.7485733330249786e-01" purity="6.0544766485691071e-02" nType="-99"/>
          <Node pos="r" depth="2" NCoef="0" IVar="-1" Cut="0.0000000000000000e+00" cType="1" res="4.0332460775971413e-03" rms="3.2844105362892151e-01" purity="6.7659437656402588e-01" nType="-99"/>
        </Node>
        <Node pos="r" depth="1" NCoef="0" IVar="0" Cut="4.8581342697143555e+00" cType="1" res="7.4000529944896698e-02" rms="2.6570287346839905e-01" purity="8.0462098121643066e-01" nType="0">
          <Node pos="l" depth="2" NCoef="0" IVar="-1" Cut="0.0000000000000000e+00" cType="1" res="3.5063043236732483e-02" rms="2.3682087659835815e-01" purity="8.7523370981216431e-01" nType="-99"/>
          <Node pos="r" depth="2" NCoef="0" IVar="-1" Cut="0.0000000000000000e+00" cType="1" res="-4.0889434516429901e-02" rms="3.4628912806510925e-01" purity="2.5612631440162659e-01" nType="-99"/>
        </Node>
      </Node>
    </BinaryTree>
    <BinaryTree type="DecisionTree" boostWeight="1.0000000000000000e+00" itree="20">
      <Node pos="s" depth="0" NCoef="0" IVar="4" Cut="4.5123513787984848e-02" cType="1" res="-1.0573752224445343e-03" rms="2.5259804725646973e-01" purity="4.9781492352485657e-01" nType="0">
        <Node pos="l" depth="1" NCoef="0" IVar="0" Cut="-4.6561508178710938e+00" cType="1" res="-1.2254040688276291e-01" rms="2.0137263834476471e-01" purity="1.0305383056402206e-01" nType="0">
          <Node pos="l" depth="2" NCoef="0" IVar="-1" Cut="0.0000000000000000e+00" cType="1" res="-6.5982319414615631e-02" rms="1.7651572823524475e-01" purity="2.0222889259457588e-02" nType="-99"/>
          <Node pos="r" depth="2" NCoef="0" IVar="-1" Cut="0.0000000000000000e+00" cType="1" res="-4.0295757353305817e-02" rms="2.0869396626949310e-01" purity="1.4117161929607391e-01" nType="-99"/>
        </Node>
        <Node pos="r" depth="1" NCoef="0" IVar="6" Cut="-6.2036627531051636e-01" cType="1" res="4.2766392230987549e-02" rms="2.5485357642173767e-01" purity="6.4022094011306763e-01" nType="0">
          <Node pos="l" depth="2" NCoef="0" IVar="-1" Cut="0.0000000000000000e+00" cType="1" res="-3.9541229605674744e-02" rms="1.9882568717002869e-01" purity="8.8753074407577515e-02" nType="-99"/>
          <Node pos="r" depth="2" NCoef="0" IVar="-1" Cut="0.0000000000000000e+00" cType="1" res="2.9087206348776817e-02" rms="2.5582104921340942e-01" purity="8.1624907255172729e-01" nType="-99"/>
        </Node>
      </Node>
    </BinaryTree>
    <BinaryTree type="DecisionTree" boostWeight="1.0000000000000000e+00" itree="21">
      <Node pos="s" depth="0" NCoef="0" IVar="5" Cut="4.2577740550041199e-01" cType="1" res="-2.1775297354906797e-03" rms="2.4813172221183777e-01" purity="4.9540385603904724e-01" nType="0">
        <Node pos="l" depth="1" NCoef="0" IVar="5" Cut="-7.2843068838119507e-01" cType="1" res="-8.1942416727542877e-02" rms="2.0755770802497864e-01" purity="1.6410453617572784e-01" nType="0">
          <Node pos="l" depth="2" NCoef="0" IVar="-1" Cut="0.0000000000000000e+00" cType="1" res="-5.1737099885940552e-02" rms="1.5461231768131256e-01" purity="3.4723460674285889e-02" nType="-99"/>
          <Node pos="r" depth="2" NCoef="0" IVar="-1" Cut="0.0000000000000000e+00" cType="1" res="-1.5011505223810673e-02" rms="2.5713142752647400e-01" purity="3.3966571092605591e-01" nType="-99"/>
        </Node>
        <Node pos="r" depth="1" NCoef="0" IVar="0" Cut="-9.1671304702758789e+00" cType="1" res="5.6431334465742111e-02" rms="2.5892993807792664e-01" purity="7.3883265256881714e-01" nType="0">
          <Node pos="l" depth="2" NCoef="0" IVar="-1" Cut="0.0000000000000000e+00" cType="1" res="-5.9200040996074677e-02" rms="3.3731254935264587e-01" purity="1.4032067358493805e-01" nType="-99"/>
          <Node pos="r" depth="2" NCoef="0" IVar="-1" Cut="0.0000000000000000e+00" cType="1" res="2.8130209073424339e-02" rms="2.3891489207744598e-01" purity="7.8696709871292114e-01" nType="-99"/>
        </Node>
      </Node>
    </BinaryTree>
    <BinaryTree type="DecisionTree" boostWeight="1.0000000000000000e+00" itree="22">
      <Node pos="s" depth="0" NCoef="0" IVar="4" Cut="1.4071658253669739e-01" cType="1" res="-1.5185762895271182e-03" rms="2.4424730241298676e-01" purity="4.9715211987495422e-01" nType="0">
        <Node pos="l" depth="1" NCoef="0" IVar="2" Cut="2.6879131317138672e+01" cType="1" res="-1.0438870638608932e-01" rms="1.9820438325405121e-01" purity="1.1791384965181351e-01" nType="0">
          <Node pos="l" depth="2" NCoef="0" IVar="-1" Cut="0.0000000000000000e+00" cType="1" res="-1.2848082929849625e-02" rms="2.2033131122589111e-01" purity="2.7512821555137634e-01" nType="-99"/>
          <Node pos="r" depth="2" NCoef="0" IVar="-1" Cut="0.0000000000000000e+00" cType="1" res="-5.1072262227535248e-02" rms="1.8919922411441803e-01" purity="8.3114922046661377e-02" nType="-99"/>
        </Node>
        <Node pos="r" depth="1" NCoef="0" IVar="0" Cut="5.7338156700134277e+00" cType="1" res="3.8016319274902344e-02" rms="2.4870871007442474e-01" purity="6.4290034770965576e-01" nType="0">
          <Node pos="l" depth="2" NCoef="0" IVar="-1" Cut="0.0000000000000000e+00" cType="1" res="2.6750734075903893e-02" rms="2.3537950217723846e-01" purity="7.5236821174621582e-01" nType="-99"/>
          <Node pos="r" depth="2" NCoef="0" IVar="-1" Cut="0.0000000000000000e+00" cType="1" res="-4.4635619968175888e-02" rms="2.5036287307739258e-01" purity="1.1154942214488983e-01" nType="-99"/>
        </Node>
      </Node>
    </BinaryTree>
    <BinaryTree type="DecisionTree" boostWeight="1.0000000000000000e+00" itree="23">
      <Node pos="s" depth="0" NCoef="0" IVar="7" Cut="3.2903566956520081e-01" cType="1" res="7.7925424557179213e-04" rms="2.4110180139541626e-01" purity="4.9977585673332214e-01" nType="0">
        <Node pos="l" depth="1" NCoef="0" IVar="6" Cut="8.0200904607772827e-01" cType="1" res="-5.5879596620798111e-02" rms="2.3336786031723022e-01" purity="1.9538059830665588e-01" nType="0">
          <Node pos="l" depth="2" NCoef="0" IVar="-1" Cut="0.0000000000000000e+00" cType="1" res="-3.5831108689308167e-02" rms="1.9423027336597443e-01" purity="9.7081668674945831e-02" nType="-99"/>
          <Node pos="r" depth="2" NCoef="0" IVar="-1" Cut="0.0000000000000000e+00" cType="1" res="5.9727784246206284e-03" rms="3.3785343170166016e-01" purity="5.9051680564880371e-01" nType="-99"/>
        </Node>
        <Node pos="r" depth="1" NCoef="0" IVar="0" Cut="-4.8767476081848145e+00" cType="1" res="6.8412832915782928e-02" rms="2.3260273039340973e-01" purity="8.6313199996948242e-01" nType="0">
          <Node pos="l" depth="2" NCoef="0" IVar="-1" Cut="0.0000000000000000e+00" cType="1" res="-5.2801951766014099e-02" rms="4.0352216362953186e-01" purity="3.7831848859786987e-01" nType="-99"/>
          <Node pos="r" depth="2" NCoef="0" IVar="-1" Cut="0.0000000000000000e+00" cType="1" res="3.5074133425951004e-02" rms="1.9910675287246704e-01" purity="9.0075647830963135e-01" nType="-99"/>
        </Node>
      </Node>
    </BinaryTree>
    <BinaryTree type="DecisionTree" boostWeight="1.0000000000000000e+00" itree="24">
      <Node pos="s" depth="0" NCoef="0" IVar="5" Cut="-1.4429883658885956e-01" cType="1" res="-3.9082040893845260e-04" rms="2.3791822791099548e-01" purity="4.9953475594520569e-01" nType="0">
        <Node pos="l" depth="1" NCoef="0" IVar="5" Cut="-8.7780767679214478e-01" cType="1" res="-8.2701511681079865e-02" rms="1.7557053267955780e-01" purity="8.2904577255249023e-02" nType="0">
          <Node pos="l" depth="2" NCoef="0" IVar="-1" Cut="0.0000000000000000e+00" cType="1" res="-5.4663058370351791e-02" rms="1.3403676450252533e-01" purity="2.0141813904047012e-02" nType="-99"/>
          <Node pos="r" depth="2" NCoef="0" IVar="-1" Cut="0.0000000000000000e+00" cType="1" res="-2.3572204634547234e-02" rms="2.1874529123306274e-01" purity="1.7242300510406494e-01" nType="-99"/>
        </Node>
        <Node pos="r" depth="1" NCoef="0" IVar="0" Cut="-5.8928394317626953e+00" cType="1" res="4.0546778589487076e-02" rms="2.5373494625091553e-01" purity="7.0674771070480347e-01" nType="0">
          <Node pos="l" depth="2" NCoef="0" IVar="-1" Cut="0.0000000000000000e+00" cType="1" res="-4.7077894210815430e-02" rms="3.3436465263366699e-01" purity="1.8714557588100433e-01" nType="-99"/>
          <Node pos="r" depth="2" NCoef="0" IVar="-1" Cut="0.0000000000000000e+00" cType="1" res="2.5125723332166672e-02" rms="2.3110376298427582e-01" purity="7.7064001560211182e-01" nType="-99"/>
        </Node>
      </Node>
    </BinaryTree>
    <BinaryTree type="DecisionTree" boostWeight="1.0000000000000000e+00" itree="25">
      <Node pos="s" depth="0" NCoef="0" IVar="0" Cut="4.7690315246582031e+00" cType="1" res="-3.0586801585741341e-04" rms="2.3576728999614716e-01" purity="5.0056046247482300e-01" nType="0">
        <Node pos="l" depth="1" NCoef="0" IVar="0" Cut="-3.2505412101745605e+00" cType="1" res="3.0640196055173874e-02" rms="2.3282212018966675e-01" purity="6.2638354301452637e-01" nType="0">
          <Node pos="l" depth="2" NCoef="0" IVar="-1" Cut="0.0000000000000000e+00" cType="1" res="-3.8396388292312622e-02" rms="2.6581823825836182e-01" purity="1.9389799237251282e-01" nType="-99"/>
          <Node pos="r" depth="2" NCoef="0" IVar="-1" Cut="0.0000000000000000e+00" cType="1" res="3.4720622003078461e-02" rms="1.9541697204113007e-01" purity="8.0337500572204590e-01" nType="-99"/>
        </Node>
        <Node pos="r" depth="1" NCoef="0" IVar="7" Cut="-5.2625989913940430e-01" cType="1" res="-1.0099394619464874e-01" rms="2.1638515591621399e-01" purity="9.1174490749835968e-02" nType="0">
          <Node pos="l" depth="2" NCoef="0" IVar="-1" Cut="0.0000000000000000e+00" cType="1" res="-4.4794213026762009e-02" rms="1.5282601118087769e-01" purity="3.0333172529935837e-02" nType="-99"/>
          <Node pos="r" depth="2" NCoef="0" IVar="-1" Cut="0.0000000000000000e+00" cType="1" res="-4.4177312403917313e-02" rms="3.1337130069732666e-01" purity="2.3363284766674042e-01" nType="-99"/>
        </Node>
      </Node>
    </BinaryTree>
    <BinaryTree type="DecisionTree" boostWeight="1.0000000000000000e+00" itree="26">
      <Node pos="s" depth="0" NCoef="0" IVar="4" Cut="-4.9208078533411026e-02" cType="1" res="8.7932555470615625e-04" rms="2.3141744732856750e-01" purity="5.0311988592147827e-01" nType="0">
        <Node pos="l" depth="1" NCoef="0" IVar="4" Cut="-6.8330365419387817e-01" cType="1" res="-8.8134407997131348e-02" rms="1.8647873401641846e-01" purity="9.4340406358242035e-02" nType="0">
          <Node pos="l" depth="2" NCoef="0" IVar="-1" Cut="0.0000000000000000e+00" cType="1" res="-5.2802179008722305e-02" rms="1.5968523919582367e-01" purity="3.8030281662940979e-02" nType="-99"/>
          <Node pos="r" depth="2" NCoef="0" IVar="-1" Cut="0.0000000000000000e+00" cType="1" res="-2.4909550324082375e-02" rms="2.2672395408153534e-01" purity="2.0402377843856812e-01" nType="-99"/>
        </Node>
        <Node pos="r" depth="1" NCoef="0" IVar="0" Cut="5.7338156700134277e+00" cType="1" res="3.0850384384393692e-02" rms="2.3729959130287170e-01" purity="6.4075660705566406e-01" nType="0">
          <Node pos="l" depth="2" NCoef="0" IVar="-1" Cut="0.0000000000000000e+00" cType="1" res="2.3775910958647728e-02" rms="2.2658388316631317e-01" purity="7.5084877014160156e-01" nType="-99"/>
          <Node pos="r" depth="2" NCoef="0" IVar="-1" Cut="0.0000000000000000e+00" cType="1" res="-3.8494024425745010e-02" rms="2.4788764119148254e-01" purity="1.1443575471639633e-01" nType="-99"/>
        </Node>
      </Node>
    </BinaryTree>
    <BinaryTree type="DecisionTree" boostWeight="1.0000000000000000e+00" itree="27">
      <Node pos="s" depth="0" NCoef="0" IVar="7" Cut="-7.1537846326828003e-01" cType="1" res="-7.6299073407426476e-04" rms="2.3057362437248230e-01" purity="4.9879130721092224e-01" nType="0">
        <Node pos="l" depth="1" NCoef="0" IVar="2" Cut="2.5942728042602539e+01" cType="1" res="-6.6085524857044220e-02" rms="1.9694203138351440e-01" purity="6.9705493748188019e-02" nType="0">
          <Node pos="l" depth="2" NCoef="0" IVar="-1" Cut="0.0000000000000000e+00" cType="1" res="-1.2075676582753658e-02" rms="2.2976461052894592e-01" purity="1.3073010742664337e-01" nType="-99"/>
          <Node pos="r" depth="2" NCoef="0" IVar="-1" Cut="0.0000000000000000e+00" cType="1" res="-3.8105323910713196e-02" rms="1.9027887284755707e-01" purity="5.9843413531780243e-02" nType="-99"/>
        </Node>
        <Node pos="r" depth="1" NCoef="0" IVar="0" Cut="-8.9337091445922852e+00" cType="1" res="3.6702636629343033e-02" rms="2.3991596698760986e-01" purity="7.4489277601242065e-01" nType="0">
          <Node pos="l" depth="2" NCoef="0" IVar="-1" Cut="0.0000000000000000e+00" cType="1" res="-6.3929758965969086e-02" rms="3.0430105328559875e-01" purity="9.5937952399253845e-02" nType="-99"/>
          <Node pos="r" depth="2" NCoef="0" IVar="-1" Cut="0.0000000000000000e+00" cType="1" res="2.2671693935990334e-02" rms="2.2454515099525452e-01" purity="7.9319506883621216e-01" nType="-99"/>
        </Node>
      </Node>
    </BinaryTree>
    <BinaryTree type="DecisionTree" boostWeight="1.0000000000000000e+00" itree="28">
      <Node pos="s" depth="0" NCoef="0" IVar="5" Cut="2.3567375540733337e-01" cType="1" res="-9.6310279332101345e-04" rms="2.2740004956722260e-01" purity="4.9795645475387573e-01" nType="0">
        <Node pos="l" depth="1" NCoef="0" IVar="6" Cut="8.0518019199371338e-01" cType="1" res="-6.0991313308477402e-02" rms="1.8287953734397888e-01" purity="1.3239736855030060e-01" nType="0">
          <Node pos="l" depth="2" NCoef="0" IVar="-1" Cut="0.0000000000000000e+00" cType="1" res="-4.2884841561317444e-02" rms="1.5030272305011749e-01" purity="6.4118117094039917e-02" nType="-99"/>
          <Node pos="r" depth="2" NCoef="0" IVar="-1" Cut="0.0000000000000000e+00" cType="1" res="-2.2539356723427773e-03" rms="2.9914635419845581e-01" purity="5.0628429651260376e-01" nType="-99"/>
        </Node>
        <Node pos="r" depth="1" NCoef="0" IVar="0" Cut="8.8121242523193359e+00" cType="1" res="3.7458043545484543e-02" rms="2.4417071044445038e-01" purity="7.3193311691284180e-01" nType="0">
          <Node pos="l" depth="2" NCoef="0" IVar="-1" Cut="0.0000000000000000e+00" cType="1" res="2.3406643420457840e-02" rms="2.3312419652938843e-01" purity="8.0300265550613403e-01" nType="-99"/>
          <Node pos="r" depth="2" NCoef="0" IVar="-1" Cut="0.0000000000000000e+00" cType="1" res="-4.4232223182916641e-02" rms="2.8129115700721741e-01" purity="9.0460427105426788e-02" nType="-99"/>
        </Node>
      </Node>
    </BinaryTree>
    <BinaryTree type="DecisionTree" boostWeight="1.0000000000000000e+00" itree="29">
      <Node pos="s" depth="0" NCoef="0" IVar="6" Cut="4.2514225840568542e-01" cType="1" res="-9.7437028307467699e-04" rms="2.2471846640110016e-01" purity="4.9773991107940674e-01" nType="0">
        <Node pos="l" depth="1" NCoef="0" IVar="2" Cut="2.9546567916870117e+01" cType="1" res="-4.7506198287010193e-02" rms="1.9626566767692566e-01" purity="1.7720924317836761e-01" nType="0">
          <Node pos="l" depth="2" NCoef="0" IVar="-1" Cut="0.0000000000000000e+00" cType="1" res="4.4352957047522068e-03" rms="2.0201280713081360e-01" purity="3.6677062511444092e-01" nType="-99"/>
          <Node pos="r" depth="2" NCoef="0" IVar="-1" Cut="0.0000000000000000e+00" cType="1" res="-3.6177199333906174e-02" rms="1.9087976217269897e-01" purity="1.1653553694486618e-01" nType="-99"/>
        </Node>
        <Node pos="r" depth="1" NCoef="0" IVar="0" Cut="-9.1671304702758789e+00" cType="1" res="4.3643690645694733e-02" rms="2.4065949022769928e-01" purity="8.0508768558502197e-01" nType="0">
          <Node pos="l" depth="2" NCoef="0" IVar="-1" Cut="0.0000000000000000e+00" cType="1" res="-5.0662890076637268e-02" rms="3.7591284513473511e-01" purity="1.7171233892440796e-01" nType="-99"/>
          <Node pos="r" depth="2" NCoef="0" IVar="-1" Cut="0.0000000000000000e+00" cType="1" res="2.5177221745252609e-02" rms="2.2151988744735718e-01" purity="8.4312540292739868e-01" nType="-99"/>
        </Node>
      </Node>
    </BinaryTree>
    <BinaryTree type="DecisionTree" boostWeight="1.0000000000000000e+00" itree="30">
      <Node pos="s" depth="0" NCoef="0" IVar="4" Cut="2.3521415889263153e-01" cType="1" res="1.4305597869679332e-04" rms="2.2261922061443329e-01" purity="5.0099933147430420e-01" nType="0">
        <Node pos="l" depth="1" NCoef="0" IVar="4" Cut="-5.8828401565551758e-01" cType="1" res="-6.7622080445289612e-02" rms="1.8744245171546936e-01" purity="1.3589346408843994e-01" nType="0">
          <Node pos="l" depth="2" NCoef="0" IVar="-1" Cut="0.0000000000000000e+00" cType="1" res="-4.9058880656957626e-02" rms="1.5681119263172150e-01" purity="4.1943762451410294e-02" nType="-99"/>
          <Node pos="r" depth="2" NCoef="0" IVar="-1" Cut="0.0000000000000000e+00" cType="1" res="-1.8513446673750877e-02" rms="2.2675292193889618e-01" purity="2.9245722293853760e-01" nType="-99"/>
        </Node>
        <Node pos="r" depth="1" NCoef="0" IVar="7" Cut="-8.1013774871826172e-01" cType="1" res="2.7919666841626167e-02" rms="2.2982184588909149e-01" purity="6.5065455436706543e-01" nType="0">
          <Node pos="l" depth="2" NCoef="0" IVar="-1" Cut="0.0000000000000000e+00" cType="1" res="-2.7773737907409668e-02" rms="2.3535935580730438e-01" purity="9.7916446626186371e-02" nType="-99"/>
          <Node pos="r" depth="2" NCoef="0" IVar="-1" Cut="0.0000000000000000e+00" cType="1" res="2.5142228230834007e-02" rms="2.2098650038242340e-01" purity="8.2928544282913208e-01" nType="-99"/>
        </Node>
      </Node>
    </BinaryTree>
    <BinaryTree type="DecisionTree" boostWeight="1.0000000000000000e+00" itree="31">
      <Node pos="s" depth="0" NCoef="0" IVar="5" Cut="-2.3990964889526367e-01" cType="1" res="1.1219521984457970e-03" rms="2.2259892523288727e-01" purity="5.0153166055679321e-01" nType="0">
        <Node pos="l" depth="1" NCoef="0" IVar="5" Cut="-7.8287655115127563e-01" cType="1" res="-6.1666451394557953e-02" rms="1.5703088045120239e-01" purity="6.9246895611286163e-02" nType="0">
          <Node pos="l" depth="2" NCoef="0" IVar="-1" Cut="0.0000000000000000e+00" cType="1" res="-4.9069076776504517e-02" rms="1.3236169517040253e-01" purity="2.5738531723618507e-02" nType="-99"/>
          <Node pos="r" depth="2" NCoef="0" IVar="-1" Cut="0.0000000000000000e+00" cType="1" res="-1.7828378826379776e-02" rms="2.0365938544273376e-01" purity="1.7764040827751160e-01" nType="-99"/>
        </Node>
        <Node pos="r" depth="1" NCoef="0" IVar="0" Cut="-5.8928394317626953e+00" cType="1" res="3.0243994668126106e-02" rms="2.4169959127902985e-01" purity="7.0203077793121338e-01" nType="0">
          <Node pos="l" depth="2" NCoef="0" IVar="-1" Cut="0.0000000000000000e+00" cType="1" res="-3.6391973495483398e-02" rms="3.3278721570968628e-01" purity="1.8535026907920837e-01" nType="-99"/>
          <Node pos="r" depth="2" NCoef="0" IVar="-1" Cut="0.0000000000000000e+00" cType="1" res="2.1769184619188309e-02" rms="2.2175303101539612e-01" purity="7.6713144779205322e-01" nType="-99"/>
        </Node>
      </Node>
    </BinaryTree>
    <BinaryTree type="DecisionTree" boostWeight="1.0000000000000000e+00" itree="32">
      <Node pos="s" depth="0" NCoef="0" IVar="0" Cut="4.7690315246582031e+00" cType="1" res="3.3931329380720854e-04" rms="2.2003413736820221e-01" purity="5.0112068653106689e-01" nType="0">
        <Node pos="l" depth="1" NCoef="0" IVar="0" Cut="-3.2505412101745605e+00" cType="1" res="2.2984115406870842e-02" rms="2.1691335737705231e-01" purity="6.2647098302841187e-01" nType="0">
          <Node pos="l" depth="2" NCoef="0" IVar="-1" Cut="0.0000000000000000e+00" cType="1" res="-3.1238893046975136e-02" rms="2.5664085149765015e-01" purity="1.9799757003784180e-01" nType="-99"/>
          <Node pos="r" depth="2" NCoef="0" IVar="-1" Cut="0.0000000000000000e+00" cType="1" res="3.0056072399020195e-02" rms="1.8603366613388062e-01" purity="8.0339437723159790e-01" nType="-99"/>
        </Node>
        <Node pos="r" depth="1" NCoef="0" IVar="7" Cut="-3.3726951479911804e-01" cType="1" res="-7.3785826563835144e-02" rms="2.1378865838050842e-01" purity="9.0800866484642029e-02" nType="0">
          <Node pos="l" depth="2" NCoef="0" IVar="-1" Cut="0.0000000000000000e+00" cType="1" res="-3.7628374993801117e-02" rms="1.5681040287017822e-01" purity="3.5198852419853210e-02" nType="-99"/>
          <Node pos="r" depth="2" NCoef="0" IVar="-1" Cut="0.0000000000000000e+00" cType="1" res="-4.0462967008352280e-02" rms="3.2185298204421997e-01" purity="2.5667017698287964e-01" nType="-99"/>
        </Node>
      </Node>
    </BinaryTree>
    <BinaryTree type="DecisionTree" boostWeight="1.0000000000000000e+00" itree="33">
      <Node pos="s" depth="0" NCoef="0" IVar="4" Cut="4.2618787288665771e-01" cType="1" res="3.4249690361320972e-04" rms="2.1785604953765869e-01" purity="5.0146943330764771e-01" nType="0">
        <Node pos="l" depth="1" NCoef="0" IVar="2" Cut="3.3932151794433594e+01" cType="1" res="-5.4260745644569397e-02" rms="1.9571307301521301e-01" purity="1.7461478710174561e-01" nType="0">
          <Node pos="l" depth="2" NCoef="0" IVar="-1" Cut="0.0000000000000000e+00" cType="1" res="-1.0524164885282516e-02" rms="2.0640115439891815e-01" purity="3.1736105680465698e-01" nType="-99"/>
          <Node pos="r" depth="2" NCoef="0" IVar="-1" Cut="0.0000000000000000e+00" cType="1" res="-4.1371714323759079e-02" rms="1.8811218440532684e-01" purity="1.0528016835451126e-01" nType="-99"/>
        </Node>
        <Node pos="r" depth="1" NCoef="0" IVar="6" Cut="-7.1497154235839844e-01" cType="1" res="2.6828639209270477e-02" rms="2.2305956482887268e-01" purity="6.6001522541046143e-01" nType="0">
          <Node pos="l" depth="2" NCoef="0" IVar="-1" Cut="0.0000000000000000e+00" cType="1" res="-3.4708246588706970e-02" rms="1.8762740492820740e-01" purity="8.2249030470848083e-02" nType="-99"/>
          <Node pos="r" depth="2" NCoef="0" IVar="-1" Cut="0.0000000000000000e+00" cType="1" res="2.3330975323915482e-02" rms="2.2627072036266327e-01" purity="8.1714123487472534e-01" nType="-99"/>
        </Node>
      </Node>
    </BinaryTree>
    <BinaryTree type="DecisionTree" boostWeight="1.0000000000000000e+00" itree="34">
      <Node pos="s" depth="0" NCoef="0" IVar="0" Cut="4.7690315246582031e+00" cType="1" res="-2.0238506840541959e-04" rms="2.1808889508247375e-01" purity="5.0059765577316284e-01" nType="0">
        <Node pos="l" depth="1" NCoef="0" IVar="0" Cut="-3.2505412101745605e+00" cType="1" res="1.9665313884615898e-02" rms="2.1617992222309113e-01" purity="6.2483370304107666e-01" nType="0">
          <Node pos="l" depth="2" NCoef="0" IVar="-1" Cut="0.0000000000000000e+00" cType="1" res="-2.8345083817839622e-02" rms="2.5945490598678589e-01" purity="1.9078034162521362e-01" nType="-99"/>
          <Node pos="r" depth="2" NCoef="0" IVar="-1" Cut="0.0000000000000000e+00" cType="1" res="2.7105616405606270e-02" rms="1.8667353689670563e-01" purity="8.0153560638427734e-01" nType="-99"/>
        </Node>
        <Node pos="r" depth="1" NCoef="0" IVar="7" Cut="-4.3136838078498840e-01" cType="1" res="-6.5526172518730164e-02" rms="2.1147920191287994e-01" purity="9.2117048799991608e-02" nType="0">
          <Node pos="l" depth="2" NCoef="0" IVar="-1" Cut="0.0000000000000000e+00" cType="1" res="-3.6912474781274796e-02" rms="1.5153202414512634e-01" purity="3.0934087932109833e-02" nType="-99"/>
          <Node pos="r" depth="2" NCoef="0" IVar="-1" Cut="0.0000000000000000e+00" cType="1" res="-3.5973791033029556e-02" rms="3.1319984793663025e-01" purity="2.5105181336402893e-01" nType="-99"/>
        </Node>
      </Node>
    </BinaryTree>
    <BinaryTree type="DecisionTree" boostWeight="1.0000000000000000e+00" itree="35">
      <Node pos="s" depth="0" NCoef="0" IVar="3" Cut="1.8809780120849609e+01" cType="1" res="-3.0292326118797064e-04" rms="2.1433693170547485e-01" purity="5.0024151802062988e-01" nType="0">
        <Node pos="l" depth="1" NCoef="0" IVar="2" Cut="3.7088630676269531e+01" cType="1" res="3.6440055817365646e-02" rms="1.9264778494834900e-01" purity="6.7022240161895752e-01" nType="0">
          <Node pos="l" depth="2" NCoef="0" IVar="-1" Cut="0.0000000000000000e+00" cType="1" res="3.3729724586009979e-02" rms="1.6885921359062195e-01" purity="7.8671163320541382e-01" nType="-99"/>
          <Node pos="r" depth="2" NCoef="0" IVar="-1" Cut="0.0000000000000000e+00" cType="1" res="-2.3107113316655159e-02" rms="2.3759949207305908e-01" purity="2.9474282264709473e-01" nType="-99"/>
        </Node>
        <Node pos="r" depth="1" NCoef="0" IVar="7" Cut="6.1254864931106567e-01" cType="1" res="-3.3271070569753647e-02" rms="2.2707347571849823e-01" purity="3.4772375226020813e-01" nType="0">
          <Node pos="l" depth="2" NCoef="0" IVar="-1" Cut="0.0000000000000000e+00" cType="1" res="-2.7828587219119072e-02" rms="2.1561403572559357e-01" purity="1.7567001283168793e-01" nType="-99"/>
          <Node pos="r" depth="2" NCoef="0" IVar="-1" Cut="0.0000000000000000e+00" cType="1" res="5.7145114988088608e-03" rms="2.4886554479598999e-01" purity="7.9667711257934570e-01" nType="-99"/>
        </Node>
      </Node>
    </BinaryTree>
    <BinaryTree type="DecisionTree" boostWeight="1.0000000000000000e+00" itree="36">
      <Node pos="s" depth="0" NCoef="0" IVar="5" Cut="1.4013552665710449e-01" cType="1" res="2.3730770044494420e-04" rms="2.1364444494247437e-01" purity="5.0225692987442017e-01" nType="0">
        <Node pos="l" depth="1" NCoef="0" IVar="5" Cut="-7.8285300731658936e-01" cType="1" res="-4.5608431100845337e-02" rms="1.6857813298702240e-01" purity="1.1084240674972534e-01" nType="0">
          <Node pos="l" depth="2" NCoef="0" IVar="-1" Cut="0.0000000000000000e+00" cType="1" res="-4.5767713338136673e-02" rms="1.3126333057880402e-01" purity="2.6633923873305321e-02" nType="-99"/>
          <Node pos="r" depth="2" NCoef="0" IVar="-1" Cut="0.0000000000000000e+00" cType="1" res="-1.3687759637832642e-02" rms="2.1363680064678192e-01" purity="2.4494312703609467e-01" nType="-99"/>
        </Node>
        <Node pos="r" depth="1" NCoef="0" IVar="0" Cut="1.6164606094360352e+01" cType="1" res="2.6863291859626770e-02" rms="2.3177219927310944e-01" purity="7.2957998514175415e-01" nType="0">
          <Node pos="l" depth="2" NCoef="0" IVar="-1" Cut="0.0000000000000000e+00" cType="1" res="1.8551997840404510e-02" rms="2.2972926497459412e-01" purity="7.7451920509338379e-01" nType="-99"/>
          <Node pos="r" depth="2" NCoef="0" IVar="-1" Cut="0.0000000000000000e+00" cType="1" res="-6.2487397342920303e-02" rms="1.9979774951934814e-01" purity="2.2011453285813332e-02" nType="-99"/>
        </Node>
      </Node>
    </BinaryTree>
    <BinaryTree type="DecisionTree" boostWeight="1.0000000000000000e+00" itree="37">
      <Node pos="s" depth="0" NCoef="0" IVar="2" Cut="2.9546567916870117e+01" cType="1" res="-6.7124987253919244e-04" rms="2.1098135411739349e-01" purity="5.0103962421417236e-01" nType="0">
        <Node pos="l" depth="1" NCoef="0" IVar="3" Cut="2.6880233764648438e+01" cType="1" res="4.5638930052518845e-02" rms="1.6459895670413971e-01" purity="7.4882209300994873e-01" nType="0">
          <Node pos="l" depth="2" NCoef="0" IVar="-1" Cut="0.0000000000000000e+00" cType="1" res="3.3786665648221970e-02" rms="1.5709732472896576e-01" purity="8.0329215526580811e-01" nType="-99"/>
          <Node pos="r" depth="2" NCoef="0" IVar="-1" Cut="0.0000000000000000e+00" cType="1" res="-6.7151769995689392e-02" rms="1.7369849979877472e-01" purity="3.8829062134027481e-02" nType="-99"/>
        </Node>
        <Node pos="r" depth="1" NCoef="0" IVar="6" Cut="7.1017068624496460e-01" cType="1" res="-2.7048176154494286e-02" rms="2.2916799783706665e-01" purity="3.5990995168685913e-01" nType="0">
          <Node pos="l" depth="2" NCoef="0" IVar="-1" Cut="0.0000000000000000e+00" cType="1" res="-2.8818465769290924e-02" rms="2.0100319385528564e-01" purity="1.6935519874095917e-01" nType="-99"/>
          <Node pos="r" depth="2" NCoef="0" IVar="-1" Cut="0.0000000000000000e+00" cType="1" res="4.0678377263247967e-03" rms="2.7142971754074097e-01" purity="7.2438949346542358e-01" nType="-99"/>
        </Node>
      </Node>
    </BinaryTree>
    <BinaryTree type="DecisionTree" boostWeight="1.0000000000000000e+00" itree="38">
      <Node pos="s" depth="0" NCoef="0" IVar="6" Cut="-4.3020272254943848e-01" cType="1" res="-1.8207143293693662e-03" rms="2.0930559933185577e-01" purity="4.9834829568862915e-01" nType="0">
        <Node pos="l" depth="1" NCoef="0" IVar="7" Cut="-1.4705255627632141e-01" cType="1" res="-4.3861031532287598e-02" rms="1.5351040661334991e-01" purity="6.4046762883663177e-02" nType="0">
          <Node pos="l" depth="2" NCoef="0" IVar="-1" Cut="0.0000000000000000e+00" cType="1" res="-4.4072072952985764e-02" rms="9.1214485466480255e-02" purity="9.6715819090604782e-03" nType="-99"/>
          <Node pos="r" depth="2" NCoef="0" IVar="-1" Cut="0.0000000000000000e+00" cType="1" res="-2.1324194967746735e-02" rms="3.0746671557426453e-01" purity="3.1935682892799377e-01" nType="-99"/>
        </Node>
        <Node pos="r" depth="1" NCoef="0" IVar="0" Cut="8.8121242523193359e+00" cType="1" res="2.1409135311841965e-02" rms="2.3125383257865906e-01" purity="7.3832648992538452e-01" nType="0">
          <Node pos="l" depth="2" NCoef="0" IVar="-1" Cut="0.0000000000000000e+00" cType="1" res="1.7838710919022560e-02" rms="2.2269898653030396e-01" purity="8.0998462438583374e-01" nType="-99"/>
          <Node pos="r" depth="2" NCoef="0" IVar="-1" Cut="0.0000000000000000e+00" cType="1" res="-4.3493557721376419e-02" rms="2.6598149538040161e-01" purity="7.6195739209651947e-02" nType="-99"/>
        </Node>
      </Node>
    </BinaryTree>
    <BinaryTree type="DecisionTree" boostWeight="1.0000000000000000e+00" itree="39">
      <Node pos="s" depth="0" NCoef="0" IVar="4" Cut="6.1601513624191284e-01" cType="1" res="-5.8121042093262076e-04" rms="2.0952823758125305e-01" purity="4.9577662348747253e-01" nType="0">
        <Node pos="l" depth="1" NCoef="0" IVar="4" Cut="-4.6138778328895569e-01" cType="1" res="-3.9532415568828583e-02" rms="1.9364280998706818e-01" purity="2.2236151993274689e-01" nType="0">
          <Node pos="l" depth="2" NCoef="0" IVar="-1" Cut="0.0000000000000000e+00" cType="1" res="-4.3431058526039124e-02" rms="1.5323354303836823e-01" purity="4.7872755676507950e-02" nType="-99"/>
          <Node pos="r" depth="2" NCoef="0" IVar="-1" Cut="0.0000000000000000e+00" cType="1" res="-8.8522089645266533e-03" rms="2.3005272448062897e-01" purity="4.2653006315231323e-01" nType="-99"/>
        </Node>
        <Node pos="r" depth="1" NCoef="0" IVar="0" Cut="1.3290672302246094e+01" cType="1" res="2.2892415523529053e-02" rms="2.1516595780849457e-01" purity="6.6054797172546387e-01" nType="0">
          <Node pos="l" depth="2" NCoef="0" IVar="-1" Cut="0.0000000000000000e+00" cType="1" res="1.8726496025919914e-02" rms="2.1512323617935181e-01" purity="7.2869235277175903e-01" nType="-99"/>
          <Node pos="r" depth="2" NCoef="0" IVar="-1" Cut="0.0000000000000000e+00" cType="1" res="-5.0813779234886169e-02" rms="1.8577840924263000e-01" purity="2.7402594685554504e-02" nType="-99"/>
        </Node>
      </Node>
    </BinaryTree>
    <BinaryTree type="DecisionTree" boostWeight="1.0000000000000000e+00" itree="40">
      <Node pos="s" depth="0" NCoef="0" IVar="7" Cut="-7.1520662307739258e-01" cType="1" res="1.9082521612290293e-04" rms="2.0731286704540253e-01" purity="5.0027918815612793e-01" nType="0">
        <Node pos="l" depth="1" NCoef="0" IVar="7" Cut="-9.8645013570785522e-01" cType="1" res="-3.7781905382871628e-02" rms="1.8709622323513031e-01" purity="6.8009674549102783e-02" nType="0">
          <Node pos="l" depth="2" NCoef="0" IVar="-1" Cut="0.0000000000000000e+00" cType="1" res="-9.9282674491405487e-03" rms="2.2207680344581604e-01" purity="9.3503855168819427e-02" nType="-99"/>
          <Node pos="r" depth="2" NCoef="0" IVar="-1" Cut="0.0000000000000000e+00" cType="1" res="-3.1400993466377258e-02" rms="1.7620140314102173e-01" purity="6.1291739344596863e-02" nType="-99"/>
        </Node>
        <Node pos="r" depth="1" NCoef="0" IVar="0" Cut="-8.9337091445922852e+00" cType="1" res="2.1928545087575912e-02" rms="2.1504700183868408e-01" purity="7.4773442745208740e-01" nType="0">
          <Node pos="l" depth="2" NCoef="0" IVar="-1" Cut="0.0000000000000000e+00" cType="1" res="-4.9329213798046112e-02" rms="3.0538421869277954e-01" purity="1.0492736846208572e-01" nType="-99"/>
          <Node pos="r" depth="2" NCoef="0" IVar="-1" Cut="0.0000000000000000e+00" cType="1" res="1.8329937011003494e-02" rms="2.0227731764316559e-01" purity="7.9594802856445312e-01" nType="-99"/>
        </Node>
      </Node>
    </BinaryTree>
    <BinaryTree type="DecisionTree" boostWeight="1.0000000000000000e+00" itree="41">
      <Node pos="s" depth="0" NCoef="0" IVar="5" Cut="-4.9220938235521317e-02" cType="1" res="-6.8430474493652582e-04" rms="2.0727944374084473e-01" purity="5.0057399272918701e-01" nType="0">
        <Node pos="l" depth="1" NCoef="0" IVar="5" Cut="-9.0949827432632446e-01" cType="1" res="-4.0327567607164383e-02" rms="1.5336824953556061e-01" purity="8.5622780025005341e-02" nType="0">
          <Node pos="l" depth="2" NCoef="0" IVar="-1" Cut="0.0000000000000000e+00" cType="1" res="-4.7827720642089844e-02" rms="1.2633316218852997e-01" purity="1.8494980409741402e-02" nType="-99"/>
          <Node pos="r" depth="2" NCoef="0" IVar="-1" Cut="0.0000000000000000e+00" cType="1" res="-1.8492741510272026e-02" rms="1.7787428200244904e-01" purity="1.5993100404739380e-01" nType="-99"/>
        </Node>
        <Node pos="r" depth="1" NCoef="0" IVar="4" Cut="-6.1981350183486938e-01" cType="1" res="2.0006693899631500e-02" rms="2.2773723304271698e-01" purity="7.1714937686920166e-01" nType="0">
          <Node pos="l" depth="2" NCoef="0" IVar="-1" Cut="0.0000000000000000e+00" cType="1" res="-4.0219891816377640e-02" rms="2.3216004669666290e-01" purity="1.0811223834753036e-01" nType="-99"/>
          <Node pos="r" depth="2" NCoef="0" IVar="-1" Cut="0.0000000000000000e+00" cType="1" res="1.6893789172172546e-02" rms="2.2445362806320190e-01" purity="7.7707958221435547e-01" nType="-99"/>
        </Node>
      </Node>
    </BinaryTree>
    <BinaryTree type="DecisionTree" boostWeight="1.0000000000000000e+00" itree="42">
      <Node pos="s" depth="0" NCoef="0" IVar="6" Cut="3.2952699065208435e-01" cType="1" res="-1.6020378097891808e-03" rms="2.0390570163726807e-01" purity="4.9669840931892395e-01" nType="0">
        <Node pos="l" depth="1" NCoef="0" IVar="7" Cut="8.0012911558151245e-01" cType="1" res="-3.0136611312627792e-02" rms="1.7530918121337891e-01" purity="1.4999036490917206e-01" nType="0">
          <Node pos="l" depth="2" NCoef="0" IVar="-1" Cut="0.0000000000000000e+00" cType="1" res="-3.0106538906693459e-02" rms="1.5793541073799133e-01" purity="8.1696666777133942e-02" nType="-99"/>
          <Node pos="r" depth="2" NCoef="0" IVar="-1" Cut="0.0000000000000000e+00" cType="1" res="6.5002753399312496e-03" rms="2.7347457408905029e-01" purity="6.9892066717147827e-01" nType="-99"/>
        </Node>
        <Node pos="r" depth="1" NCoef="0" IVar="0" Cut="-5.8928394317626953e+00" cType="1" res="2.3396385833621025e-02" rms="2.2302387654781342e-01" purity="8.0044072866439819e-01" nType="0">
          <Node pos="l" depth="2" NCoef="0" IVar="-1" Cut="0.0000000000000000e+00" cType="1" res="-3.1619925051927567e-02" rms="3.7129914760589600e-01" purity="2.4963343143463135e-01" nType="-99"/>
          <Node pos="r" depth="2" NCoef="0" IVar="-1" Cut="0.0000000000000000e+00" cType="1" res="1.9793318584561348e-02" rms="2.0148380100727081e-01" purity="8.4795492887496948e-01" nType="-99"/>
        </Node>
      </Node>
    </BinaryTree>
    <BinaryTree type="DecisionTree" boostWeight="1.0000000000000000e+00" itree="43">
      <Node pos="s" depth="0" NCoef="0" IVar="5" Cut="4.2577740550041199e-01" cType="1" res="-1.1674198321998119e-03" rms="2.0394290983676910e-01" purity="4.9846184253692627e-01" nType="0">
        <Node pos="l" depth="1" NCoef="0" IVar="7" Cut="7.0620816946029663e-01" cType="1" res="-3.0495578423142433e-02" rms="1.7186352610588074e-01" purity="1.6207203269004822e-01" nType="0">
          <Node pos="l" depth="2" NCoef="0" IVar="-1" Cut="0.0000000000000000e+00" cType="1" res="-3.2582364976406097e-02" rms="1.4433503150939941e-01" purity="7.6763167977333069e-02" nType="-99"/>
          <Node pos="r" depth="2" NCoef="0" IVar="-1" Cut="0.0000000000000000e+00" cType="1" res="1.6350941732525826e-03" rms="2.7473738789558411e-01" purity="6.2630152702331543e-01" nType="-99"/>
        </Node>
        <Node pos="r" depth="1" NCoef="0" IVar="0" Cut="1.1870766639709473e+01" cType="1" res="2.0155288279056549e-02" rms="2.2198563814163208e-01" purity="7.4303030967712402e-01" nType="0">
          <Node pos="l" depth="2" NCoef="0" IVar="-1" Cut="0.0000000000000000e+00" cType="1" res="1.6928829252719879e-02" rms="2.1758905053138733e-01" purity="8.0034208297729492e-01" nType="-99"/>
          <Node pos="r" depth="2" NCoef="0" IVar="-1" Cut="0.0000000000000000e+00" cType="1" res="-4.8865672200918198e-02" rms="2.4119953811168671e-01" purity="4.6695321798324585e-02" nType="-99"/>
        </Node>
      </Node>
    </BinaryTree>
    <BinaryTree type="DecisionTree" boostWeight="1.0000000000000000e+00" itree="44">
      <Node pos="s" depth="0" NCoef="0" IVar="2" Cut="2.9281457901000977e+01" cType="1" res="8.3550286944955587e-04" rms="2.0454172790050507e-01" purity="5.0158166885375977e-01" nType="0">
        <Node pos="l" depth="1" NCoef="0" IVar="3" Cut="2.4427690505981445e+01" cType="1" res="3.8643710315227509e-02" rms="1.5741755068302155e-01" purity="7.5249069929122925e-01" nType="0">
          <Node pos="l" depth="2" NCoef="0" IVar="-1" Cut="0.0000000000000000e+00" cType="1" res="3.3288255333900452e-02" rms="1.5065322816371918e-01" purity="8.1256216764450073e-01" nType="-99"/>
          <Node pos="r" depth="2" NCoef="0" IVar="-1" Cut="0.0000000000000000e+00" cType="1" res="-5.5209420621395111e-02" rms="1.7887918651103973e-01" purity="1.0647919028997421e-01" nType="-99"/>
        </Node>
        <Node pos="r" depth="1" NCoef="0" IVar="0" Cut="-2.8843038082122803e+00" cType="1" res="-1.9947024062275887e-02" rms="2.2359699010848999e-01" purity="3.6366128921508789e-01" nType="0">
          <Node pos="l" depth="2" NCoef="0" IVar="-1" Cut="0.0000000000000000e+00" cType="1" res="-2.9382040724158287e-02" rms="2.5398096442222595e-01" purity="1.5052103996276855e-01" nType="-99"/>
          <Node pos="r" depth="2" NCoef="0" IVar="-1" Cut="0.0000000000000000e+00" cType="1" res="-4.4638975523412228e-03" rms="2.0855233073234558e-01" purity="4.5074889063835144e-01" nType="-99"/>
        </Node>
      </Node>
    </BinaryTree>
    <BinaryTree type="DecisionTree" boostWeight="1.0000000000000000e+00" itree="45">
      <Node pos="s" depth="0" NCoef="0" IVar="4" Cut="-1.4428727328777313e-01" cType="1" res="5.7854974875226617e-04" rms="2.0545060932636261e-01" purity="4.9830681085586548e-01" nType="0">
        <Node pos="l" depth="1" NCoef="0" IVar="5" Cut="-3.3595541119575500e-01" cType="1" res="-4.1594184935092926e-02" rms="1.6497671604156494e-01" purity="7.9848900437355042e-02" nType="0">
          <Node pos="l" depth="2" NCoef="0" IVar="-1" Cut="0.0000000000000000e+00" cType="1" res="-4.3402388691902161e-02" rms="8.2641042768955231e-02" purity="9.6066715195775032e-03" nType="-99"/>
          <Node pos="r" depth="2" NCoef="0" IVar="-1" Cut="0.0000000000000000e+00" cType="1" res="-2.8254773467779160e-02" rms="2.3634760081768036e-01" purity="1.8015798926353455e-01" nType="-99"/>
        </Node>
        <Node pos="r" depth="1" NCoef="0" IVar="0" Cut="1.3290672302246094e+01" cType="1" res="1.3898596167564392e-02" rms="2.1495611965656281e-01" purity="6.3047462701797485e-01" nType="0">
          <Node pos="l" depth="2" NCoef="0" IVar="-1" Cut="0.0000000000000000e+00" cType="1" res="1.3777724467217922e-02" rms="2.1652151644229889e-01" purity="7.0093351602554321e-01" nType="-99"/>
          <Node pos="r" depth="2" NCoef="0" IVar="-1" Cut="0.0000000000000000e+00" cType="1" res="-4.8245143145322800e-02" rms="1.8248416483402252e-01" purity="2.6479573920369148e-02" nType="-99"/>
        </Node>
      </Node>
    </BinaryTree>
    <BinaryTree type="DecisionTree" boostWeight="1.0000000000000000e+00" itree="46">
      <Node pos="s" depth="0" NCoef="0" IVar="4" Cut="6.1634624004364014e-01" cType="1" res="8.2963804015889764e-04" rms="2.0476335287094116e-01" purity="5.0185149908065796e-01" nType="0">
        <Node pos="l" depth="1" NCoef="0" IVar="2" Cut="2.2251092910766602e+01" cType="1" res="-2.8667615726590157e-02" rms="1.8989108502864838e-01" purity="2.2641058266162872e-01" nType="0">
          <Node pos="l" depth="2" NCoef="0" IVar="-1" Cut="0.0000000000000000e+00" cType="1" res="5.2216267213225365e-03" rms="1.9339370727539062e-01" purity="5.1859158277511597e-01" nType="-99"/>
          <Node pos="r" depth="2" NCoef="0" IVar="-1" Cut="0.0000000000000000e+00" cType="1" res="-2.5280088186264038e-02" rms="1.8857099115848541e-01" purity="1.7687013745307922e-01" nType="-99"/>
        </Node>
        <Node pos="r" depth="1" NCoef="0" IVar="0" Cut="-1.6936754226684570e+01" cType="1" res="1.8327156081795692e-02" rms="2.1115732192993164e-01" purity="6.6524070501327515e-01" nType="0">
          <Node pos="l" depth="2" NCoef="0" IVar="-1" Cut="0.0000000000000000e+00" cType="1" res="-5.0744328647851944e-02" rms="2.6407521963119507e-01" purity="6.1806689947843552e-02" nType="-99"/>
          <Node pos="r" depth="2" NCoef="0" IVar="-1" Cut="0.0000000000000000e+00" cType="1" res="1.5534152276813984e-02" rms="2.0612722635269165e-01" purity="6.9585770368576050e-01" nType="-99"/>
        </Node>
      </Node>
    </BinaryTree>
    <BinaryTree type="DecisionTree" boostWeight="1.0000000000000000e+00" itree="47">
      <Node pos="s" depth="0" NCoef="0" IVar="6" Cut="-7.1510136127471924e-01" cType="1" res="3.0972270178608596e-04" rms="2.0408950746059418e-01" purity="5.0100505352020264e-01" nType="0">
        <Node pos="l" depth="1" NCoef="0" IVar="7" Cut="-2.4188151955604553e-01" cType="1" res="-3.3714983612298965e-02" rms="1.3950657844543457e-01" purity="4.4454742223024368e-02" nType="0">
          <Node pos="l" depth="2" NCoef="0" IVar="-1" Cut="0.0000000000000000e+00" cType="1" res="-4.5365657657384872e-02" rms="7.1935646235942841e-02" purity="5.0754803232848644e-03" nType="-99"/>
          <Node pos="r" depth="2" NCoef="0" IVar="-1" Cut="0.0000000000000000e+00" cType="1" res="-2.2826664149761200e-02" rms="2.9661169648170471e-01" purity="2.3589110374450684e-01" nType="-99"/>
        </Node>
        <Node pos="r" depth="1" NCoef="0" IVar="0" Cut="8.8121242523193359e+00" cType="1" res="1.5013772994279861e-02" rms="2.2477944195270538e-01" purity="6.9830697774887085e-01" nType="0">
          <Node pos="l" depth="2" NCoef="0" IVar="-1" Cut="0.0000000000000000e+00" cType="1" res="1.4849793165922165e-02" rms="2.2036167979240417e-01" purity="7.7753621339797974e-01" nType="-99"/>
          <Node pos="r" depth="2" NCoef="0" IVar="-1" Cut="0.0000000000000000e+00" cType="1" res="-3.7982817739248276e-02" rms="2.4058143794536591e-01" purity="6.3595533370971680e-02" nType="-99"/>
        </Node>
      </Node>
    </BinaryTree>
    <BinaryTree type="DecisionTree" boostWeight="1.0000000000000000e+00" itree="48">
      <Node pos="s" depth="0" NCoef="0" IVar="7" Cut="-8.1026846170425415e-01" cType="1" res="2.5501183699816465e-04" rms="2.0245257019996643e-01" purity="5.0012439489364624e-01" nType="0">
        <Node pos="l" depth="1" NCoef="0" IVar="2" Cut="8.0087707519531250e+01" cType="1" res="-3.0394490808248520e-02" rms="1.8036188185214996e-01" purity="5.9672951698303223e-02" nType="0">
          <Node pos="l" depth="2" NCoef="0" IVar="-1" Cut="0.0000000000000000e+00" cType="1" res="-3.0561136081814766e-02" rms="1.7031587660312653e-01" purity="5.3126636892557144e-02" nType="-99"/>
          <Node pos="r" depth="2" NCoef="0" IVar="-1" Cut="0.0000000000000000e+00" cType="1" res="9.3081342056393623e-03" rms="2.5340226292610168e-01" purity="1.2240996956825256e-01" nType="-99"/>
        </Node>
        <Node pos="r" depth="1" NCoef="0" IVar="0" Cut="1.2211475372314453e+01" cType="1" res="1.5421789139509201e-02" rms="2.1089544892311096e-01" purity="7.1807992458343506e-01" nType="0">
          <Node pos="l" depth="2" NCoef="0" IVar="-1" Cut="0.0000000000000000e+00" cType="1" res="1.5188766643404961e-02" rms="2.0915818214416504e-01" purity="7.7932679653167725e-01" nType="-99"/>
          <Node pos="r" depth="2" NCoef="0" IVar="-1" Cut="0.0000000000000000e+00" cType="1" res="-5.0793576985597610e-02" rms="2.0158143341541290e-01" purity="3.2900180667638779e-02" nType="-99"/>
        </Node>
      </Node>
    </BinaryTree>
    <BinaryTree type="DecisionTree" boostWeight="1.0000000000000000e+00" itree="49">
      <Node pos="s" depth="0" NCoef="0" IVar="6" Cut="7.0895200967788696e-01" cType="1" res="-5.5807660100981593e-04" rms="2.0148316025733948e-01" purity="4.9937885999679565e-01" nType="0">
        <Node pos="l" depth="1" NCoef="0" IVar="7" Cut="7.0646530389785767e-01" cType="1" res="-1.8847754225134850e-02" rms="1.9009107351303101e-01" purity="2.5425282120704651e-01" nType="0">
          <Node pos="l" depth="2" NCoef="0" IVar="-1" Cut="0.0000000000000000e+00" cType="1" res="-2.5613231584429741e-02" rms="1.7896494269371033e-01" purity="1.2057429552078247e-01" nType="-99"/>
          <Node pos="r" depth="2" NCoef="0" IVar="-1" Cut="0.0000000000000000e+00" cType="1" res="1.4026626013219357e-02" rms="2.2441540658473969e-01" purity="8.0316627025604248e-01" nType="-99"/>
        </Node>
        <Node pos="r" depth="1" NCoef="0" IVar="5" Cut="-8.0989634990692139e-01" cType="1" res="2.3856755346059799e-02" rms="2.1332511305809021e-01" purity="8.2659679651260376e-01" nType="0">
          <Node pos="l" depth="2" NCoef="0" IVar="-1" Cut="0.0000000000000000e+00" cType="1" res="-2.8541117906570435e-02" rms="2.8037279844284058e-01" purity="1.4766626060009003e-01" nType="-99"/>
          <Node pos="r" depth="2" NCoef="0" IVar="-1" Cut="0.0000000000000000e+00" cType="1" res="1.9735068082809448e-02" rms="2.0592826604843140e-01" purity="8.7503349781036377e-01" nType="-99"/>
        </Node>
      </Node>
    </BinaryTree>
    <BinaryTree type="DecisionTree" boostWeight="1.0000000000000000e+00" itree="50">
      <Node pos="s" depth="0" NCoef="0" IVar="0" Cut="-2.8843038082122803e+00" cType="1" res="-7.8146644227672368e-05" rms="1.9887208938598633e-01" purity="5.0065934658050537e-01" nType="0">
        <Node pos="l" depth="1" NCoef="0" IVar="0" Cut="-1.7462144851684570e+01" cType="1" res="-3.7138458341360092e-02" rms="2.4442814290523529e-01" purity="2.1337209641933441e-01" nType="0">
          <Node pos="l" depth="2" NCoef="0" IVar="-1" Cut="0.0000000000000000e+00" cType="1" res="-5.1930192857980728e-02" rms="1.9681289792060852e-01" purity="2.9938535764813423e-02" nType="-99"/>
          <Node pos="r" depth="2" NCoef="0" IVar="-1" Cut="0.0000000000000000e+00" cType="1" res="-1.3026710599660873e-02" rms="2.6123163104057312e-01" purity="2.9356050491333008e-01" nType="-99"/>
        </Node>
        <Node pos="r" depth="1" NCoef="0" IVar="0" Cut="5.1338486671447754e+00" cType="1" res="1.1477712541818619e-02" rms="1.8080723285675049e-01" purity="5.9023898839950562e-01" nType="0">
          <Node pos="l" depth="2" NCoef="0" IVar="-1" Cut="0.0000000000000000e+00" cType="1" res="2.1188724786043167e-02" rms="1.6938126087188721e-01" purity="8.0414146184921265e-01" nType="-99"/>
          <Node pos="r" depth="2" NCoef="0" IVar="-1" Cut="0.0000000000000000e+00" cType="1" res="-2.5464549660682678e-02" rms="1.9869323074817657e-01" purity="8.3268932998180389e-02" nType="-99"/>
        </Node>
      </Node>
    </BinaryTree>
    <BinaryTree type="DecisionTree" boostWeight="1.0000000000000000e+00" itree="51">
      <Node pos="s" depth="0" NCoef="0" IVar="4" Cut="4.2539063096046448e-01" cType="1" res="6.3693482661619782e-04" rms="2.0131115615367889e-01" purity="5.0139623880386353e-01" nType="0">
        <Node pos="l" depth="1" NCoef="0" IVar="4" Cut="-7.2851693630218506e-01" cType="1" res="-2.8364889323711395e-02" rms="1.8194125592708588e-01" purity="1.7452983558177948e-01" nType="0">
          <Node pos="l" depth="2" NCoef="0" IVar="-1" Cut="0.0000000000000000e+00" cType="1" res="-4.4326663017272949e-02" rms="1.3776613771915436e-01" purity="2.8095837682485580e-02" nType="-99"/>
          <Node pos="r" depth="2" NCoef="0" IVar="-1" Cut="0.0000000000000000e+00" cType="1" res="-1.0175782255828381e-02" rms="2.1494033932685852e-01" purity="3.1382000446319580e-01" nType="-99"/>
        </Node>
        <Node pos="r" depth="1" NCoef="0" IVar="2" Cut="3.2460918426513672e+01" cType="1" res="1.4576169662177563e-02" rms="2.0855604112148285e-01" purity="6.5849900245666504e-01" nType="0">
          <Node pos="l" depth="2" NCoef="0" IVar="-1" Cut="0.0000000000000000e+00" cType="1" res="3.0830619856715202e-02" rms="1.5056337416172028e-01" purity="8.4687614440917969e-01" nType="-99"/>
          <Node pos="r" depth="2" NCoef="0" IVar="-1" Cut="0.0000000000000000e+00" cType="1" res="-3.8918280042707920e-03" rms="2.4567165970802307e-01" purity="4.9729990959167480e-01" nType="-99"/>
        </Node>
      </Node>
    </BinaryTree>
    <BinaryTree type="DecisionTree" boostWeight="1.0000000000000000e+00" itree="52">
      <Node pos="s" depth="0" NCoef="0" IVar="5" Cut="-2.3937675356864929e-01" cType="1" res="6.8197998916730285e-04" rms="1.9812083244323730e-01" purity="5.0196731090545654e-01" nType="0">
        <Node pos="l" depth="1" NCoef="0" IVar="5" Cut="-7.1031987667083740e-01" cType="1" res="-2.7360156178474426e-02" rms="1.4520613849163055e-01" purity="7.0133641362190247e-02" nType="0">
          <Node pos="l" depth="2" NCoef="0" IVar="-1" Cut="0.0000000000000000e+00" cType="1" res="-3.5982269793748856e-02" rms="1.3118015229701996e-01" purity="3.2291363924741745e-02" nType="-99"/>
          <Node pos="r" depth="2" NCoef="0" IVar="-1" Cut="0.0000000000000000e+00" cType="1" res="-1.0414931923151016e-02" rms="1.8385404348373413e-01" purity="1.9616249203681946e-01" nType="-99"/>
        </Node>
        <Node pos="r" depth="1" NCoef="0" IVar="0" Cut="-1.3245321273803711e+01" cType="1" res="1.3713228516280651e-02" rms="2.1716098487377167e-01" purity="7.0264148712158203e-01" nType="0">
          <Node pos="l" depth="2" NCoef="0" IVar="-1" Cut="0.0000000000000000e+00" cType="1" res="-4.3312977999448776e-02" rms="2.8751957416534424e-01" purity="7.9857341945171356e-02" nType="-99"/>
          <Node pos="r" depth="2" NCoef="0" IVar="-1" Cut="0.0000000000000000e+00" cType="1" res="1.3483827933669090e-02" rms="2.0993022620677948e-01" purity="7.4296456575393677e-01" nType="-99"/>
        </Node>
      </Node>
    </BinaryTree>
    <BinaryTree type="DecisionTree" boostWeight="1.0000000000000000e+00" itree="53">
      <Node pos="s" depth="0" NCoef="0" IVar="7" Cut="-8.1026846170425415e-01" cType="1" res="-3.6209105746820569e-04" rms="1.9898630678653717e-01" purity="4.9772679805755615e-01" nType="0">
        <Node pos="l" depth="1" NCoef="0" IVar="7" Cut="-9.9096620082855225e-01" cType="1" res="-2.5057813152670860e-02" rms="1.7641545832157135e-01" purity="6.1663687229156494e-02" nType="0">
          <Node pos="l" depth="2" NCoef="0" IVar="-1" Cut="0.0000000000000000e+00" cType="1" res="1.0596401989459991e-02" rms="2.3184248805046082e-01" purity="1.1622289568185806e-01" nType="-99"/>
          <Node pos="r" depth="2" NCoef="0" IVar="-1" Cut="0.0000000000000000e+00" cType="1" res="-2.9267828911542892e-02" rms="1.6504903137683868e-01" purity="5.2948553115129471e-02" nType="-99"/>
        </Node>
        <Node pos="r" depth="1" NCoef="0" IVar="0" Cut="5.1630806922912598e+00" cType="1" res="1.1905916966497898e-02" rms="2.0820961892604828e-01" purity="7.1434831619262695e-01" nType="0">
          <Node pos="l" depth="2" NCoef="0" IVar="-1" Cut="0.0000000000000000e+00" cType="1" res="1.5458899550139904e-02" rms="1.9681642949581146e-01" purity="8.0646878480911255e-01" nType="-99"/>
          <Node pos="r" depth="2" NCoef="0" IVar="-1" Cut="0.0000000000000000e+00" cType="1" res="-2.6556836441159248e-02" rms="2.5808700919151306e-01" purity="1.5699639916419983e-01" nType="-99"/>
        </Node>
      </Node>
    </BinaryTree>
    <BinaryTree type="DecisionTree" boostWeight="1.0000000000000000e+00" itree="54">
      <Node pos="s" depth="0" NCoef="0" IVar="4" Cut="6.1601513624191284e-01" cType="1" res="-1.6432497068308294e-04" rms="1.9926051795482635e-01" purity="4.9754956364631653e-01" nType="0">
        <Node pos="l" depth="1" NCoef="0" IVar="4" Cut="-6.1540824174880981e-01" cType="1" res="-2.2849580273032188e-02" rms="1.8524678051471710e-01" purity="2.2203904390335083e-01" nType="0">
          <Node pos="l" depth="2" NCoef="0" IVar="-1" Cut="0.0000000000000000e+00" cType="1" res="-3.9407808333635330e-02" rms="1.4286902546882629e-01" purity="3.6537945270538330e-02" nType="-99"/>
          <Node pos="r" depth="2" NCoef="0" IVar="-1" Cut="0.0000000000000000e+00" cType="1" res="-7.3445588350296021e-03" rms="2.1580389142036438e-01" purity="3.8949018716812134e-01" nType="-99"/>
        </Node>
        <Node pos="r" depth="1" NCoef="0" IVar="6" Cut="-7.1480774879455566e-01" cType="1" res="1.3374508358538151e-02" rms="2.0598585903644562e-01" purity="6.6197746992111206e-01" nType="0">
          <Node pos="l" depth="2" NCoef="0" IVar="-1" Cut="0.0000000000000000e+00" cType="1" res="-2.4261787533760071e-02" rms="1.7954586446285248e-01" purity="8.2021616399288177e-02" nType="-99"/>
          <Node pos="r" depth="2" NCoef="0" IVar="-1" Cut="0.0000000000000000e+00" cType="1" res="1.6552418470382690e-02" rms="2.1119037270545959e-01" purity="8.1906539201736450e-01" nType="-99"/>
        </Node>
      </Node>
    </BinaryTree>
    <BinaryTree type="DecisionTree" boostWeight="1.0000000000000000e+00" itree="55">
      <Node pos="s" depth="0" NCoef="0" IVar="0" Cut="-2.8843038082122803e+00" cType="1" res="-4.7901639482006431e-04" rms="1.9680565595626831e-01" purity="4.9857294559478760e-01" nType="0">
        <Node pos="l" depth="1" NCoef="0" IVar="7" Cut="-3.3629789948463440e-01" cType="1" res="-3.3621355891227722e-02" rms="2.4291594326496124e-01" purity="2.1293672919273376e-01" nType="0">
          <Node pos="l" depth="2" NCoef="0" IVar="-1" Cut="0.0000000000000000e+00" cType="1" res="-1.7524808645248413e-02" rms="1.8800310790538788e-01" purity="6.8891651928424835e-02" nType="-99"/>
          <Node pos="r" depth="2" NCoef="0" IVar="-1" Cut="0.0000000000000000e+00" cType="1" res="-2.6169029995799065e-02" rms="3.2100394368171692e-01" purity="4.8754224181175232e-01" nType="-99"/>
        </Node>
        <Node pos="r" depth="1" NCoef="0" IVar="0" Cut="5.1355948448181152e+00" cType="1" res="9.8556913435459137e-03" rms="1.7877532541751862e-01" purity="5.8764231204986572e-01" nType="0">
          <Node pos="l" depth="2" NCoef="0" IVar="-1" Cut="0.0000000000000000e+00" cType="1" res="1.9122885540127754e-02" rms="1.7024853825569153e-01" purity="8.0309331417083740e-01" nType="-99"/>
          <Node pos="r" depth="2" NCoef="0" IVar="-1" Cut="0.0000000000000000e+00" cType="1" res="-2.1875184029340744e-02" rms="1.9262757897377014e-01" purity="8.5230179131031036e-02" nType="-99"/>
        </Node>
      </Node>
    </BinaryTree>
    <BinaryTree type="DecisionTree" boostWeight="1.0000000000000000e+00" itree="56">
      <Node pos="s" depth="0" NCoef="0" IVar="2" Cut="4.4185741424560547e+01" cType="1" res="-1.7232495592907071e-03" rms="1.9429603219032288e-01" purity="4.9384239315986633e-01" nType="0">
        <Node pos="l" depth="1" NCoef="0" IVar="3" Cut="2.8468845367431641e+01" cType="1" res="1.3743221759796143e-02" rms="1.7085529863834381e-01" purity="6.2611544132232666e-01" nType="0">
          <Node pos="l" depth="2" NCoef="0" IVar="-1" Cut="0.0000000000000000e+00" cType="1" res="1.9116319715976715e-02" rms="1.6646167635917664e-01" purity="6.9808971881866455e-01" nType="-99"/>
          <Node pos="r" depth="2" NCoef="0" IVar="-1" Cut="0.0000000000000000e+00" cType="1" res="-3.6230552941560745e-02" rms="1.8391337990760803e-01" purity="2.0510846376419067e-01" nType="-99"/>
        </Node>
        <Node pos="r" depth="1" NCoef="0" IVar="0" Cut="-2.8843038082122803e+00" cType="1" res="-2.3518815636634827e-02" rms="2.2136133909225464e-01" purity="3.0744129419326782e-01" nType="0">
          <Node pos="l" depth="2" NCoef="0" IVar="-1" Cut="0.0000000000000000e+00" cType="1" res="-3.0102681368589401e-02" rms="2.5003039836883545e-01" purity="1.1868751794099808e-01" nType="-99"/>
          <Node pos="r" depth="2" NCoef="0" IVar="-1" Cut="0.0000000000000000e+00" cType="1" res="-1.0012477636337280e-02" rms="2.0569038391113281e-01" purity="3.9645770192146301e-01" nType="-99"/>
        </Node>
      </Node>
    </BinaryTree>
    <BinaryTree type="DecisionTree" boostWeight="1.0000000000000000e+00" itree="57">
      <Node pos="s" depth="0" NCoef="0" IVar="5" Cut="5.2082926034927368e-01" cType="1" res="-5.8969331439584494e-04" rms="1.9469717144966125e-01" purity="4.9800929427146912e-01" nType="0">
        <Node pos="l" depth="1" NCoef="0" IVar="6" Cut="7.0719289779663086e-01" cType="1" res="-1.9186615943908691e-02" rms="1.6872684657573700e-01" purity="1.9034025073051453e-01" nType="0">
          <Node pos="l" depth="2" NCoef="0" IVar="-1" Cut="0.0000000000000000e+00" cType="1" res="-3.2528586685657501e-02" rms="1.3976798951625824e-01" purity="7.4336044490337372e-02" nType="-99"/>
          <Node pos="r" depth="2" NCoef="0" IVar="-1" Cut="0.0000000000000000e+00" cType="1" res="5.9797847643494606e-03" rms="2.4246864020824432e-01" purity="6.0029983520507812e-01" nType="-99"/>
        </Node>
        <Node pos="r" depth="1" NCoef="0" IVar="4" Cut="-3.3458200097084045e-01" cType="1" res="1.4338522218167782e-02" rms="2.1209155023097992e-01" purity="7.4498295783996582e-01" nType="0">
          <Node pos="l" depth="2" NCoef="0" IVar="-1" Cut="0.0000000000000000e+00" cType="1" res="-2.4209240451455116e-02" rms="2.3865389823913574e-01" purity="1.7787389457225800e-01" nType="-99"/>
          <Node pos="r" depth="2" NCoef="0" IVar="-1" Cut="0.0000000000000000e+00" cType="1" res="1.5672085806727409e-02" rms="2.0750644803047180e-01" purity="8.1275594234466553e-01" nType="-99"/>
        </Node>
      </Node>
    </BinaryTree>
    <BinaryTree type="DecisionTree" boostWeight="1.0000000000000000e+00" itree="58">
      <Node pos="s" depth="0" NCoef="0" IVar="2" Cut="3.3932151794433594e+01" cType="1" res="1.7404669051757082e-05" rms="1.9519169628620148e-01" purity="5.0038415193557739e-01" nType="0">
        <Node pos="l" depth="1" NCoef="0" IVar="3" Cut="2.8468845367431641e+01" cType="1" res="1.9244631752371788e-02" rms="1.5629568696022034e-01" purity="7.1298468112945557e-01" nType="0">
          <Node pos="l" depth="2" NCoef="0" IVar="-1" Cut="0.0000000000000000e+00" cType="1" res="2.3738652467727661e-02" rms="1.5112464129924774e-01" purity="7.7111941576004028e-01" nType="-99"/>
          <Node pos="r" depth="2" NCoef="0" IVar="-1" Cut="0.0000000000000000e+00" cType="1" res="-6.3477970659732819e-02" rms="1.7928941547870636e-01" purity="8.4659181535243988e-02" nType="-99"/>
        </Node>
        <Node pos="r" depth="1" NCoef="0" IVar="2" Cut="9.4761810302734375e+01" cType="1" res="-1.4750438742339611e-02" rms="2.1931344270706177e-01" purity="3.3709213137626648e-01" nType="0">
          <Node pos="l" depth="2" NCoef="0" IVar="-1" Cut="0.0000000000000000e+00" cType="1" res="-1.4083681628108025e-02" rms="2.1466024219989777e-01" purity="3.2348227500915527e-01" nType="-99"/>
          <Node pos="r" depth="2" NCoef="0" IVar="-1" Cut="0.0000000000000000e+00" cType="1" res="2.3084832355380058e-02" rms="2.6508066058158875e-01" purity="5.0562757253646851e-01" nType="-99"/>
        </Node>
      </Node>
    </BinaryTree>
    <BinaryTree type="DecisionTree" boostWeight="1.0000000000000000e+00" itree="59">
      <Node pos="s" depth="0" NCoef="0" IVar="7" Cut="6.1254864931106567e-01" cType="1" res="-1.8673374142963439e-04" rms="1.9473612308502197e-01" purity="4.9930217862129211e-01" nType="0">
        <Node pos="l" depth="1" NCoef="0" IVar="5" Cut="8.9903157949447632e-01" cType="1" res="-1.2525271624326706e-02" rms="1.9946625828742981e-01" purity="2.5852724909782410e-01" nType="0">
          <Node pos="l" depth="2" NCoef="0" IVar="-1" Cut="0.0000000000000000e+00" cType="1" res="-1.8593838438391685e-02" rms="1.7840048670768738e-01" purity="1.6848206520080566e-01" nType="-99"/>
          <Node pos="r" depth="2" NCoef="0" IVar="-1" Cut="0.0000000000000000e+00" cType="1" res="7.8165670856833458e-03" rms="2.5554397702217102e-01" purity="5.5789345502853394e-01" nType="-99"/>
        </Node>
        <Node pos="r" depth="1" NCoef="0" IVar="6" Cut="-7.1497154235839844e-01" cType="1" res="1.9400721415877342e-02" rms="1.8530164659023285e-01" purity="8.8153278827667236e-01" nType="0">
          <Node pos="l" depth="2" NCoef="0" IVar="-1" Cut="0.0000000000000000e+00" cType="1" res="-1.2889923527836800e-02" rms="3.4333264827728271e-01" purity="3.4648472070693970e-01" nType="-99"/>
          <Node pos="r" depth="2" NCoef="0" IVar="-1" Cut="0.0000000000000000e+00" cType="1" res="2.0986735820770264e-02" rms="1.6632670164108276e-01" purity="9.2254680395126343e-01" nType="-99"/>
        </Node>
      </Node>
    </BinaryTree>
    <BinaryTree type="DecisionTree" boostWeight="1.0000000000000000e+00" itree="60">
      <Node pos="s" depth="0" NCoef="0" IVar="0" Cut="-2.8843038082122803e+00" cType="1" res="7.0573482662439346e-04" rms="1.9477038085460663e-01" purity="5.0271302461624146e-01" nType="0">
        <Node pos="l" depth="1" NCoef="0" IVar="7" Cut="-3.3616745471954346e-01" cType="1" res="-2.6010574772953987e-02" rms="2.4353501200675964e-01" purity="2.1683266758918762e-01" nType="0">
          <Node pos="l" depth="2" NCoef="0" IVar="-1" Cut="0.0000000000000000e+00" cType="1" res="-1.2712291441857815e-02" rms="1.9211059808731079e-01" purity="6.8625696003437042e-02" nType="-99"/>
          <Node pos="r" depth="2" NCoef="0" IVar="-1" Cut="0.0000000000000000e+00" cType="1" res="-2.2812558338046074e-02" rms="3.1751018762588501e-01" purity="4.9709597229957581e-01" nType="-99"/>
        </Node>
        <Node pos="r" depth="1" NCoef="0" IVar="0" Cut="5.1356329917907715e+00" cType="1" res="8.9718429371714592e-03" rms="1.7616246640682220e-01" purity="5.9116536378860474e-01" nType="0">
          <Node pos="l" depth="2" NCoef="0" IVar="-1" Cut="0.0000000000000000e+00" cType="1" res="1.7666425555944443e-02" rms="1.6668303310871124e-01" purity="8.0327498912811279e-01" nType="-99"/>
          <Node pos="r" depth="2" NCoef="0" IVar="-1" Cut="0.0000000000000000e+00" cType="1" res="-1.9428441300988197e-02" rms="1.9359621405601501e-01" purity="8.4407113492488861e-02" nType="-99"/>
        </Node>
      </Node>
    </BinaryTree>
    <BinaryTree type="DecisionTree" boostWeight="1.0000000000000000e+00" itree="61">
      <Node pos="s" depth="0" NCoef="0" IVar="4" Cut="-3.3444565534591675e-01" cType="1" res="7.6355563942342997e-04" rms="1.9678337872028351e-01" purity="4.9952632188796997e-01" nType="0">
        <Node pos="l" depth="1" NCoef="0" IVar="7" Cut="-1.4808432757854462e-01" cType="1" res="-2.5574866682291031e-02" rms="1.4920434355735779e-01" purity="6.1229083687067032e-02" nType="0">
          <Node pos="l" depth="2" NCoef="0" IVar="-1" Cut="0.0000000000000000e+00" cType="1" res="-3.8694009184837341e-02" rms="8.7901823222637177e-02" purity="1.2161454185843468e-02" nType="-99"/>
          <Node pos="r" depth="2" NCoef="0" IVar="-1" Cut="0.0000000000000000e+00" cType="1" res="-1.9892880693078041e-02" rms="2.6571846008300781e-01" purity="2.2583873569965363e-01" nType="-99"/>
        </Node>
        <Node pos="r" depth="1" NCoef="0" IVar="0" Cut="-1.6936754226684570e+01" cType="1" res="8.1286635249853134e-03" rms="2.0755416154861450e-01" purity="6.2208896875381470e-01" nType="0">
          <Node pos="l" depth="2" NCoef="0" IVar="-1" Cut="0.0000000000000000e+00" cType="1" res="-3.7114463746547699e-02" rms="2.6101431250572205e-01" purity="6.2768794596195221e-02" nType="-99"/>
          <Node pos="r" depth="2" NCoef="0" IVar="-1" Cut="0.0000000000000000e+00" cType="1" res="9.1670406982302666e-03" rms="2.0336198806762695e-01" purity="6.5415561199188232e-01" nType="-99"/>
        </Node>
      </Node>
    </BinaryTree>
    <BinaryTree type="DecisionTree" boostWeight="1.0000000000000000e+00" itree="62">
      <Node pos="s" depth="0" NCoef="0" IVar="5" Cut="-2.4009820818901062e-01" cType="1" res="-9.2904039775021374e-05" rms="1.9492016732692719e-01" purity="4.9918597936630249e-01" nType="0">
        <Node pos="l" depth="1" NCoef="0" IVar="5" Cut="-9.2763346433639526e-01" cType="1" res="-2.1857840940356255e-02" rms="1.4133743941783905e-01" purity="6.8459510803222656e-02" nType="0">
          <Node pos="l" depth="2" NCoef="0" IVar="-1" Cut="0.0000000000000000e+00" cType="1" res="-4.2239252477884293e-02" rms="1.2621261179447174e-01" purity="1.8938891589641571e-02" nType="-99"/>
          <Node pos="r" depth="2" NCoef="0" IVar="-1" Cut="0.0000000000000000e+00" cType="1" res="-1.2622335925698280e-02" rms="1.5611772239208221e-01" purity="1.2403003126382828e-01" nType="-99"/>
        </Node>
