<?xml version="1.0"?>
<MethodSetup Method="BDT::BDTG">
  <GeneralInfo>
    <Info name="TMVA Release" value="4.2.1 [262657]"/>
    <Info name="ROOT Release" value="6.14/09 [396809]"/>
    <Info name="Creator" value="twamorka"/>
    <Info name="Date" value="Thu Oct 15 10:46:43 2020"/>
    <Info name="Host" value="Linux cmsbuild02.cern.ch 3.10.0-1062.1.2.el7.x86_64 #1 SMP Mon Sep 30 14:19:46 UTC 2019 x86_64 x86_64 x86_64 GNU/Linux"/>
    <Info name="Dir" value="/afs/cern.ch/work/t/twamorka/flashgg_16aug2020/CMSSW_10_6_8/src/flashgg/Scripts"/>
    <Info name="Training events" value="288488"/>
    <Info name="TrainingTime" value="1.12871259e+02"/>
    <Info name="AnalysisType" value="Classification"/>
  </GeneralInfo>
  <Options>
    <Option name="V" modified="Yes">False</Option>
    <Option name="VerbosityLevel" modified="No">Default</Option>
    <Option name="VarTransform" modified="No">None</Option>
    <Option name="H" modified="Yes">False</Option>
    <Option name="CreateMVAPdfs" modified="No">False</Option>
    <Option name="IgnoreNegWeightsInTraining" modified="No">False</Option>
    <Option name="NTrees" modified="Yes">1000</Option>
    <Option name="MaxDepth" modified="Yes">2</Option>
    <Option name="MinNodeSize" modified="Yes">2.5%</Option>
    <Option name="nCuts" modified="Yes">20</Option>
    <Option name="BoostType" modified="Yes">Grad</Option>
    <Option name="AdaBoostR2Loss" modified="No">quadratic</Option>
    <Option name="UseBaggedBoost" modified="Yes">True</Option>
    <Option name="Shrinkage" modified="Yes">1.000000e-01</Option>
    <Option name="AdaBoostBeta" modified="No">5.000000e-01</Option>
    <Option name="UseRandomisedTrees" modified="No">False</Option>
    <Option name="UseNvars" modified="No">3</Option>
    <Option name="UsePoissonNvars" modified="No">True</Option>
    <Option name="BaggedSampleFraction" modified="Yes">5.000000e-01</Option>
    <Option name="UseYesNoLeaf" modified="No">True</Option>
    <Option name="NegWeightTreatment" modified="No">pray</Option>
    <Option name="Css" modified="No">1.000000e+00</Option>
    <Option name="Cts_sb" modified="No">1.000000e+00</Option>
    <Option name="Ctb_ss" modified="No">1.000000e+00</Option>
    <Option name="Cbb" modified="No">1.000000e+00</Option>
    <Option name="NodePurityLimit" modified="No">5.000000e-01</Option>
    <Option name="SeparationType" modified="No">giniindex</Option>
    <Option name="RegressionLossFunctionBDTG" modified="No">huber</Option>
    <Option name="HuberQuantile" modified="No">7.000000e-01</Option>
    <Option name="DoBoostMonitor" modified="No">False</Option>
    <Option name="UseFisherCuts" modified="No">False</Option>
    <Option name="MinLinCorrForFisher" modified="No">8.000000e-01</Option>
    <Option name="UseExclusiveVars" modified="No">False</Option>
    <Option name="DoPreselection" modified="No">False</Option>
    <Option name="SigToBkgFraction" modified="No">1.000000e+00</Option>
    <Option name="PruneMethod" modified="No">nopruning</Option>
    <Option name="PruneStrength" modified="No">0.000000e+00</Option>
    <Option name="PruningValFraction" modified="No">5.000000e-01</Option>
    <Option name="SkipNormalization" modified="No">False</Option>
    <Option name="nEventsMin" modified="No">0</Option>
    <Option name="UseBaggedGrad" modified="No">False</Option>
    <Option name="GradBaggingFraction" modified="No">5.000000e-01</Option>
    <Option name="UseNTrainEvents" modified="No">0</Option>
    <Option name="NNodesMax" modified="No">0</Option>
  </Options>
  <Variables NVar="8">
    <Variable VarIndex="0" Expression="a1_mass_dM-a2_mass_dM" Label="a1_mass_dM-a2_mass_dM" Title="a1_mass_dM-a2_mass_dM" Unit="" Internal="a1_mass_dM_M_a2_mass_dM" Type="F" Min="-8.38188553e+01" Max="8.35732269e+01"/>
    <Variable VarIndex="1" Expression="cosTheta_a1_dM" Label="cosTheta_a1_dM" Title="cosTheta_a1_dM" Unit="" Internal="cosTheta_a1_dM" Type="F" Min="-9.99989748e-01" Max="9.99773443e-01"/>
    <Variable VarIndex="2" Expression="a1_pt_dM" Label="a1_pt_dM" Title="a1_pt_dM" Unit="" Internal="a1_pt_dM" Type="F" Min="3.28059494e-01" Max="3.62445496e+02"/>
    <Variable VarIndex="3" Expression="a2_pt_dM" Label="a2_pt_dM" Title="a2_pt_dM" Unit="" Internal="a2_pt_dM" Type="F" Min="3.09788324e-02" Max="2.53584290e+02"/>
    <Variable VarIndex="4" Expression="pho1_MVA" Label="pho1_MVA" Title="pho1_MVA" Unit="" Internal="pho1_MVA" Type="F" Min="-1.00000000e+00" Max="9.96878862e-01"/>
    <Variable VarIndex="5" Expression="pho2_MVA" Label="pho2_MVA" Title="pho2_MVA" Unit="" Internal="pho2_MVA" Type="F" Min="-1.00000000e+00" Max="9.95374858e-01"/>
    <Variable VarIndex="6" Expression="pho3_MVA" Label="pho3_MVA" Title="pho3_MVA" Unit="" Internal="pho3_MVA" Type="F" Min="-1.00000000e+00" Max="9.95098114e-01"/>
    <Variable VarIndex="7" Expression="pho4_MVA" Label="pho4_MVA" Title="pho4_MVA" Unit="" Internal="pho4_MVA" Type="F" Min="-1.00000000e+00" Max="9.92276669e-01"/>
  </Variables>
  <Spectators NSpec="0"/>
  <Classes NClass="2">
    <Class Name="Signal" Index="0"/>
    <Class Name="Background" Index="1"/>
  </Classes>
  <Transformations NTransformations="0"/>
  <MVAPdfs/>
  <Weights NTrees="1000" AnalysisType="1">
    <BinaryTree type="DecisionTree" boostWeight="1.0000000000000000e+00" itree="0">
      <Node pos="s" depth="0" NCoef="0" IVar="7" Cut="-1.4616714417934418e-01" cType="1" res="1.3253914657980204e-03" rms="4.9999824166297913e-01" purity="5.0132536888122559e-01" nType="0">
        <Node pos="l" depth="1" NCoef="0" IVar="6" Cut="2.3259052634239197e-01" cType="1" res="-3.6849033832550049e-01" rms="3.3795690536499023e-01" purity="1.3150967657566071e-01" nType="0">
          <Node pos="l" depth="2" NCoef="0" IVar="-1" Cut="0.0000000000000000e+00" cType="1" res="-9.4758957624435425e-02" rms="1.5974512696266174e-01" purity="2.6205217465758324e-02" nType="-99"/>
          <Node pos="r" depth="2" NCoef="0" IVar="-1" Cut="0.0000000000000000e+00" cType="1" res="-1.0660777799785137e-02" rms="4.9715057015419006e-01" purity="4.4669613242149353e-01" nType="-99"/>
        </Node>
        <Node pos="r" depth="1" NCoef="0" IVar="5" Cut="-6.2036544084548950e-01" cType="1" res="3.4297013282775879e-01" rms="3.6382892727851868e-01" purity="8.4297013282775879e-01" nType="0">
          <Node pos="l" depth="2" NCoef="0" IVar="-1" Cut="0.0000000000000000e+00" cType="1" res="-5.4647404700517654e-02" rms="4.1873800754547119e-01" purity="2.2676296532154083e-01" nType="-99"/>
          <Node pos="r" depth="2" NCoef="0" IVar="-1" Cut="0.0000000000000000e+00" cType="1" res="8.1387922167778015e-02" rms="2.9051703214645386e-01" purity="9.0693962574005127e-01" nType="-99"/>
        </Node>
      </Node>
    </BinaryTree>
    <BinaryTree type="DecisionTree" boostWeight="1.0000000000000000e+00" itree="1">
      <Node pos="s" depth="0" NCoef="0" IVar="7" Cut="-3.3590778708457947e-01" cType="1" res="1.9741323776543140e-03" rms="4.6794807910919189e-01" purity="5.0238323211669922e-01" nType="0">
        <Node pos="l" depth="1" NCoef="0" IVar="6" Cut="4.2258322238922119e-01" cType="1" res="-3.5889589786529541e-01" rms="2.9613324999809265e-01" purity="1.0366701334714890e-01" nType="0">
          <Node pos="l" depth="2" NCoef="0" IVar="-1" Cut="0.0000000000000000e+00" cType="1" res="-8.7106354534626007e-02" rms="1.4662939310073853e-01" purity="2.2346399724483490e-02" nType="-99"/>
          <Node pos="r" depth="2" NCoef="0" IVar="-1" Cut="0.0000000000000000e+00" cType="1" res="-1.6392137855291367e-02" rms="4.9232301115989685e-01" purity="4.1271841526031494e-01" nType="-99"/>
        </Node>
        <Node pos="r" depth="1" NCoef="0" IVar="6" Cut="-7.1515989303588867e-01" cType="1" res="2.9475337266921997e-01" rms="3.6621075868606567e-01" purity="8.2586765289306641e-01" nType="0">
          <Node pos="l" depth="2" NCoef="0" IVar="-1" Cut="0.0000000000000000e+00" cType="1" res="-5.5597934871912003e-02" rms="4.0465971827507019e-01" purity="2.2985263168811798e-01" nType="-99"/>
          <Node pos="r" depth="2" NCoef="0" IVar="-1" Cut="0.0000000000000000e+00" cType="1" res="7.2368964552879333e-02" rms="2.9919058084487915e-01" purity="8.9351326227188110e-01" nType="-99"/>
        </Node>
      </Node>
    </BinaryTree>
    <BinaryTree type="DecisionTree" boostWeight="1.0000000000000000e+00" itree="2">
      <Node pos="s" depth="0" NCoef="0" IVar="7" Cut="-4.3077808618545532e-01" cType="1" res="9.9036295432597399e-04" rms="4.4025239348411560e-01" purity="5.0123763084411621e-01" nType="0">
        <Node pos="l" depth="1" NCoef="0" IVar="6" Cut="3.2866534590721130e-01" cType="1" res="-3.2624998688697815e-01" rms="2.8640741109848022e-01" purity="1.0043933242559433e-01" nType="0">
          <Node pos="l" depth="2" NCoef="0" IVar="-1" Cut="0.0000000000000000e+00" cType="1" res="-8.0314569175243378e-02" rms="1.4597204327583313e-01" purity="2.1940609440207481e-02" nType="-99"/>
          <Node pos="r" depth="2" NCoef="0" IVar="-1" Cut="0.0000000000000000e+00" cType="1" res="-2.0663693547248840e-02" rms="4.8496884107589722e-01" purity="3.8078901171684265e-01" nType="-99"/>
        </Node>
        <Node pos="r" depth="1" NCoef="0" IVar="5" Cut="-5.2500188350677490e-01" cType="1" res="2.5760483741760254e-01" rms="3.6285272240638733e-01" purity="8.1553459167480469e-01" nType="0">
          <Node pos="l" depth="2" NCoef="0" IVar="-1" Cut="0.0000000000000000e+00" cType="1" res="-5.8379337191581726e-02" rms="3.7548285722732544e-01" purity="1.9028016924858093e-01" nType="-99"/>
          <Node pos="r" depth="2" NCoef="0" IVar="-1" Cut="0.0000000000000000e+00" cType="1" res="6.6390976309776306e-02" rms="2.9857382178306580e-01" purity="8.9249169826507568e-01" nType="-99"/>
        </Node>
      </Node>
    </BinaryTree>
    <BinaryTree type="DecisionTree" boostWeight="1.0000000000000000e+00" itree="3">
      <Node pos="s" depth="0" NCoef="0" IVar="7" Cut="-5.1296822726726532e-02" cType="1" res="-6.1218626797199249e-05" rms="4.1565635800361633e-01" purity="5.0098878145217896e-01" nType="0">
        <Node pos="l" depth="1" NCoef="0" IVar="6" Cut="4.2961210012435913e-02" cType="1" res="-2.6936659216880798e-01" rms="3.1266075372695923e-01" purity="1.3855181634426117e-01" nType="0">
          <Node pos="l" depth="2" NCoef="0" IVar="-1" Cut="0.0000000000000000e+00" cType="1" res="-7.6402738690376282e-02" rms="1.3827605545520782e-01" purity="2.1033717319369316e-02" nType="-99"/>
          <Node pos="r" depth="2" NCoef="0" IVar="-1" Cut="0.0000000000000000e+00" cType="1" res="-8.0488678067922592e-03" rms="4.7729405760765076e-01" purity="4.4219276309013367e-01" nType="-99"/>
        </Node>
        <Node pos="r" depth="1" NCoef="0" IVar="0" Cut="9.8986511230468750e+00" cType="1" res="2.6102066040039062e-01" rms="3.2713687419891357e-01" purity="8.5235840082168579e-01" nType="0">
          <Node pos="l" depth="2" NCoef="0" IVar="-1" Cut="0.0000000000000000e+00" cType="1" res="6.2293652445077896e-02" rms="2.8493681550025940e-01" purity="8.9321875572204590e-01" nType="-99"/>
          <Node pos="r" depth="2" NCoef="0" IVar="-1" Cut="0.0000000000000000e+00" cType="1" res="-8.6511008441448212e-02" rms="2.9985007643699646e-01" purity="1.0260754078626633e-01" nType="-99"/>
        </Node>
      </Node>
    </BinaryTree>
    <BinaryTree type="DecisionTree" boostWeight="1.0000000000000000e+00" itree="4">
      <Node pos="s" depth="0" NCoef="0" IVar="6" Cut="-1.4495794475078583e-01" cType="1" res="-4.7218421241268516e-04" rms="3.9462593197822571e-01" purity="5.0027799606323242e-01" nType="0">
        <Node pos="l" depth="1" NCoef="0" IVar="7" Cut="7.0535850524902344e-01" cType="1" res="-2.8447237610816956e-01" rms="2.3725657165050507e-01" purity="9.4372466206550598e-02" nType="0">
          <Node pos="l" depth="2" NCoef="0" IVar="-1" Cut="0.0000000000000000e+00" cType="1" res="-7.0166468620300293e-02" rms="1.7642961442470551e-01" purity="4.2316962033510208e-02" nType="-99"/>
          <Node pos="r" depth="2" NCoef="0" IVar="-1" Cut="0.0000000000000000e+00" cType="1" res="7.6424209401011467e-03" rms="4.3410888314247131e-01" purity="6.0272699594497681e-01" nType="-99"/>
        </Node>
        <Node pos="r" depth="1" NCoef="0" IVar="7" Cut="-7.1538907289505005e-01" cType="1" res="2.0146800577640533e-01" rms="3.5819751024246216e-01" purity="7.8889983892440796e-01" nType="0">
          <Node pos="l" depth="2" NCoef="0" IVar="-1" Cut="0.0000000000000000e+00" cType="1" res="-4.3279204517602921e-02" rms="4.1633421182632446e-01" purity="2.3419246077537537e-01" nType="-99"/>
          <Node pos="r" depth="2" NCoef="0" IVar="-1" Cut="0.0000000000000000e+00" cType="1" res="6.0267034918069839e-02" rms="2.8246960043907166e-01" purity="8.9685285091400146e-01" nType="-99"/>
        </Node>
      </Node>
    </BinaryTree>
    <BinaryTree type="DecisionTree" boostWeight="1.0000000000000000e+00" itree="5">
      <Node pos="s" depth="0" NCoef="0" IVar="6" Cut="-1.4495794475078583e-01" cType="1" res="6.6082947887480259e-03" rms="3.7462681531906128e-01" purity="5.0929534435272217e-01" nType="0">
        <Node pos="l" depth="1" NCoef="0" IVar="7" Cut="7.0535850524902344e-01" cType="1" res="-2.5571686029434204e-01" rms="2.3190566897392273e-01" purity="9.5842428505420685e-02" nType="0">
          <Node pos="l" depth="2" NCoef="0" IVar="-1" Cut="0.0000000000000000e+00" cType="1" res="-6.6760353744029999e-02" rms="1.6851530969142914e-01" purity="3.9197761565446854e-02" nType="-99"/>
          <Node pos="r" depth="2" NCoef="0" IVar="-1" Cut="0.0000000000000000e+00" cType="1" res="1.1691821739077568e-02" rms="4.2875373363494873e-01" purity="6.2571859359741211e-01" nType="-99"/>
        </Node>
        <Node pos="r" depth="1" NCoef="0" IVar="0" Cut="5.9833540916442871e+00" cType="1" res="1.8809382617473602e-01" rms="3.4596052765846252e-01" purity="7.9533612728118896e-01" nType="0">
          <Node pos="l" depth="2" NCoef="0" IVar="-1" Cut="0.0000000000000000e+00" cType="1" res="5.3135953843593597e-02" rms="2.9744315147399902e-01" purity="8.6187350749969482e-01" nType="-99"/>
          <Node pos="r" depth="2" NCoef="0" IVar="-1" Cut="0.0000000000000000e+00" cType="1" res="-6.5340846776962280e-02" rms="3.5829621553421021e-01" purity="1.8074668943881989e-01" nType="-99"/>
        </Node>
      </Node>
    </BinaryTree>
    <BinaryTree type="DecisionTree" boostWeight="1.0000000000000000e+00" itree="6">
      <Node pos="s" depth="0" NCoef="0" IVar="7" Cut="4.3573491275310516e-02" cType="1" res="-1.9469297258183360e-03" rms="3.5774722695350647e-01" purity="4.9767532944679260e-01" nType="0">
        <Node pos="l" depth="1" NCoef="0" IVar="6" Cut="4.2268440127372742e-01" cType="1" res="-1.9868209958076477e-01" rms="2.9320767521858215e-01" purity="1.5108959376811981e-01" nType="0">
          <Node pos="l" depth="2" NCoef="0" IVar="-1" Cut="0.0000000000000000e+00" cType="1" res="-6.3681200146675110e-02" rms="1.6700330376625061e-01" purity="3.6163169890642166e-02" nType="-99"/>
          <Node pos="r" depth="2" NCoef="0" IVar="-1" Cut="0.0000000000000000e+00" cType="1" res="7.2289898525923491e-04" rms="4.6479997038841248e-01" purity="5.1492464542388916e-01" nType="-99"/>
        </Node>
        <Node pos="r" depth="1" NCoef="0" IVar="5" Cut="-7.1500110626220703e-01" cType="1" res="2.0303998887538910e-01" rms="2.9901465773582458e-01" purity="8.5879808664321899e-01" nType="0">
          <Node pos="l" depth="2" NCoef="0" IVar="-1" Cut="0.0000000000000000e+00" cType="1" res="-5.8521766215562820e-02" rms="3.5459938645362854e-01" purity="1.8130813539028168e-01" nType="-99"/>
          <Node pos="r" depth="2" NCoef="0" IVar="-1" Cut="0.0000000000000000e+00" cType="1" res="5.5587798357009888e-02" rms="2.5584357976913452e-01" purity="9.1446280479431152e-01" nType="-99"/>
        </Node>
      </Node>
    </BinaryTree>
    <BinaryTree type="DecisionTree" boostWeight="1.0000000000000000e+00" itree="7">
      <Node pos="s" depth="0" NCoef="0" IVar="6" Cut="-4.9953278154134750e-02" cType="1" res="-1.3930370332673192e-03" rms="3.4389865398406982e-01" purity="4.9810692667961121e-01" nType="0">
        <Node pos="l" depth="1" NCoef="0" IVar="7" Cut="7.0292121171951294e-01" cType="1" res="-2.1376261115074158e-01" rms="2.1991874277591705e-01" purity="9.7965233027935028e-02" nType="0">
          <Node pos="l" depth="2" NCoef="0" IVar="-1" Cut="0.0000000000000000e+00" cType="1" res="-6.0976952314376831e-02" rms="1.6955618560314178e-01" purity="4.2600944638252258e-02" nType="-99"/>
          <Node pos="r" depth="2" NCoef="0" IVar="-1" Cut="0.0000000000000000e+00" cType="1" res="5.9529352001845837e-03" rms="4.1319191455841064e-01" purity="6.2471687793731689e-01" nType="-99"/>
        </Node>
        <Node pos="r" depth="1" NCoef="0" IVar="7" Cut="-8.1025934219360352e-01" cType="1" res="1.5719059109687805e-01" rms="3.3412185311317444e-01" purity="7.9690641164779663e-01" nType="0">
          <Node pos="l" depth="2" NCoef="0" IVar="-1" Cut="0.0000000000000000e+00" cType="1" res="-4.0342684835195541e-02" rms="4.1355249285697937e-01" purity="2.3629386723041534e-01" nType="-99"/>
          <Node pos="r" depth="2" NCoef="0" IVar="-1" Cut="0.0000000000000000e+00" cType="1" res="5.0962798297405243e-02" rms="2.7672174572944641e-01" purity="8.9288151264190674e-01" nType="-99"/>
        </Node>
      </Node>
    </BinaryTree>
    <BinaryTree type="DecisionTree" boostWeight="1.0000000000000000e+00" itree="8">
      <Node pos="s" depth="0" NCoef="0" IVar="7" Cut="-2.4103745818138123e-01" cType="1" res="-4.1820802725851536e-03" rms="3.3009719848632812e-01" purity="4.9540746212005615e-01" nType="0">
        <Node pos="l" depth="1" NCoef="0" IVar="5" Cut="5.1760262250900269e-01" cType="1" res="-1.8526886403560638e-01" rms="2.5884899497032166e-01" purity="1.0929073393344879e-01" nType="0">
          <Node pos="l" depth="2" NCoef="0" IVar="-1" Cut="0.0000000000000000e+00" cType="1" res="-6.2391478568315506e-02" rms="1.5956345200538635e-01" purity="3.4388333559036255e-02" nType="-99"/>
          <Node pos="r" depth="2" NCoef="0" IVar="-1" Cut="0.0000000000000000e+00" cType="1" res="-1.9627876579761505e-02" rms="3.6427485942840576e-01" purity="2.5720643997192383e-01" nType="-99"/>
        </Node>
        <Node pos="r" depth="1" NCoef="0" IVar="0" Cut="9.1620922088623047e+00" cType="1" res="1.5389405190944672e-01" rms="3.0328193306922913e-01" purity="8.3246040344238281e-01" nType="0">
          <Node pos="l" depth="2" NCoef="0" IVar="-1" Cut="0.0000000000000000e+00" cType="1" res="4.6097189188003540e-02" rms="2.7117031812667847e-01" purity="8.8110947608947754e-01" nType="-99"/>
          <Node pos="r" depth="2" NCoef="0" IVar="-1" Cut="0.0000000000000000e+00" cType="1" res="-8.3707384765148163e-02" rms="2.6030027866363525e-01" purity="7.3813788592815399e-02" nType="-99"/>
        </Node>
      </Node>
    </BinaryTree>
    <BinaryTree type="DecisionTree" boostWeight="1.0000000000000000e+00" itree="9">
      <Node pos="s" depth="0" NCoef="0" IVar="7" Cut="-5.2564841508865356e-01" cType="1" res="1.0448552202433348e-03" rms="3.1834965944290161e-01" purity="5.0327485799789429e-01" nType="0">
        <Node pos="l" depth="1" NCoef="0" IVar="5" Cut="4.3351788073778152e-02" cType="1" res="-1.8094418942928314e-01" rms="2.3760770261287689e-01" purity="8.4107801318168640e-02" nType="0">
          <Node pos="l" depth="2" NCoef="0" IVar="-1" Cut="0.0000000000000000e+00" cType="1" res="-6.3477247953414917e-02" rms="1.2060768902301788e-01" purity="1.4395743608474731e-02" nType="-99"/>
          <Node pos="r" depth="2" NCoef="0" IVar="-1" Cut="0.0000000000000000e+00" cType="1" res="-2.9414890334010124e-02" rms="3.3287373185157776e-01" purity="1.8596121668815613e-01" nType="-99"/>
        </Node>
        <Node pos="r" depth="1" NCoef="0" IVar="5" Cut="-3.3487504720687866e-01" cType="1" res="1.3117246329784393e-01" rms="3.0467775464057922e-01" purity="8.0299180746078491e-01" nType="0">
          <Node pos="l" depth="2" NCoef="0" IVar="-1" Cut="0.0000000000000000e+00" cType="1" res="-4.5675832778215408e-02" rms="3.4603613615036011e-01" purity="2.4756698310375214e-01" nType="-99"/>
          <Node pos="r" depth="2" NCoef="0" IVar="-1" Cut="0.0000000000000000e+00" cType="1" res="4.6575505286455154e-02" rms="2.6171085238456726e-01" purity="8.9136624336242676e-01" nType="-99"/>
        </Node>
      </Node>
    </BinaryTree>
    <BinaryTree type="DecisionTree" boostWeight="1.0000000000000000e+00" itree="10">
      <Node pos="s" depth="0" NCoef="0" IVar="6" Cut="-4.3080270290374756e-01" cType="1" res="8.3240226376801729e-04" rms="3.0928552150726318e-01" purity="5.0162428617477417e-01" nType="0">
        <Node pos="l" depth="1" NCoef="0" IVar="6" Cut="-7.2914570569992065e-01" cType="1" res="-1.8596002459526062e-01" rms="1.8162168562412262e-01" purity="6.2342047691345215e-02" nType="0">
          <Node pos="l" depth="2" NCoef="0" IVar="-1" Cut="0.0000000000000000e+00" cType="1" res="-5.9838548302650452e-02" rms="1.5162859857082367e-01" purity="3.4589275717735291e-02" nType="-99"/>
          <Node pos="r" depth="2" NCoef="0" IVar="-1" Cut="0.0000000000000000e+00" cType="1" res="-2.6895893737673759e-02" rms="2.7987936139106750e-01" purity="2.1528998017311096e-01" nType="-99"/>
        </Node>
        <Node pos="r" depth="1" NCoef="0" IVar="0" Cut="7.7647962570190430e+00" cType="1" res="1.1190132051706314e-01" rms="3.1597366929054260e-01" purity="7.6282656192779541e-01" nType="0">
          <Node pos="l" depth="2" NCoef="0" IVar="-1" Cut="0.0000000000000000e+00" cType="1" res="3.9118986576795578e-02" rms="2.8952977061271667e-01" purity="8.3014118671417236e-01" nType="-99"/>
          <Node pos="r" depth="2" NCoef="0" IVar="-1" Cut="0.0000000000000000e+00" cType="1" res="-6.4532354474067688e-02" rms="2.9484239220619202e-01" purity="1.0309626907110214e-01" nType="-99"/>
        </Node>
      </Node>
    </BinaryTree>
    <BinaryTree type="DecisionTree" boostWeight="1.0000000000000000e+00" itree="11">
      <Node pos="s" depth="0" NCoef="0" IVar="6" Cut="4.4413663446903229e-02" cType="1" res="-1.6854843124747276e-03" rms="2.9914402961730957e-01" purity="4.9671193957328796e-01" nType="0">
        <Node pos="l" depth="1" NCoef="0" IVar="7" Cut="4.2091631889343262e-01" cType="1" res="-1.4854764938354492e-01" rms="2.1521078050136566e-01" purity="1.1360597610473633e-01" nType="0">
          <Node pos="l" depth="2" NCoef="0" IVar="-1" Cut="0.0000000000000000e+00" cType="1" res="-5.4850481450557709e-02" rms="1.5724860131740570e-01" purity="3.5608004778623581e-02" nType="-99"/>
          <Node pos="r" depth="2" NCoef="0" IVar="-1" Cut="0.0000000000000000e+00" cType="1" res="1.9577161583583802e-04" rms="3.8890421390533447e-01" purity="5.8665072917938232e-01" nType="-99"/>
        </Node>
        <Node pos="r" depth="1" NCoef="0" IVar="5" Cut="-8.1002461910247803e-01" cType="1" res="1.1590175330638885e-01" rms="3.0488869547843933e-01" purity="8.0345106124877930e-01" nType="0">
          <Node pos="l" depth="2" NCoef="0" IVar="-1" Cut="0.0000000000000000e+00" cType="1" res="-6.3120283186435699e-02" rms="3.0438604950904846e-01" purity="1.3165320456027985e-01" nType="-99"/>
          <Node pos="r" depth="2" NCoef="0" IVar="-1" Cut="0.0000000000000000e+00" cType="1" res="4.0247742086648941e-02" rms="2.7817592024803162e-01" purity="8.6138540506362915e-01" nType="-99"/>
        </Node>
      </Node>
    </BinaryTree>
    <BinaryTree type="DecisionTree" boostWeight="1.0000000000000000e+00" itree="12">
      <Node pos="s" depth="0" NCoef="0" IVar="7" Cut="-6.2051874399185181e-01" cType="1" res="8.9948740787804127e-04" rms="2.9185575246810913e-01" purity="5.0323992967605591e-01" nType="0">
        <Node pos="l" depth="1" NCoef="0" IVar="5" Cut="6.1245274543762207e-01" cType="1" res="-1.4751362800598145e-01" rms="2.2324655950069427e-01" purity="7.5420796871185303e-02" nType="0">
          <Node pos="l" depth="2" NCoef="0" IVar="-1" Cut="0.0000000000000000e+00" cType="1" res="-5.7983934879302979e-02" rms="1.3426008820533752e-01" purity="2.1303653717041016e-02" nType="-99"/>
          <Node pos="r" depth="2" NCoef="0" IVar="-1" Cut="0.0000000000000000e+00" cType="1" res="-2.3140002042055130e-02" rms="3.4066545963287354e-01" purity="1.9757573306560516e-01" nType="-99"/>
        </Node>
        <Node pos="r" depth="1" NCoef="0" IVar="0" Cut="-6.4380350112915039e+00" cType="1" res="9.9241785705089569e-02" rms="2.9039794206619263e-01" purity="7.8672373294830322e-01" nType="0">
          <Node pos="l" depth="2" NCoef="0" IVar="-1" Cut="0.0000000000000000e+00" cType="1" res="-7.6366990804672241e-02" rms="3.4923505783081055e-01" purity="1.8281453847885132e-01" nType="-99"/>
          <Node pos="r" depth="2" NCoef="0" IVar="-1" Cut="0.0000000000000000e+00" cType="1" res="3.7104707211256027e-02" rms="2.5759410858154297e-01" purity="8.3639323711395264e-01" nType="-99"/>
        </Node>
      </Node>
    </BinaryTree>
    <BinaryTree type="DecisionTree" boostWeight="1.0000000000000000e+00" itree="13">
      <Node pos="s" depth="0" NCoef="0" IVar="7" Cut="2.3331412672996521e-01" cType="1" res="-2.7010072953999043e-03" rms="2.8294703364372253e-01" purity="4.9701437354087830e-01" nType="0">
        <Node pos="l" depth="1" NCoef="0" IVar="5" Cut="4.2327037453651428e-01" cType="1" res="-1.0867132246494293e-01" rms="2.6013928651809692e-01" purity="1.7163850367069244e-01" nType="0">
          <Node pos="l" depth="2" NCoef="0" IVar="-1" Cut="0.0000000000000000e+00" cType="1" res="-5.5368676781654358e-02" rms="1.6110418736934662e-01" purity="4.4575665146112442e-02" nType="-99"/>
          <Node pos="r" depth="2" NCoef="0" IVar="-1" Cut="0.0000000000000000e+00" cType="1" res="-6.3626081682741642e-03" rms="3.4657061100006104e-01" purity="3.6762434244155884e-01" nType="-99"/>
        </Node>
        <Node pos="r" depth="1" NCoef="0" IVar="4" Cut="-4.2985904216766357e-01" cType="1" res="1.1916687339544296e-01" rms="2.5794896483421326e-01" purity="8.7120282649993896e-01" nType="0">
          <Node pos="l" depth="2" NCoef="0" IVar="-1" Cut="0.0000000000000000e+00" cType="1" res="-5.9901878237724304e-02" rms="3.7421277165412903e-01" purity="3.6272838711738586e-01" nType="-99"/>
          <Node pos="r" depth="2" NCoef="0" IVar="-1" Cut="0.0000000000000000e+00" cType="1" res="4.2527336627244949e-02" rms="2.2756974399089813e-01" purity="9.0612035989761353e-01" nType="-99"/>
        </Node>
      </Node>
    </BinaryTree>
    <BinaryTree type="DecisionTree" boostWeight="1.0000000000000000e+00" itree="14">
      <Node pos="s" depth="0" NCoef="0" IVar="6" Cut="1.3811233639717102e-01" cType="1" res="-2.1034451492596418e-04" rms="2.7533701062202454e-01" purity="4.9938839673995972e-01" nType="0">
        <Node pos="l" depth="1" NCoef="0" IVar="7" Cut="6.1037182807922363e-01" cType="1" res="-1.1874549835920334e-01" rms="2.0692522823810577e-01" purity="1.2539553642272949e-01" nType="0">
          <Node pos="l" depth="2" NCoef="0" IVar="-1" Cut="0.0000000000000000e+00" cType="1" res="-5.0667844712734222e-02" rms="1.6278436779975891e-01" purity="4.6754319220781326e-02" nType="-99"/>
          <Node pos="r" depth="2" NCoef="0" IVar="-1" Cut="0.0000000000000000e+00" cType="1" res="4.4108727015554905e-03" rms="3.6358633637428284e-01" purity="6.5953618288040161e-01" nType="-99"/>
        </Node>
        <Node pos="r" depth="1" NCoef="0" IVar="0" Cut="5.9737591743469238e+00" cType="1" res="9.9219925701618195e-02" rms="2.8602969646453857e-01" purity="8.1310296058654785e-01" nType="0">
          <Node pos="l" depth="2" NCoef="0" IVar="-1" Cut="0.0000000000000000e+00" cType="1" res="3.9024133235216141e-02" rms="2.5523626804351807e-01" purity="8.7568724155426025e-01" nType="-99"/>
          <Node pos="r" depth="2" NCoef="0" IVar="-1" Cut="0.0000000000000000e+00" cType="1" res="-5.4715499281883240e-02" rms="3.5351008176803589e-01" purity="1.9283178448677063e-01" nType="-99"/>
        </Node>
      </Node>
    </BinaryTree>
    <BinaryTree type="DecisionTree" boostWeight="1.0000000000000000e+00" itree="15">
      <Node pos="s" depth="0" NCoef="0" IVar="5" Cut="1.4021420478820801e-01" cType="1" res="2.2092636208981276e-03" rms="2.7230238914489746e-01" purity="5.0375497341156006e-01" nType="0">
        <Node pos="l" depth="1" NCoef="0" IVar="2" Cut="3.1666835784912109e+01" cType="1" res="-1.2719556689262390e-01" rms="2.0623777806758881e-01" purity="1.2994483113288879e-01" nType="0">
          <Node pos="l" depth="2" NCoef="0" IVar="-1" Cut="0.0000000000000000e+00" cType="1" res="-1.4922960661351681e-02" rms="2.4486969411373138e-01" purity="3.0776181817054749e-01" nType="-99"/>
          <Node pos="r" depth="2" NCoef="0" IVar="-1" Cut="0.0000000000000000e+00" cType="1" res="-5.4589048027992249e-02" rms="1.8455085158348083e-01" purity="7.3103055357933044e-02" nType="-99"/>
        </Node>
        <Node pos="r" depth="1" NCoef="0" IVar="6" Cut="-8.1012284755706787e-01" cType="1" res="7.6662845909595490e-02" rms="2.7777719497680664e-01" purity="7.1882808208465576e-01" nType="0">
          <Node pos="l" depth="2" NCoef="0" IVar="-1" Cut="0.0000000000000000e+00" cType="1" res="-4.8322264105081558e-02" rms="2.1393157541751862e-01" purity="8.1759467720985413e-02" nType="-99"/>
          <Node pos="r" depth="2" NCoef="0" IVar="-1" Cut="0.0000000000000000e+00" cType="1" res="3.5855878144502640e-02" rms="2.6850309967994690e-01" purity="8.3871775865554810e-01" nType="-99"/>
        </Node>
      </Node>
    </BinaryTree>
    <BinaryTree type="DecisionTree" boostWeight="1.0000000000000000e+00" itree="16">
      <Node pos="s" depth="0" NCoef="0" IVar="7" Cut="-7.1538907289505005e-01" cType="1" res="1.7893973272293806e-03" rms="2.6450848579406738e-01" purity="5.0549167394638062e-01" nType="0">
        <Node pos="l" depth="1" NCoef="0" IVar="4" Cut="-2.3913362622261047e-01" cType="1" res="-1.1424472182989120e-01" rms="2.0842850208282471e-01" purity="6.6312603652477264e-02" nType="0">
          <Node pos="l" depth="2" NCoef="0" IVar="-1" Cut="0.0000000000000000e+00" cType="1" res="-6.1442922800779343e-02" rms="1.1909579485654831e-01" purity="8.1635154783725739e-03" nType="-99"/>
          <Node pos="r" depth="2" NCoef="0" IVar="-1" Cut="0.0000000000000000e+00" cType="1" res="-3.4093931317329407e-02" rms="2.3830012977123260e-01" purity="9.5417529344558716e-02" nType="-99"/>
        </Node>
        <Node pos="r" depth="1" NCoef="0" IVar="0" Cut="7.4281792640686035e+00" cType="1" res="7.1820653975009918e-02" rms="2.7007704973220825e-01" purity="7.7055382728576660e-01" nType="0">
          <Node pos="l" depth="2" NCoef="0" IVar="-1" Cut="0.0000000000000000e+00" cType="1" res="3.3077117055654526e-02" rms="2.4793934822082520e-01" purity="8.3860558271408081e-01" nType="-99"/>
          <Node pos="r" depth="2" NCoef="0" IVar="-1" Cut="0.0000000000000000e+00" cType="1" res="-6.3897632062435150e-02" rms="2.8141611814498901e-01" purity="9.3269102275371552e-02" nType="-99"/>
        </Node>
      </Node>
    </BinaryTree>
    <BinaryTree type="DecisionTree" boostWeight="1.0000000000000000e+00" itree="17">
      <Node pos="s" depth="0" NCoef="0" IVar="6" Cut="-4.3031981587409973e-01" cType="1" res="8.0785516183823347e-04" rms="2.6313102245330811e-01" purity="5.0083106756210327e-01" nType="0">
        <Node pos="l" depth="1" NCoef="0" IVar="6" Cut="-8.9153766632080078e-01" cType="1" res="-1.1065439134836197e-01" rms="1.7000803351402283e-01" purity="6.1578214168548584e-02" nType="0">
          <Node pos="l" depth="2" NCoef="0" IVar="-1" Cut="0.0000000000000000e+00" cType="1" res="-5.4187443107366562e-02" rms="1.4030167460441589e-01" purity="2.8035996481776237e-02" nType="-99"/>
          <Node pos="r" depth="2" NCoef="0" IVar="-1" Cut="0.0000000000000000e+00" cType="1" res="-2.9733292758464813e-02" rms="2.1731254458427429e-01" purity="1.3427448272705078e-01" nType="-99"/>
        </Node>
        <Node pos="r" depth="1" NCoef="0" IVar="0" Cut="-5.2543420791625977e+00" cType="1" res="6.6881164908409119e-02" rms="2.8533795475959778e-01" purity="7.6121419668197632e-01" nType="0">
          <Node pos="l" depth="2" NCoef="0" IVar="-1" Cut="0.0000000000000000e+00" cType="1" res="-5.6268848478794098e-02" rms="3.8860100507736206e-01" purity="2.5138145685195923e-01" nType="-99"/>
          <Node pos="r" depth="2" NCoef="0" IVar="-1" Cut="0.0000000000000000e+00" cType="1" res="3.1946323812007904e-02" rms="2.5165355205535889e-01" purity="8.1738281250000000e-01" nType="-99"/>
        </Node>
      </Node>
    </BinaryTree>
    <BinaryTree type="DecisionTree" boostWeight="1.0000000000000000e+00" itree="18">
      <Node pos="s" depth="0" NCoef="0" IVar="5" Cut="-4.9821496009826660e-02" cType="1" res="-1.8286268459632993e-03" rms="2.5634503364562988e-01" purity="4.9808514118194580e-01" nType="0">
        <Node pos="l" depth="1" NCoef="0" IVar="2" Cut="3.1666835784912109e+01" cType="1" res="-1.1239215731620789e-01" rms="1.9202660024166107e-01" purity="1.0629246383905411e-01" nType="0">
          <Node pos="l" depth="2" NCoef="0" IVar="-1" Cut="0.0000000000000000e+00" cType="1" res="-1.8052149564027786e-02" rms="2.3425860702991486e-01" purity="2.6536655426025391e-01" nType="-99"/>
          <Node pos="r" depth="2" NCoef="0" IVar="-1" Cut="0.0000000000000000e+00" cType="1" res="-5.3506270051002502e-02" rms="1.7268168926239014e-01" purity="5.7805985212326050e-02" nType="-99"/>
        </Node>
        <Node pos="r" depth="1" NCoef="0" IVar="0" Cut="4.5517892837524414e+00" cType="1" res="5.5254954844713211e-02" rms="2.6651856303215027e-01" purity="7.0036649703979492e-01" nType="0">
          <Node pos="l" depth="2" NCoef="0" IVar="-1" Cut="0.0000000000000000e+00" cType="1" res="3.1151197850704193e-02" rms="2.4409955739974976e-01" purity="7.9183018207550049e-01" nType="-99"/>
          <Node pos="r" depth="2" NCoef="0" IVar="-1" Cut="0.0000000000000000e+00" cType="1" res="-4.4519446790218353e-02" rms="2.9894578456878662e-01" purity="1.8356755375862122e-01" nType="-99"/>
        </Node>
      </Node>
    </BinaryTree>
    <BinaryTree type="DecisionTree" boostWeight="1.0000000000000000e+00" itree="19">
      <Node pos="s" depth="0" NCoef="0" IVar="6" Cut="4.2507007718086243e-01" cType="1" res="-1.2570667313411832e-03" rms="2.5258719921112061e-01" purity="4.9783802032470703e-01" nType="0">
        <Node pos="l" depth="1" NCoef="0" IVar="7" Cut="7.0766574144363403e-01" cType="1" res="-7.4360154569149017e-02" rms="2.1471136808395386e-01" purity="1.7796425521373749e-01" nType="0">
          <Node pos="l" depth="2" NCoef="0" IVar="-1" Cut="0.0000000000000000e+00" cType="1" res="-4.2382311075925827e-02" rms="1.8919622898101807e-01" purity="8.0614469945430756e-02" nType="-99"/>
          <Node pos="r" depth="2" NCoef="0" IVar="-1" Cut="0.0000000000000000e+00" cType="1" res="1.7847584560513496e-02" rms="2.9547223448753357e-01" purity="7.6987516880035400e-01" nType="-99"/>
        </Node>
        <Node pos="r" depth="1" NCoef="0" IVar="4" Cut="-4.2962563037872314e-01" cType="1" res="7.4089214205741882e-02" rms="2.6619094610214233e-01" purity="8.2752728462219238e-01" nType="0">
          <Node pos="l" depth="2" NCoef="0" IVar="-1" Cut="0.0000000000000000e+00" cType="1" res="-6.1530768871307373e-02" rms="3.1900900602340698e-01" purity="2.5203937292098999e-01" nType="-99"/>
          <Node pos="r" depth="2" NCoef="0" IVar="-1" Cut="0.0000000000000000e+00" cType="1" res="3.4036837518215179e-02" rms="2.4397760629653931e-01" purity="8.7351989746093750e-01" nType="-99"/>
        </Node>
      </Node>
    </BinaryTree>
    <BinaryTree type="DecisionTree" boostWeight="1.0000000000000000e+00" itree="20">
      <Node pos="s" depth="0" NCoef="0" IVar="5" Cut="-1.4483934640884399e-01" cType="1" res="1.7029800219461322e-03" rms="2.4905319511890411e-01" purity="5.0034230947494507e-01" nType="0">
        <Node pos="l" depth="1" NCoef="0" IVar="2" Cut="2.8302141189575195e+01" cType="1" res="-1.0088022053241730e-01" rms="1.8063184618949890e-01" purity="8.8918864727020264e-02" nType="0">
          <Node pos="l" depth="2" NCoef="0" IVar="-1" Cut="0.0000000000000000e+00" cType="1" res="-1.4351445250213146e-02" rms="2.3104527592658997e-01" purity="2.6446413993835449e-01" nType="-99"/>
          <Node pos="r" depth="2" NCoef="0" IVar="-1" Cut="0.0000000000000000e+00" cType="1" res="-5.1396768540143967e-02" rms="1.6525265574455261e-01" purity="5.2420873194932938e-02" nType="-99"/>
        </Node>
        <Node pos="r" depth="1" NCoef="0" IVar="0" Cut="-1.0176651000976562e+01" cType="1" res="5.1818072795867920e-02" rms="2.6217862963676453e-01" purity="7.0133548974990845e-01" nType="0">
          <Node pos="l" depth="2" NCoef="0" IVar="-1" Cut="0.0000000000000000e+00" cType="1" res="-6.2172781676054001e-02" rms="3.0361461639404297e-01" purity="1.0473373532295227e-01" nType="-99"/>
          <Node pos="r" depth="2" NCoef="0" IVar="-1" Cut="0.0000000000000000e+00" cType="1" res="2.6653908193111420e-02" rms="2.4624754488468170e-01" purity="7.5372433662414551e-01" nType="-99"/>
        </Node>
      </Node>
    </BinaryTree>
    <BinaryTree type="DecisionTree" boostWeight="1.0000000000000000e+00" itree="21">
      <Node pos="s" depth="0" NCoef="0" IVar="4" Cut="2.3616310954093933e-01" cType="1" res="-2.4280024226754904e-03" rms="2.4472945928573608e-01" purity="4.9351027607917786e-01" nType="0">
        <Node pos="l" depth="1" NCoef="0" IVar="2" Cut="2.8711919784545898e+01" cType="1" res="-1.1563714593648911e-01" rms="2.1764810383319855e-01" purity="1.5938450396060944e-01" nType="0">
          <Node pos="l" depth="2" NCoef="0" IVar="-1" Cut="0.0000000000000000e+00" cType="1" res="-1.4333493076264858e-02" rms="2.3965688049793243e-01" purity="3.8052111864089966e-01" nType="-99"/>
          <Node pos="r" depth="2" NCoef="0" IVar="-1" Cut="0.0000000000000000e+00" cType="1" res="-5.6834187358617783e-02" rms="2.0571003854274750e-01" purity="9.7342550754547119e-02" nType="-99"/>
        </Node>
        <Node pos="r" depth="1" NCoef="0" IVar="6" Cut="-5.2497661113739014e-01" cType="1" res="3.8395784795284271e-02" rms="2.4108032882213593e-01" purity="6.1399769783020020e-01" nType="0">
          <Node pos="l" depth="2" NCoef="0" IVar="-1" Cut="0.0000000000000000e+00" cType="1" res="-3.4337315708398819e-02" rms="1.8864597380161285e-01" purity="8.4760077297687531e-02" nType="-99"/>
          <Node pos="r" depth="2" NCoef="0" IVar="-1" Cut="0.0000000000000000e+00" cType="1" res="2.9899008572101593e-02" rms="2.4546821415424347e-01" purity="8.2881534099578857e-01" nType="-99"/>
        </Node>
      </Node>
    </BinaryTree>
    <BinaryTree type="DecisionTree" boostWeight="1.0000000000000000e+00" itree="22">
      <Node pos="s" depth="0" NCoef="0" IVar="7" Cut="-7.1538907289505005e-01" cType="1" res="-2.0214579999446869e-03" rms="2.4015061557292938e-01" purity="4.9751192331314087e-01" nType="0">
        <Node pos="l" depth="1" NCoef="0" IVar="4" Cut="4.2630967497825623e-01" cType="1" res="-8.3839222788810730e-02" rms="1.9624429941177368e-01" purity="6.1081953346729279e-02" nType="0">
          <Node pos="l" depth="2" NCoef="0" IVar="-1" Cut="0.0000000000000000e+00" cType="1" res="-5.6091386824846268e-02" rms="1.2006935477256775e-01" purity="1.2108364142477512e-02" nType="-99"/>
          <Node pos="r" depth="2" NCoef="0" IVar="-1" Cut="0.0000000000000000e+00" cType="1" res="-2.8246214613318443e-02" rms="2.3995223641395569e-01" purity="1.0132757574319839e-01" nType="-99"/>
        </Node>
        <Node pos="r" depth="1" NCoef="0" IVar="0" Cut="-4.9931073188781738e+00" cType="1" res="4.7806281596422195e-02" rms="2.5056260824203491e-01" purity="7.6330161094665527e-01" nType="0">
          <Node pos="l" depth="2" NCoef="0" IVar="-1" Cut="0.0000000000000000e+00" cType="1" res="-5.7341665029525757e-02" rms="3.3984944224357605e-01" purity="2.2873906791210175e-01" nType="-99"/>
          <Node pos="r" depth="2" NCoef="0" IVar="-1" Cut="0.0000000000000000e+00" cType="1" res="2.8009999543428421e-02" rms="2.2403991222381592e-01" purity="8.2095998525619507e-01" nType="-99"/>
        </Node>
      </Node>
    </BinaryTree>
    <BinaryTree type="DecisionTree" boostWeight="1.0000000000000000e+00" itree="23">
      <Node pos="s" depth="0" NCoef="0" IVar="2" Cut="3.0265775680541992e+01" cType="1" res="1.1657610302790999e-03" rms="2.3831750452518463e-01" purity="5.0160700082778931e-01" nType="0">
        <Node pos="l" depth="1" NCoef="0" IVar="0" Cut="7.2284502983093262e+00" cType="1" res="8.7408795952796936e-02" rms="1.9183319807052612e-01" purity="7.7948486804962158e-01" nType="0">
          <Node pos="l" depth="2" NCoef="0" IVar="-1" Cut="0.0000000000000000e+00" cType="1" res="4.4083815068006516e-02" rms="1.7916174232959747e-01" purity="8.5381525754928589e-01" nType="-99"/>
          <Node pos="r" depth="2" NCoef="0" IVar="-1" Cut="0.0000000000000000e+00" cType="1" res="-4.7241110354661942e-02" rms="1.9368058443069458e-01" purity="6.9188043475151062e-02" nType="-99"/>
        </Node>
        <Node pos="r" depth="1" NCoef="0" IVar="7" Cut="7.0766574144363403e-01" cType="1" res="-4.5756433159112930e-02" rms="2.4784195423126221e-01" purity="3.5042211413383484e-01" nType="0">
          <Node pos="l" depth="2" NCoef="0" IVar="-1" Cut="0.0000000000000000e+00" cType="1" res="-3.2223369926214218e-02" rms="2.3626349866390228e-01" purity="1.8663102388381958e-01" nType="-99"/>
          <Node pos="r" depth="2" NCoef="0" IVar="-1" Cut="0.0000000000000000e+00" cType="1" res="1.5445099212229252e-02" rms="2.6080030202865601e-01" purity="8.3679115772247314e-01" nType="-99"/>
        </Node>
      </Node>
    </BinaryTree>
    <BinaryTree type="DecisionTree" boostWeight="1.0000000000000000e+00" itree="24">
      <Node pos="s" depth="0" NCoef="0" IVar="4" Cut="4.5885067433118820e-02" cType="1" res="-1.3207371812313795e-03" rms="2.3278008401393890e-01" purity="4.9831643700599670e-01" nType="0">
        <Node pos="l" depth="1" NCoef="0" IVar="2" Cut="2.5121513366699219e+01" cType="1" res="-1.0291048884391785e-01" rms="1.9910664856433868e-01" purity="1.3263061642646790e-01" nType="0">
          <Node pos="l" depth="2" NCoef="0" IVar="-1" Cut="0.0000000000000000e+00" cType="1" res="-9.7323190420866013e-03" rms="2.1235151588916779e-01" purity="3.7795397639274597e-01" nType="-99"/>
          <Node pos="r" depth="2" NCoef="0" IVar="-1" Cut="0.0000000000000000e+00" cType="1" res="-5.3394075483083725e-02" rms="1.9379034638404846e-01" purity="9.2957325279712677e-02" nType="-99"/>
        </Node>
        <Node pos="r" depth="1" NCoef="0" IVar="6" Cut="-7.1528601646423340e-01" cType="1" res="2.9634257778525352e-02" rms="2.3348450660705566e-01" purity="6.0974299907684326e-01" nType="0">
          <Node pos="l" depth="2" NCoef="0" IVar="-1" Cut="0.0000000000000000e+00" cType="1" res="-3.8982700556516647e-02" rms="1.6748796403408051e-01" purity="5.8777622878551483e-02" nType="-99"/>
          <Node pos="r" depth="2" NCoef="0" IVar="-1" Cut="0.0000000000000000e+00" cType="1" res="2.5277435779571533e-02" rms="2.4260419607162476e-01" purity="8.0155235528945923e-01" nType="-99"/>
        </Node>
      </Node>
    </BinaryTree>
    <BinaryTree type="DecisionTree" boostWeight="1.0000000000000000e+00" itree="25">
      <Node pos="s" depth="0" NCoef="0" IVar="5" Cut="-2.3985719680786133e-01" cType="1" res="1.0744085302576423e-03" rms="2.3239912092685699e-01" purity="4.9954000115394592e-01" nType="0">
        <Node pos="l" depth="1" NCoef="0" IVar="5" Cut="-7.1049457788467407e-01" cType="1" res="-7.8994914889335632e-02" rms="1.6836576163768768e-01" purity="8.0241918563842773e-02" nType="0">
          <Node pos="l" depth="2" NCoef="0" IVar="-1" Cut="0.0000000000000000e+00" cType="1" res="-4.8378057777881622e-02" rms="1.4589968323707581e-01" purity="3.7050973623991013e-02" nType="-99"/>
          <Node pos="r" depth="2" NCoef="0" IVar="-1" Cut="0.0000000000000000e+00" cType="1" res="-2.0967962220311165e-02" rms="2.2462227940559387e-01" purity="2.2421988844871521e-01" nType="-99"/>
        </Node>
        <Node pos="r" depth="1" NCoef="0" IVar="0" Cut="1.1916009902954102e+01" cType="1" res="3.8104549050331116e-02" rms="2.4807529151439667e-01" purity="6.9345527887344360e-01" nType="0">
          <Node pos="l" depth="2" NCoef="0" IVar="-1" Cut="0.0000000000000000e+00" cType="1" res="2.3431409150362015e-02" rms="2.3958821594715118e-01" purity="7.5613230466842651e-01" nType="-99"/>
          <Node pos="r" depth="2" NCoef="0" IVar="-1" Cut="0.0000000000000000e+00" cType="1" res="-5.9182710945606232e-02" rms="2.4883897602558136e-01" purity="4.8148352652788162e-02" nType="-99"/>
        </Node>
      </Node>
    </BinaryTree>
    <BinaryTree type="DecisionTree" boostWeight="1.0000000000000000e+00" itree="26">
      <Node pos="s" depth="0" NCoef="0" IVar="2" Cut="2.9076889038085938e+01" cType="1" res="1.6081038629636168e-03" rms="2.2869431972503662e-01" purity="5.0245934724807739e-01" nType="0">
        <Node pos="l" depth="1" NCoef="0" IVar="7" Cut="-9.0524834394454956e-01" cType="1" res="7.8714028000831604e-02" rms="1.8165901303291321e-01" purity="7.9357743263244629e-01" nType="0">
          <Node pos="l" depth="2" NCoef="0" IVar="-1" Cut="0.0000000000000000e+00" cType="1" res="-3.2752957195043564e-02" rms="2.0715428888797760e-01" purity="7.8851930797100067e-02" nType="-99"/>
          <Node pos="r" depth="2" NCoef="0" IVar="-1" Cut="0.0000000000000000e+00" cType="1" res="4.3808896094560623e-02" rms="1.6798412799835205e-01" purity="8.9261668920516968e-01" nType="-99"/>
        </Node>
        <Node pos="r" depth="1" NCoef="0" IVar="7" Cut="4.2305475473403931e-01" cType="1" res="-3.6813836544752121e-02" rms="2.3974995315074921e-01" purity="3.5739493370056152e-01" nType="0">
          <Node pos="l" depth="2" NCoef="0" IVar="-1" Cut="0.0000000000000000e+00" cType="1" res="-3.2195072621107101e-02" rms="2.1836981177330017e-01" purity="1.3913305103778839e-01" nType="-99"/>
          <Node pos="r" depth="2" NCoef="0" IVar="-1" Cut="0.0000000000000000e+00" cType="1" res="1.0776194743812084e-02" rms="2.6789748668670654e-01" purity="8.1125736236572266e-01" nType="-99"/>
        </Node>
      </Node>
    </BinaryTree>
    <BinaryTree type="DecisionTree" boostWeight="1.0000000000000000e+00" itree="27">
      <Node pos="s" depth="0" NCoef="0" IVar="0" Cut="3.8627116680145264e+00" cType="1" res="1.2244732351973653e-03" rms="2.2531972825527191e-01" purity="5.0537192821502686e-01" nType="0">
        <Node pos="l" depth="1" NCoef="0" IVar="0" Cut="-4.4923381805419922e+00" cType="1" res="3.0825154855847359e-02" rms="2.2121529281139374e-01" purity="6.3459974527359009e-01" nType="0">
          <Node pos="l" depth="2" NCoef="0" IVar="-1" Cut="0.0000000000000000e+00" cType="1" res="-4.4990755617618561e-02" rms="2.4961887300014496e-01" purity="1.2485221773386002e-01" nType="-99"/>
          <Node pos="r" depth="2" NCoef="0" IVar="-1" Cut="0.0000000000000000e+00" cType="1" res="3.4302361309528351e-02" rms="1.9147819280624390e-01" purity="8.0384778976440430e-01" nType="-99"/>
        </Node>
        <Node pos="r" depth="1" NCoef="0" IVar="7" Cut="-1.4738121628761292e-01" cType="1" res="-8.7635837495326996e-02" rms="2.1387948095798492e-01" purity="1.1743419617414474e-01" nType="0">
          <Node pos="l" depth="2" NCoef="0" IVar="-1" Cut="0.0000000000000000e+00" cType="1" res="-4.2324066162109375e-02" rms="1.5036559104919434e-01" purity="3.9458531886339188e-02" nType="-99"/>
          <Node pos="r" depth="2" NCoef="0" IVar="-1" Cut="0.0000000000000000e+00" cType="1" res="-4.2536217719316483e-02" rms="3.4392476081848145e-01" purity="3.7572959065437317e-01" nType="-99"/>
        </Node>
      </Node>
    </BinaryTree>
    <BinaryTree type="DecisionTree" boostWeight="1.0000000000000000e+00" itree="28">
      <Node pos="s" depth="0" NCoef="0" IVar="4" Cut="4.2634204030036926e-01" cType="1" res="8.7171146878972650e-04" rms="2.2392983734607697e-01" purity="4.9943408370018005e-01" nType="0">
        <Node pos="l" depth="1" NCoef="0" IVar="4" Cut="-6.6040682792663574e-01" cType="1" res="-7.0268668234348297e-02" rms="2.1228747069835663e-01" purity="2.0959255099296570e-01" nType="0">
          <Node pos="l" depth="2" NCoef="0" IVar="-1" Cut="0.0000000000000000e+00" cType="1" res="-5.8382231742143631e-02" rms="1.6390357911586761e-01" purity="4.4624619185924530e-02" nType="-99"/>
          <Node pos="r" depth="2" NCoef="0" IVar="-1" Cut="0.0000000000000000e+00" cType="1" res="-1.7550969496369362e-02" rms="2.4233052134513855e-01" purity="3.5396903753280640e-01" nType="-99"/>
        </Node>
        <Node pos="r" depth="1" NCoef="0" IVar="6" Cut="-6.2021321058273315e-01" cType="1" res="3.1807031482458115e-02" rms="2.2180002927780151e-01" purity="6.2547141313552856e-01" nType="0">
          <Node pos="l" depth="2" NCoef="0" IVar="-1" Cut="0.0000000000000000e+00" cType="1" res="-3.0725648626685143e-02" rms="1.7841042578220367e-01" purity="7.4627406895160675e-02" nType="-99"/>
          <Node pos="r" depth="2" NCoef="0" IVar="-1" Cut="0.0000000000000000e+00" cType="1" res="2.6510214433073997e-02" rms="2.2825527191162109e-01" purity="8.2569092512130737e-01" nType="-99"/>
        </Node>
      </Node>
    </BinaryTree>
    <BinaryTree type="DecisionTree" boostWeight="1.0000000000000000e+00" itree="29">
      <Node pos="s" depth="0" NCoef="0" IVar="0" Cut="-4.1083397865295410e+00" cType="1" res="1.3763466267846525e-04" rms="2.1985845267772675e-01" purity="5.0104069709777832e-01" nType="0">
        <Node pos="l" depth="1" NCoef="0" IVar="6" Cut="-1.4696766436100006e-01" cType="1" res="-9.4940960407257080e-02" rms="2.4497449398040771e-01" purity="1.3135610520839691e-01" nType="0">
          <Node pos="l" depth="2" NCoef="0" IVar="-1" Cut="0.0000000000000000e+00" cType="1" res="-4.3419972062110901e-02" rms="1.5042886137962341e-01" purity="3.4272123128175735e-02" nType="-99"/>
          <Node pos="r" depth="2" NCoef="0" IVar="-1" Cut="0.0000000000000000e+00" cType="1" res="-4.4747874140739441e-02" rms="3.6216548085212708e-01" purity="3.3111533522605896e-01" nType="-99"/>
        </Node>
        <Node pos="r" depth="1" NCoef="0" IVar="0" Cut="4.2445831298828125e+00" cType="1" res="2.3264179006218910e-02" rms="2.0679540932178497e-01" purity="5.9096133708953857e-01" nType="0">
          <Node pos="l" depth="2" NCoef="0" IVar="-1" Cut="0.0000000000000000e+00" cType="1" res="3.1626105308532715e-02" rms="1.8786044418811798e-01" purity="8.0161106586456299e-01" nType="-99"/>
          <Node pos="r" depth="2" NCoef="0" IVar="-1" Cut="0.0000000000000000e+00" cType="1" res="-3.8156084716320038e-02" rms="2.1587015688419342e-01" purity="1.0247341543436050e-01" nType="-99"/>
        </Node>
      </Node>
    </BinaryTree>
    <BinaryTree type="DecisionTree" boostWeight="1.0000000000000000e+00" itree="30">
      <Node pos="s" depth="0" NCoef="0" IVar="5" Cut="4.2499437928199768e-01" cType="1" res="-1.0358521249145269e-03" rms="2.1886284649372101e-01" purity="4.9814549088478088e-01" nType="0">
        <Node pos="l" depth="1" NCoef="0" IVar="2" Cut="2.8302141189575195e+01" cType="1" res="-5.2800159901380539e-02" rms="1.8131306767463684e-01" purity="1.7830093204975128e-01" nType="0">
          <Node pos="l" depth="2" NCoef="0" IVar="-1" Cut="0.0000000000000000e+00" cType="1" res="2.4250729475170374e-03" rms="2.0293046534061432e-01" purity="4.5862263441085815e-01" nType="-99"/>
          <Node pos="r" depth="2" NCoef="0" IVar="-1" Cut="0.0000000000000000e+00" cType="1" res="-4.0603421628475189e-02" rms="1.7190623283386230e-01" purity="1.0400128364562988e-01" nType="-99"/>
        </Node>
        <Node pos="r" depth="1" NCoef="0" IVar="0" Cut="-7.4395575523376465e+00" cType="1" res="3.6754738539457321e-02" rms="2.3555622994899750e-01" purity="7.3164832592010498e-01" nType="0">
          <Node pos="l" depth="2" NCoef="0" IVar="-1" Cut="0.0000000000000000e+00" cType="1" res="-3.7479426711797714e-02" rms="3.2971042394638062e-01" purity="1.5401098132133484e-01" nType="-99"/>
          <Node pos="r" depth="2" NCoef="0" IVar="-1" Cut="0.0000000000000000e+00" cType="1" res="2.4300809949636459e-02" rms="2.1831245720386505e-01" purity="7.9244434833526611e-01" nType="-99"/>
        </Node>
      </Node>
    </BinaryTree>
    <BinaryTree type="DecisionTree" boostWeight="1.0000000000000000e+00" itree="31">
      <Node pos="s" depth="0" NCoef="0" IVar="2" Cut="3.4815433502197266e+01" cType="1" res="-2.5055941659957170e-03" rms="2.1706999838352203e-01" purity="4.9861472845077515e-01" nType="0">
        <Node pos="l" depth="1" NCoef="0" IVar="7" Cut="-8.1052291393280029e-01" cType="1" res="4.5302025973796844e-02" rms="1.8295399844646454e-01" purity="7.2659409046173096e-01" nType="0">
          <Node pos="l" depth="2" NCoef="0" IVar="-1" Cut="0.0000000000000000e+00" cType="1" res="-3.1327594071626663e-02" rms="2.0630729198455811e-01" purity="7.3416769504547119e-02" nType="-99"/>
          <Node pos="r" depth="2" NCoef="0" IVar="-1" Cut="0.0000000000000000e+00" cType="1" res="3.5714332014322281e-02" rms="1.6853046417236328e-01" purity="8.7891119718551636e-01" nType="-99"/>
        </Node>
        <Node pos="r" depth="1" NCoef="0" IVar="4" Cut="4.2621460556983948e-01" cType="1" res="-3.7577260285615921e-02" rms="2.3286105692386627e-01" purity="3.3136907219886780e-01" nType="0">
          <Node pos="l" depth="2" NCoef="0" IVar="-1" Cut="0.0000000000000000e+00" cType="1" res="-4.5257825404405594e-02" rms="1.9517642259597778e-01" purity="1.1515390127897263e-01" nType="-99"/>
          <Node pos="r" depth="2" NCoef="0" IVar="-1" Cut="0.0000000000000000e+00" cType="1" res="-6.8626203574240208e-03" rms="2.4747370183467865e-01" purity="4.4623818993568420e-01" nType="-99"/>
        </Node>
      </Node>
    </BinaryTree>
    <BinaryTree type="DecisionTree" boostWeight="1.0000000000000000e+00" itree="32">
      <Node pos="s" depth="0" NCoef="0" IVar="5" Cut="3.2982745766639709e-01" cType="1" res="1.1766100069507957e-03" rms="2.1361191570758820e-01" purity="5.0317370891571045e-01" nType="0">
        <Node pos="l" depth="1" NCoef="0" IVar="6" Cut="8.0121898651123047e-01" cType="1" res="-4.6642884612083435e-02" rms="1.7600505053997040e-01" purity="1.6172087192535400e-01" nType="0">
          <Node pos="l" depth="2" NCoef="0" IVar="-1" Cut="0.0000000000000000e+00" cType="1" res="-3.9913505315780640e-02" rms="1.5015548467636108e-01" purity="8.0386422574520111e-02" nType="-99"/>
          <Node pos="r" depth="2" NCoef="0" IVar="-1" Cut="0.0000000000000000e+00" cType="1" res="3.7640412338078022e-03" rms="2.6899439096450806e-01" purity="5.9846812486648560e-01" nType="-99"/>
        </Node>
        <Node pos="r" depth="1" NCoef="0" IVar="0" Cut="1.2127775192260742e+01" cType="1" res="3.3116001635789871e-02" rms="2.2993278503417969e-01" purity="7.3123544454574585e-01" nType="0">
          <Node pos="l" depth="2" NCoef="0" IVar="-1" Cut="0.0000000000000000e+00" cType="1" res="2.2122725844383240e-02" rms="2.2404259443283081e-01" purity="7.8563141822814941e-01" nType="-99"/>
          <Node pos="r" depth="2" NCoef="0" IVar="-1" Cut="0.0000000000000000e+00" cType="1" res="-5.2237030118703842e-02" rms="2.4526241421699524e-01" purity="5.1110573112964630e-02" nType="-99"/>
        </Node>
      </Node>
    </BinaryTree>
    <BinaryTree type="DecisionTree" boostWeight="1.0000000000000000e+00" itree="33">
      <Node pos="s" depth="0" NCoef="0" IVar="0" Cut="-4.1083397865295410e+00" cType="1" res="-3.0982709722593427e-04" rms="2.1327929198741913e-01" purity="4.9709066748619080e-01" nType="0">
        <Node pos="l" depth="1" NCoef="0" IVar="6" Cut="-3.3653041720390320e-01" cType="1" res="-7.4043348431587219e-02" rms="2.4350215494632721e-01" purity="1.4025245606899261e-01" nType="0">
          <Node pos="l" depth="2" NCoef="0" IVar="-1" Cut="0.0000000000000000e+00" cType="1" res="-4.0971688926219940e-02" rms="1.4132866263389587e-01" purity="3.1145384535193443e-02" nType="-99"/>
          <Node pos="r" depth="2" NCoef="0" IVar="-1" Cut="0.0000000000000000e+00" cType="1" res="-3.5178791731595993e-02" rms="3.5626587271690369e-01" purity="3.3500671386718750e-01" nType="-99"/>
        </Node>
        <Node pos="r" depth="1" NCoef="0" IVar="0" Cut="4.2445831298828125e+00" cType="1" res="1.8170122057199478e-02" rms="2.0080818235874176e-01" purity="5.8652549982070923e-01" nType="0">
          <Node pos="l" depth="2" NCoef="0" IVar="-1" Cut="0.0000000000000000e+00" cType="1" res="2.8341162949800491e-02" rms="1.8848681449890137e-01" purity="7.9829126596450806e-01" nType="-99"/>
          <Node pos="r" depth="2" NCoef="0" IVar="-1" Cut="0.0000000000000000e+00" cType="1" res="-3.6513432860374451e-02" rms="2.0418101549148560e-01" purity="1.0106287151575089e-01" nType="-99"/>
        </Node>
      </Node>
    </BinaryTree>
    <BinaryTree type="DecisionTree" boostWeight="1.0000000000000000e+00" itree="34">
      <Node pos="s" depth="0" NCoef="0" IVar="4" Cut="1.4097169041633606e-01" cType="1" res="-2.1118097720318474e-05" rms="2.1203981339931488e-01" purity="4.9939146637916565e-01" nType="0">
        <Node pos="l" depth="1" NCoef="0" IVar="4" Cut="-7.8271335363388062e-01" cType="1" res="-6.2630921602249146e-02" rms="1.8580549955368042e-01" purity="1.4694699645042419e-01" nType="0">
          <Node pos="l" depth="2" NCoef="0" IVar="-1" Cut="0.0000000000000000e+00" cType="1" res="-5.5981647223234177e-02" rms="1.5433628857135773e-01" purity="3.8648765534162521e-02" nType="-99"/>
          <Node pos="r" depth="2" NCoef="0" IVar="-1" Cut="0.0000000000000000e+00" cType="1" res="-2.1753279492259026e-02" rms="2.0950315892696381e-01" purity="2.5284057855606079e-01" nType="-99"/>
        </Node>
        <Node pos="r" depth="1" NCoef="0" IVar="0" Cut="-7.4795336723327637e+00" cType="1" res="2.0150026306509972e-02" rms="2.1599461138248444e-01" purity="6.1293929815292358e-01" nType="0">
          <Node pos="l" depth="2" NCoef="0" IVar="-1" Cut="0.0000000000000000e+00" cType="1" res="-4.3768834322690964e-02" rms="2.5806486606597900e-01" purity="8.4912389516830444e-02" nType="-99"/>
          <Node pos="r" depth="2" NCoef="0" IVar="-1" Cut="0.0000000000000000e+00" cType="1" res="1.8427150323987007e-02" rms="2.0595388114452362e-01" purity="6.7909711599349976e-01" nType="-99"/>
        </Node>
      </Node>
    </BinaryTree>
    <BinaryTree type="DecisionTree" boostWeight="1.0000000000000000e+00" itree="35">
      <Node pos="s" depth="0" NCoef="0" IVar="6" Cut="6.1337935924530029e-01" cType="1" res="8.9823297457769513e-04" rms="2.0854894816875458e-01" purity="5.0086510181427002e-01" nType="0">
        <Node pos="l" depth="1" NCoef="0" IVar="7" Cut="7.0766574144363403e-01" cType="1" res="-2.9219353571534157e-02" rms="1.9135324656963348e-01" purity="2.3457296192646027e-01" nType="0">
          <Node pos="l" depth="2" NCoef="0" IVar="-1" Cut="0.0000000000000000e+00" cType="1" res="-3.0146267265081406e-02" rms="1.8161317706108093e-01" purity="1.1394857615232468e-01" nType="-99"/>
          <Node pos="r" depth="2" NCoef="0" IVar="-1" Cut="0.0000000000000000e+00" cType="1" res="2.0510211586952209e-02" rms="2.1795618534088135e-01" purity="8.2522964477539062e-01" nType="-99"/>
        </Node>
        <Node pos="r" depth="1" NCoef="0" IVar="0" Cut="6.0971879959106445e+00" cType="1" res="3.9297845214605331e-02" rms="2.2277617454528809e-01" purity="8.4038484096527100e-01" nType="0">
          <Node pos="l" depth="2" NCoef="0" IVar="-1" Cut="0.0000000000000000e+00" cType="1" res="2.7866188436746597e-02" rms="2.0263095200061798e-01" purity="8.9671772718429565e-01" nType="-99"/>
          <Node pos="r" depth="2" NCoef="0" IVar="-1" Cut="0.0000000000000000e+00" cType="1" res="-3.6264508962631226e-02" rms="3.4437176585197449e-01" purity="1.9758553802967072e-01" nType="-99"/>
        </Node>
      </Node>
    </BinaryTree>
    <BinaryTree type="DecisionTree" boostWeight="1.0000000000000000e+00" itree="36">
      <Node pos="s" depth="0" NCoef="0" IVar="5" Cut="-3.3500263094902039e-01" cType="1" res="-1.2483042664825916e-03" rms="2.0745389163494110e-01" purity="4.9615290760993958e-01" nType="0">
        <Node pos="l" depth="1" NCoef="0" IVar="7" Cut="-6.2091237306594849e-01" cType="1" res="-4.8801183700561523e-02" rms="1.5433433651924133e-01" purity="6.9404460489749908e-02" nType="0">
          <Node pos="l" depth="2" NCoef="0" IVar="-1" Cut="0.0000000000000000e+00" cType="1" res="-4.6489879488945007e-02" rms="8.2732833921909332e-02" purity="8.7105324491858482e-03" nType="-99"/>
          <Node pos="r" depth="2" NCoef="0" IVar="-1" Cut="0.0000000000000000e+00" cType="1" res="-2.6639668270945549e-02" rms="2.5285300612449646e-01" purity="2.1481235325336456e-01" nType="-99"/>
        </Node>
        <Node pos="r" depth="1" NCoef="0" IVar="0" Cut="1.1916009902954102e+01" cType="1" res="1.9734658300876617e-02" rms="2.2378356754779816e-01" purity="6.8445783853530884e-01" nType="0">
          <Node pos="l" depth="2" NCoef="0" IVar="-1" Cut="0.0000000000000000e+00" cType="1" res="1.6752697527408600e-02" rms="2.2212556004524231e-01" purity="7.4854826927185059e-01" nType="-99"/>
          <Node pos="r" depth="2" NCoef="0" IVar="-1" Cut="0.0000000000000000e+00" cType="1" res="-5.4023899137973785e-02" rms="2.0246195793151855e-01" purity="3.0330698937177658e-02" nType="-99"/>
        </Node>
      </Node>
    </BinaryTree>
    <BinaryTree type="DecisionTree" boostWeight="1.0000000000000000e+00" itree="37">
      <Node pos="s" depth="0" NCoef="0" IVar="0" Cut="-4.1083397865295410e+00" cType="1" res="-9.8671484738588333e-04" rms="2.0813333988189697e-01" purity="4.9550402164459229e-01" nType="0">
        <Node pos="l" depth="1" NCoef="0" IVar="6" Cut="-5.2609312534332275e-01" cType="1" res="-6.4372211694717407e-02" rms="2.4724222719669342e-01" purity="1.3301767408847809e-01" nType="0">
          <Node pos="l" depth="2" NCoef="0" IVar="-1" Cut="0.0000000000000000e+00" cType="1" res="-3.4978989511728287e-02" rms="1.4029812812805176e-01" purity="2.9708083719015121e-02" nType="-99"/>
          <Node pos="r" depth="2" NCoef="0" IVar="-1" Cut="0.0000000000000000e+00" cType="1" res="-3.5185866057872772e-02" rms="3.4474286437034607e-01" purity="2.8396725654602051e-01" nType="-99"/>
        </Node>
        <Node pos="r" depth="1" NCoef="0" IVar="0" Cut="4.2445831298828125e+00" cType="1" res="1.4744125306606293e-02" rms="1.9404914975166321e-01" purity="5.8546489477157593e-01" nType="0">
          <Node pos="l" depth="2" NCoef="0" IVar="-1" Cut="0.0000000000000000e+00" cType="1" res="2.4820059537887573e-02" rms="1.8260921537876129e-01" purity="7.9872041940689087e-01" nType="-99"/>
          <Node pos="r" depth="2" NCoef="0" IVar="-1" Cut="0.0000000000000000e+00" cType="1" res="-3.1445987522602081e-02" rms="2.0382668077945709e-01" purity="9.9268659949302673e-02" nType="-99"/>
        </Node>
      </Node>
    </BinaryTree>
    <BinaryTree type="DecisionTree" boostWeight="1.0000000000000000e+00" itree="38">
      <Node pos="s" depth="0" NCoef="0" IVar="2" Cut="3.4815433502197266e+01" cType="1" res="-5.2699149819090962e-04" rms="2.0282413065433502e-01" purity="4.9935632944107056e-01" nType="0">
        <Node pos="l" depth="1" NCoef="0" IVar="3" Cut="3.1679300308227539e+01" cType="1" res="3.7877067923545837e-02" rms="1.7266502976417542e-01" purity="7.2499471902847290e-01" nType="0">
          <Node pos="l" depth="2" NCoef="0" IVar="-1" Cut="0.0000000000000000e+00" cType="1" res="2.9685882851481438e-02" rms="1.6949300467967987e-01" purity="7.7205961942672729e-01" nType="-99"/>
          <Node pos="r" depth="2" NCoef="0" IVar="-1" Cut="0.0000000000000000e+00" cType="1" res="-6.7218504846096039e-02" rms="1.5027469396591187e-01" purity="4.3969638645648956e-02" nType="-99"/>
        </Node>
        <Node pos="r" depth="1" NCoef="0" IVar="7" Cut="8.0253601074218750e-01" cType="1" res="-2.9159678146243095e-02" rms="2.1831460297107697e-01" purity="3.3112838864326477e-01" nType="0">
          <Node pos="l" depth="2" NCoef="0" IVar="-1" Cut="0.0000000000000000e+00" cType="1" res="-2.5560272857546806e-02" rms="2.1088148653507233e-01" purity="1.9646616280078888e-01" nType="-99"/>
          <Node pos="r" depth="2" NCoef="0" IVar="-1" Cut="0.0000000000000000e+00" cType="1" res="9.8377577960491180e-03" rms="2.3826791346073151e-01" purity="8.4037643671035767e-01" nType="-99"/>
        </Node>
      </Node>
    </BinaryTree>
    <BinaryTree type="DecisionTree" boostWeight="1.0000000000000000e+00" itree="39">
      <Node pos="s" depth="0" NCoef="0" IVar="4" Cut="1.4107362926006317e-01" cType="1" res="2.1991443354636431e-03" rms="2.0779870450496674e-01" purity="5.0229257345199585e-01" nType="0">
        <Node pos="l" depth="1" NCoef="0" IVar="4" Cut="-8.3710801601409912e-01" cType="1" res="-5.2490618079900742e-02" rms="1.8513055145740509e-01" purity="1.4782111346721649e-01" nType="0">
          <Node pos="l" depth="2" NCoef="0" IVar="-1" Cut="0.0000000000000000e+00" cType="1" res="-5.7473488152027130e-02" rms="1.4320895075798035e-01" purity="2.5012571364641190e-02" nType="-99"/>
          <Node pos="r" depth="2" NCoef="0" IVar="-1" Cut="0.0000000000000000e+00" cType="1" res="-2.0329594612121582e-02" rms="2.1187536418437958e-01" purity="2.4928221106529236e-01" nType="-99"/>
        </Node>
        <Node pos="r" depth="1" NCoef="0" IVar="5" Cut="-3.3500263094902039e-01" cType="1" res="1.9977020099759102e-02" rms="2.1163022518157959e-01" purity="6.1751979589462280e-01" nType="0">
          <Node pos="l" depth="2" NCoef="0" IVar="-1" Cut="0.0000000000000000e+00" cType="1" res="-2.6271859183907509e-02" rms="1.7766551673412323e-01" purity="1.0574085265398026e-01" nType="-99"/>
          <Node pos="r" depth="2" NCoef="0" IVar="-1" Cut="0.0000000000000000e+00" cType="1" res="2.1118711680173874e-02" rms="2.1772484481334686e-01" purity="7.7027058601379395e-01" nType="-99"/>
        </Node>
      </Node>
    </BinaryTree>
    <BinaryTree type="DecisionTree" boostWeight="1.0000000000000000e+00" itree="40">
      <Node pos="s" depth="0" NCoef="0" IVar="6" Cut="-5.2561473846435547e-01" cType="1" res="6.2932004220783710e-04" rms="2.0490825176239014e-01" purity="4.9822995066642761e-01" nType="0">
        <Node pos="l" depth="1" NCoef="0" IVar="6" Cut="-8.6474007368087769e-01" cType="1" res="-3.4698467701673508e-02" rms="1.4992025494575500e-01" purity="5.7219263166189194e-02" nType="0">
          <Node pos="l" depth="2" NCoef="0" IVar="-1" Cut="0.0000000000000000e+00" cType="1" res="-4.0135581046342850e-02" rms="1.3408401608467102e-01" purity="3.1565442681312561e-02" nType="-99"/>
          <Node pos="r" depth="2" NCoef="0" IVar="-1" Cut="0.0000000000000000e+00" cType="1" res="-9.0050622820854187e-03" rms="1.8863584101200104e-01" purity="1.3573709130287170e-01" nType="-99"/>
        </Node>
        <Node pos="r" depth="1" NCoef="0" IVar="0" Cut="-1.1862654685974121e+01" cType="1" res="2.0717184990644455e-02" rms="2.2796624898910522e-01" purity="7.4899464845657349e-01" nType="0">
          <Node pos="l" depth="2" NCoef="0" IVar="-1" Cut="0.0000000000000000e+00" cType="1" res="-4.9399986863136292e-02" rms="3.1963518261909485e-01" purity="1.0442250967025757e-01" nType="-99"/>
          <Node pos="r" depth="2" NCoef="0" IVar="-1" Cut="0.0000000000000000e+00" cType="1" res="1.6750879585742950e-02" rms="2.1726243197917938e-01" purity="7.8833347558975220e-01" nType="-99"/>
        </Node>
      </Node>
    </BinaryTree>
    <BinaryTree type="DecisionTree" boostWeight="1.0000000000000000e+00" itree="41">
      <Node pos="s" depth="0" NCoef="0" IVar="2" Cut="2.9674623489379883e+01" cType="1" res="2.5696414522826672e-03" rms="2.0585307478904724e-01" purity="5.0180232524871826e-01" nType="0">
        <Node pos="l" depth="1" NCoef="0" IVar="3" Cut="2.4658281326293945e+01" cType="1" res="3.9978746324777603e-02" rms="1.6281361877918243e-01" purity="7.8117126226425171e-01" nType="0">
          <Node pos="l" depth="2" NCoef="0" IVar="-1" Cut="0.0000000000000000e+00" cType="1" res="3.4581206738948822e-02" rms="1.5680706501007080e-01" purity="8.3954143524169922e-01" nType="-99"/>
          <Node pos="r" depth="2" NCoef="0" IVar="-1" Cut="0.0000000000000000e+00" cType="1" res="-5.0599209964275360e-02" rms="1.7679125070571899e-01" purity="1.4816230535507202e-01" nType="-99"/>
        </Node>
        <Node pos="r" depth="1" NCoef="0" IVar="6" Cut="7.0904052257537842e-01" cType="1" res="-1.6482550650835037e-02" rms="2.2221799194812775e-01" purity="3.5952168703079224e-01" nType="0">
          <Node pos="l" depth="2" NCoef="0" IVar="-1" Cut="0.0000000000000000e+00" cType="1" res="-2.4656325578689575e-02" rms="1.9221347570419312e-01" purity="1.5649423003196716e-01" nType="-99"/>
          <Node pos="r" depth="2" NCoef="0" IVar="-1" Cut="0.0000000000000000e+00" cType="1" res="8.1371534615755081e-03" rms="2.6820099353790283e-01" purity="7.5680112838745117e-01" nType="-99"/>
        </Node>
      </Node>
    </BinaryTree>
    <BinaryTree type="DecisionTree" boostWeight="1.0000000000000000e+00" itree="42">
      <Node pos="s" depth="0" NCoef="0" IVar="5" Cut="5.2028560638427734e-01" cType="1" res="-2.7453247457742691e-04" rms="2.0000739395618439e-01" purity="4.9965465068817139e-01" nType="0">
        <Node pos="l" depth="1" NCoef="0" IVar="6" Cut="7.1008408069610596e-01" cType="1" res="-2.8061898425221443e-02" rms="1.7129023373126984e-01" purity="2.0672455430030823e-01" nType="0">
          <Node pos="l" depth="2" NCoef="0" IVar="-1" Cut="0.0000000000000000e+00" cType="1" res="-3.5899057984352112e-02" rms="1.4196012914180756e-01" purity="8.8808320462703705e-02" nType="-99"/>
          <Node pos="r" depth="2" NCoef="0" IVar="-1" Cut="0.0000000000000000e+00" cType="1" res="7.7248928137123585e-03" rms="2.4909807741641998e-01" purity="6.5989840030670166e-01" nType="-99"/>
        </Node>
        <Node pos="r" depth="1" NCoef="0" IVar="4" Cut="-7.1475708484649658e-01" cType="1" res="2.2394023835659027e-02" rms="2.1807709336280823e-01" purity="7.3862308263778687e-01" nType="0">
          <Node pos="l" depth="2" NCoef="0" IVar="-1" Cut="0.0000000000000000e+00" cType="1" res="-4.6099662780761719e-02" rms="2.1314455568790436e-01" purity="1.2362312525510788e-01" nType="-99"/>
          <Node pos="r" depth="2" NCoef="0" IVar="-1" Cut="0.0000000000000000e+00" cType="1" res="1.8246283754706383e-02" rms="2.1604424715042114e-01" purity="7.8219771385192871e-01" nType="-99"/>
        </Node>
      </Node>
    </BinaryTree>
    <BinaryTree type="DecisionTree" boostWeight="1.0000000000000000e+00" itree="43">
      <Node pos="s" depth="0" NCoef="0" IVar="7" Cut="-7.1538907289505005e-01" cType="1" res="-2.7277565095573664e-03" rms="1.9783583283424377e-01" purity="4.9714174866676331e-01" nType="0">
        <Node pos="l" depth="1" NCoef="0" IVar="6" Cut="4.2188200354576111e-01" cType="1" res="-3.6799751222133636e-02" rms="1.7189075052738190e-01" purity="5.6950174272060394e-02" nType="0">
          <Node pos="l" depth="2" NCoef="0" IVar="-1" Cut="0.0000000000000000e+00" cType="1" res="-3.9462521672248840e-02" rms="9.6884503960609436e-02" purity="1.2733950279653072e-02" nType="-99"/>
          <Node pos="r" depth="2" NCoef="0" IVar="-1" Cut="0.0000000000000000e+00" cType="1" res="-2.0059106871485710e-02" rms="3.4715336561203003e-01" purity="2.5910991430282593e-01" nType="-99"/>
        </Node>
        <Node pos="r" depth="1" NCoef="0" IVar="0" Cut="9.1620922088623047e+00" cType="1" res="1.8042389303445816e-02" rms="2.0939803123474121e-01" purity="7.6548075675964355e-01" nType="0">
          <Node pos="l" depth="2" NCoef="0" IVar="-1" Cut="0.0000000000000000e+00" cType="1" res="1.7792524769902229e-02" rms="2.0262466371059418e-01" purity="8.2886099815368652e-01" nType="-99"/>
          <Node pos="r" depth="2" NCoef="0" IVar="-1" Cut="0.0000000000000000e+00" cType="1" res="-4.9036167562007904e-02" rms="2.3980551958084106e-01" purity="5.9463016688823700e-02" nType="-99"/>
        </Node>
      </Node>
    </BinaryTree>
    <BinaryTree type="DecisionTree" boostWeight="1.0000000000000000e+00" itree="44">
      <Node pos="s" depth="0" NCoef="0" IVar="4" Cut="4.2620691657066345e-01" cType="1" res="-2.9125483706593513e-04" rms="2.0123010873794556e-01" purity="4.9830994009971619e-01" nType="0">
        <Node pos="l" depth="1" NCoef="0" IVar="2" Cut="2.9469139099121094e+01" cType="1" res="-3.8989227265119553e-02" rms="1.8494088947772980e-01" purity="2.0829120278358459e-01" nType="0">
          <Node pos="l" depth="2" NCoef="0" IVar="-1" Cut="0.0000000000000000e+00" cType="1" res="-3.8214200176298618e-03" rms="1.9405569136142731e-01" purity="4.7040405869483948e-01" nType="-99"/>
          <Node pos="r" depth="2" NCoef="0" IVar="-1" Cut="0.0000000000000000e+00" cType="1" res="-3.7450678646564484e-02" rms="1.8053632974624634e-01" purity="1.2223452329635620e-01" nType="-99"/>
        </Node>
        <Node pos="r" depth="1" NCoef="0" IVar="7" Cut="-8.1025934219360352e-01" cType="1" res="1.6586758196353912e-02" rms="2.0566743612289429e-01" purity="6.2480074167251587e-01" nType="0">
          <Node pos="l" depth="2" NCoef="0" IVar="-1" Cut="0.0000000000000000e+00" cType="1" res="-1.7286291345953941e-02" rms="2.1588243544101715e-01" purity="9.2145331203937531e-02" nType="-99"/>
          <Node pos="r" depth="2" NCoef="0" IVar="-1" Cut="0.0000000000000000e+00" cType="1" res="2.0551092922687531e-02" rms="1.9958968460559845e-01" purity="8.2011544704437256e-01" nType="-99"/>
        </Node>
      </Node>
    </BinaryTree>
    <BinaryTree type="DecisionTree" boostWeight="1.0000000000000000e+00" itree="45">
      <Node pos="s" depth="0" NCoef="0" IVar="2" Cut="3.0265775680541992e+01" cType="1" res="1.3043684884905815e-03" rms="1.9831089675426483e-01" purity="5.0184035301208496e-01" nType="0">
        <Node pos="l" depth="1" NCoef="0" IVar="3" Cut="2.4774824142456055e+01" cType="1" res="3.3683180809020996e-02" rms="1.5776872634887695e-01" purity="7.8000730276107788e-01" nType="0">
          <Node pos="l" depth="2" NCoef="0" IVar="-1" Cut="0.0000000000000000e+00" cType="1" res="3.1964253634214401e-02" rms="1.5330854058265686e-01" purity="8.3980304002761841e-01" nType="-99"/>
          <Node pos="r" depth="2" NCoef="0" IVar="-1" Cut="0.0000000000000000e+00" cType="1" res="-5.1466487348079681e-02" rms="1.6708639264106750e-01" purity="1.1567584425210953e-01" nType="-99"/>
        </Node>
        <Node pos="r" depth="1" NCoef="0" IVar="7" Cut="8.0253601074218750e-01" cType="1" res="-1.5831427648663521e-02" rms="2.1475291252136230e-01" purity="3.5462644696235657e-01" nType="0">
          <Node pos="l" depth="2" NCoef="0" IVar="-1" Cut="0.0000000000000000e+00" cType="1" res="-1.7952013760805130e-02" rms="2.0854619145393372e-01" purity="2.1818746626377106e-01" nType="-99"/>
          <Node pos="r" depth="2" NCoef="0" IVar="-1" Cut="0.0000000000000000e+00" cType="1" res="1.2893456965684891e-02" rms="2.3190484941005707e-01" purity="8.5137498378753662e-01" nType="-99"/>
        </Node>
      </Node>
    </BinaryTree>
    <BinaryTree type="DecisionTree" boostWeight="1.0000000000000000e+00" itree="46">
      <Node pos="s" depth="0" NCoef="0" IVar="6" Cut="-4.2997196316719055e-01" cType="1" res="4.2904881411232054e-04" rms="1.9901639223098755e-01" purity="4.9868276715278625e-01" nType="0">
        <Node pos="l" depth="1" NCoef="0" IVar="6" Cut="-8.9142715930938721e-01" cType="1" res="-2.8149906545877457e-02" rms="1.4586912095546722e-01" purity="5.6383363902568817e-02" nType="0">
          <Node pos="l" depth="2" NCoef="0" IVar="-1" Cut="0.0000000000000000e+00" cType="1" res="-4.2757507413625717e-02" rms="1.2530198693275452e-01" purity="2.1268822252750397e-02" nType="-99"/>
          <Node pos="r" depth="2" NCoef="0" IVar="-1" Cut="0.0000000000000000e+00" cType="1" res="-8.1217559054493904e-03" rms="1.8174269795417786e-01" purity="1.3340578973293304e-01" nType="-99"/>
        </Node>
        <Node pos="r" depth="1" NCoef="0" IVar="0" Cut="-5.2543420791625977e+00" cType="1" res="1.7418472096323967e-02" rms="2.2300195693969727e-01" purity="7.6161795854568481e-01" nType="0">
          <Node pos="l" depth="2" NCoef="0" IVar="-1" Cut="0.0000000000000000e+00" cType="1" res="-3.1540151685476303e-02" rms="3.5562267899513245e-01" purity="2.3338903486728668e-01" nType="-99"/>
          <Node pos="r" depth="2" NCoef="0" IVar="-1" Cut="0.0000000000000000e+00" cType="1" res="1.8024854362010956e-02" rms="1.9993376731872559e-01" purity="8.1934988498687744e-01" nType="-99"/>
        </Node>
      </Node>
    </BinaryTree>
    <BinaryTree type="DecisionTree" boostWeight="1.0000000000000000e+00" itree="47">
      <Node pos="s" depth="0" NCoef="0" IVar="5" Cut="5.2028560638427734e-01" cType="1" res="-1.6410982934758067e-03" rms="1.9812443852424622e-01" purity="4.9697315692901611e-01" nType="0">
        <Node pos="l" depth="1" NCoef="0" IVar="6" Cut="8.0266398191452026e-01" cType="1" res="-2.4335708469152451e-02" rms="1.7421567440032959e-01" purity="2.0414397120475769e-01" nType="0">
          <Node pos="l" depth="2" NCoef="0" IVar="-1" Cut="0.0000000000000000e+00" cType="1" res="-3.0915338546037674e-02" rms="1.5036027133464813e-01" purity="1.0982118546962738e-01" nType="-99"/>
          <Node pos="r" depth="2" NCoef="0" IVar="-1" Cut="0.0000000000000000e+00" cType="1" res="6.3777389004826546e-03" rms="2.5613555312156677e-01" purity="6.5521615743637085e-01" nType="-99"/>
        </Node>
        <Node pos="r" depth="1" NCoef="0" IVar="0" Cut="-1.3962001800537109e+01" cType="1" res="1.6798874363303185e-02" rms="2.1384115517139435e-01" purity="7.3490452766418457e-01" nType="0">
          <Node pos="l" depth="2" NCoef="0" IVar="-1" Cut="0.0000000000000000e+00" cType="1" res="-4.7095689922571182e-02" rms="2.9646924138069153e-01" purity="7.4967108666896820e-02" nType="-99"/>
          <Node pos="r" depth="2" NCoef="0" IVar="-1" Cut="0.0000000000000000e+00" cType="1" res="1.5879467129707336e-02" rms="2.0542046427726746e-01" purity="7.7653884887695312e-01" nType="-99"/>
        </Node>
      </Node>
    </BinaryTree>
    <BinaryTree type="DecisionTree" boostWeight="1.0000000000000000e+00" itree="48">
      <Node pos="s" depth="0" NCoef="0" IVar="5" Cut="-4.2989289760589600e-01" cType="1" res="4.7060810029506683e-03" rms="2.0078520476818085e-01" purity="5.0480133295059204e-01" nType="0">
        <Node pos="l" depth="1" NCoef="0" IVar="5" Cut="-9.1867375373840332e-01" cType="1" res="-2.8683969751000404e-02" rms="1.4187605679035187e-01" purity="6.3559710979461670e-02" nType="0">
          <Node pos="l" depth="2" NCoef="0" IVar="-1" Cut="0.0000000000000000e+00" cType="1" res="-4.1630458086729050e-02" rms="1.1800040304660797e-01" purity="2.1237319335341454e-02" nType="-99"/>
          <Node pos="r" depth="2" NCoef="0" IVar="-1" Cut="0.0000000000000000e+00" cType="1" res="-1.4477508142590523e-02" rms="1.7174084484577179e-01" purity="1.2880149483680725e-01" nType="-99"/>
        </Node>
        <Node pos="r" depth="1" NCoef="0" IVar="0" Cut="1.1916009902954102e+01" cType="1" res="1.8171172589063644e-02" rms="2.1868719160556793e-01" purity="6.8273925781250000e-01" nType="0">
          <Node pos="l" depth="2" NCoef="0" IVar="-1" Cut="0.0000000000000000e+00" cType="1" res="1.6336174681782722e-02" rms="2.1704237163066864e-01" purity="7.4564510583877563e-01" nType="-99"/>
          <Node pos="r" depth="2" NCoef="0" IVar="-1" Cut="0.0000000000000000e+00" cType="1" res="-3.7837773561477661e-02" rms="2.2006115317344666e-01" purity="5.0633952021598816e-02" nType="-99"/>
        </Node>
      </Node>
    </BinaryTree>
    <BinaryTree type="DecisionTree" boostWeight="1.0000000000000000e+00" itree="49">
      <Node pos="s" depth="0" NCoef="0" IVar="0" Cut="3.8627116680145264e+00" cType="1" res="8.5839920211583376e-04" rms="1.9771969318389893e-01" purity="4.9856072664260864e-01" nType="0">
        <Node pos="l" depth="1" NCoef="0" IVar="0" Cut="-4.4923381805419922e+00" cType="1" res="1.2754324823617935e-02" rms="1.9693857431411743e-01" purity="6.2807857990264893e-01" nType="0">
          <Node pos="l" depth="2" NCoef="0" IVar="-1" Cut="0.0000000000000000e+00" cType="1" res="-2.4678159505128860e-02" rms="2.4286878108978271e-01" purity="1.2438295781612396e-01" nType="-99"/>
          <Node pos="r" depth="2" NCoef="0" IVar="-1" Cut="0.0000000000000000e+00" cType="1" res="2.1160868927836418e-02" rms="1.7557637393474579e-01" purity="7.9930156469345093e-01" nType="-99"/>
        </Node>
        <Node pos="r" depth="1" NCoef="0" IVar="7" Cut="-3.3685204386711121e-01" cType="1" res="-3.4569978713989258e-02" rms="1.9579213857650757e-01" purity="1.1283142864704132e-01" nType="0">
          <Node pos="l" depth="2" NCoef="0" IVar="-1" Cut="0.0000000000000000e+00" cType="1" res="-2.3431381210684776e-02" rms="1.4578874409198761e-01" purity="3.7613134831190109e-02" nType="-99"/>
          <Node pos="r" depth="2" NCoef="0" IVar="-1" Cut="0.0000000000000000e+00" cType="1" res="-2.9644565656781197e-02" rms="2.9205447435379028e-01" purity="3.2959303259849548e-01" nType="-99"/>
        </Node>
      </Node>
    </BinaryTree>
    <BinaryTree type="DecisionTree" boostWeight="1.0000000000000000e+00" itree="50">
      <Node pos="s" depth="0" NCoef="0" IVar="4" Cut="1.4107362926006317e-01" cType="1" res="1.0984563268721104e-03" rms="1.9585178792476654e-01" purity="5.0129306316375732e-01" nType="0">
        <Node pos="l" depth="1" NCoef="0" IVar="4" Cut="-8.9135670661926270e-01" cType="1" res="-3.3722974359989166e-02" rms="1.7716827988624573e-01" purity="1.5025708079338074e-01" nType="0">
          <Node pos="l" depth="2" NCoef="0" IVar="-1" Cut="0.0000000000000000e+00" cType="1" res="-4.7691565006971359e-02" rms="1.4511583745479584e-01" purity="2.8916686773300171e-02" nType="-99"/>
          <Node pos="r" depth="2" NCoef="0" IVar="-1" Cut="0.0000000000000000e+00" cType="1" res="-1.7947636544704437e-02" rms="1.9513641297817230e-01" purity="2.3158273100852966e-01" nType="-99"/>
        </Node>
        <Node pos="r" depth="1" NCoef="0" IVar="0" Cut="7.6959266662597656e+00" cType="1" res="1.2448272667825222e-02" rms="2.0026355981826782e-01" purity="6.1571085453033447e-01" nType="0">
          <Node pos="l" depth="2" NCoef="0" IVar="-1" Cut="0.0000000000000000e+00" cType="1" res="1.5193942934274673e-02" rms="1.9837382435798645e-01" purity="7.1776217222213745e-01" nType="-99"/>
          <Node pos="r" depth="2" NCoef="0" IVar="-1" Cut="0.0000000000000000e+00" cType="1" res="-2.9120406135916710e-02" rms="2.0301924645900726e-01" purity="6.3628718256950378e-02" nType="-99"/>
        </Node>
      </Node>
    </BinaryTree>
    <BinaryTree type="DecisionTree" boostWeight="1.0000000000000000e+00" itree="51">
      <Node pos="s" depth="0" NCoef="0" IVar="2" Cut="3.0265775680541992e+01" cType="1" res="-3.8343053893186152e-04" rms="1.9463232159614563e-01" purity="4.9770915508270264e-01" nType="0">
        <Node pos="l" depth="1" NCoef="0" IVar="6" Cut="-9.0518516302108765e-01" cType="1" res="2.4919245392084122e-02" rms="1.5105849504470825e-01" purity="7.7540004253387451e-01" nType="0">
          <Node pos="l" depth="2" NCoef="0" IVar="-1" Cut="0.0000000000000000e+00" cType="1" res="-4.7321360558271408e-02" rms="1.6250078380107880e-01" purity="3.3933088183403015e-02" nType="-99"/>
          <Node pos="r" depth="2" NCoef="0" IVar="-1" Cut="0.0000000000000000e+00" cType="1" res="2.8341686353087425e-02" rms="1.4686006307601929e-01" purity="8.6558616161346436e-01" nType="-99"/>
        </Node>
        <Node pos="r" depth="1" NCoef="0" IVar="7" Cut="8.0253601074218750e-01" cType="1" res="-1.3880633749067783e-02" rms="2.1305666863918304e-01" purity="3.4958049654960632e-01" nType="0">
          <Node pos="l" depth="2" NCoef="0" IVar="-1" Cut="0.0000000000000000e+00" cType="1" res="-1.6081133857369423e-02" rms="2.1082778275012970e-01" purity="2.1300932765007019e-01" nType="-99"/>
          <Node pos="r" depth="2" NCoef="0" IVar="-1" Cut="0.0000000000000000e+00" cType="1" res="1.0230923071503639e-02" rms="2.1851168572902679e-01" purity="8.5285645723342896e-01" nType="-99"/>
        </Node>
      </Node>
    </BinaryTree>
    <BinaryTree type="DecisionTree" boostWeight="1.0000000000000000e+00" itree="52">
      <Node pos="s" depth="0" NCoef="0" IVar="4" Cut="-4.9190253019332886e-02" cType="1" res="-3.1570089049637318e-04" rms="1.9510251283645630e-01" purity="4.9576640129089355e-01" nType="0">
        <Node pos="l" depth="1" NCoef="0" IVar="7" Cut="-4.3196725845336914e-01" cType="1" res="-3.4540534019470215e-02" rms="1.6641765832901001e-01" purity="1.1413167417049408e-01" nType="0">
          <Node pos="l" depth="2" NCoef="0" IVar="-1" Cut="0.0000000000000000e+00" cType="1" res="-3.7500210106372833e-02" rms="1.1135914176702499e-01" purity="1.8738783895969391e-02" nType="-99"/>
          <Node pos="r" depth="2" NCoef="0" IVar="-1" Cut="0.0000000000000000e+00" cType="1" res="-2.6147581636905670e-02" rms="2.5848013162612915e-01" purity="3.6302345991134644e-01" nType="-99"/>
        </Node>
        <Node pos="r" depth="1" NCoef="0" IVar="0" Cut="-7.4795336723327637e+00" cType="1" res="9.3513112515211105e-03" rms="2.0141945779323578e-01" purity="6.0356140136718750e-01" nType="0">
          <Node pos="l" depth="2" NCoef="0" IVar="-1" Cut="0.0000000000000000e+00" cType="1" res="-3.1706195324659348e-02" rms="2.5951650738716125e-01" purity="8.3772756159305573e-02" nType="-99"/>
          <Node pos="r" depth="2" NCoef="0" IVar="-1" Cut="0.0000000000000000e+00" cType="1" res="1.2720424681901932e-02" rms="1.9098477065563202e-01" purity="6.7251813411712646e-01" nType="-99"/>
        </Node>
      </Node>
    </BinaryTree>
    <BinaryTree type="DecisionTree" boostWeight="1.0000000000000000e+00" itree="53">
      <Node pos="s" depth="0" NCoef="0" IVar="4" Cut="4.2634204030036926e-01" cType="1" res="-4.0237308712676167e-04" rms="1.9603209197521210e-01" purity="4.9736258387565613e-01" nType="0">
        <Node pos="l" depth="1" NCoef="0" IVar="4" Cut="-8.6423063278198242e-01" cType="1" res="-2.6742188259959221e-02" rms="1.8091113865375519e-01" purity="2.0724771916866302e-01" nType="0">
          <Node pos="l" depth="2" NCoef="0" IVar="-1" Cut="0.0000000000000000e+00" cType="1" res="-4.8387568444013596e-02" rms="1.2440066039562225e-01" purity="2.7281736955046654e-02" nType="-99"/>
          <Node pos="r" depth="2" NCoef="0" IVar="-1" Cut="0.0000000000000000e+00" cType="1" res="-1.2599147856235504e-02" rms="2.0497393608093262e-01" purity="3.0671304464340210e-01" nType="-99"/>
        </Node>
        <Node pos="r" depth="1" NCoef="0" IVar="0" Cut="1.5283656120300293e+01" cType="1" res="1.0919224470853806e-02" rms="2.0112708210945129e-01" purity="6.2206220626831055e-01" nType="0">
          <Node pos="l" depth="2" NCoef="0" IVar="-1" Cut="0.0000000000000000e+00" cType="1" res="1.2508047744631767e-02" rms="2.0393857359886169e-01" purity="6.8699520826339722e-01" nType="-99"/>
          <Node pos="r" depth="2" NCoef="0" IVar="-1" Cut="0.0000000000000000e+00" cType="1" res="-4.5087605714797974e-02" rms="1.6157157719135284e-01" purity="2.0575068891048431e-02" nType="-99"/>
        </Node>
      </Node>
    </BinaryTree>
    <BinaryTree type="DecisionTree" boostWeight="1.0000000000000000e+00" itree="54">
      <Node pos="s" depth="0" NCoef="0" IVar="5" Cut="-2.3985719680786133e-01" cType="1" res="1.5394139336422086e-03" rms="1.9400140643119812e-01" purity="5.0487291812896729e-01" nType="0">
        <Node pos="l" depth="1" NCoef="0" IVar="6" Cut="-4.3111109733581543e-01" cType="1" res="-2.7419958263635635e-02" rms="1.3284745812416077e-01" purity="7.3871910572052002e-02" nType="0">
          <Node pos="l" depth="2" NCoef="0" IVar="-1" Cut="0.0000000000000000e+00" cType="1" res="-4.8002388328313828e-02" rms="5.7464696466922760e-02" purity="4.2674252763390541e-03" nType="-99"/>
          <Node pos="r" depth="2" NCoef="0" IVar="-1" Cut="0.0000000000000000e+00" cType="1" res="-1.9762724637985229e-02" rms="2.2714316844940186e-01" purity="2.3975716531276703e-01" nType="-99"/>
        </Node>
        <Node pos="r" depth="1" NCoef="0" IVar="0" Cut="-1.7540872573852539e+01" cType="1" res="1.4694144949316978e-02" rms="2.1485367417335510e-01" purity="7.0065420866012573e-01" nType="0">
          <Node pos="l" depth="2" NCoef="0" IVar="-1" Cut="0.0000000000000000e+00" cType="1" res="-3.3801324665546417e-02" rms="2.8184163570404053e-01" purity="8.1771753728389740e-02" nType="-99"/>
          <Node pos="r" depth="2" NCoef="0" IVar="-1" Cut="0.0000000000000000e+00" cType="1" res="1.3314776122570038e-02" rms="2.0963150262832642e-01" purity="7.3523044586181641e-01" nType="-99"/>
        </Node>
      </Node>
    </BinaryTree>
    <BinaryTree type="DecisionTree" boostWeight="1.0000000000000000e+00" itree="55">
      <Node pos="s" depth="0" NCoef="0" IVar="7" Cut="4.2305475473403931e-01" cType="1" res="-1.6916723689064384e-03" rms="1.9285747408866882e-01" purity="4.9603599309921265e-01" nType="0">
        <Node pos="l" depth="1" NCoef="0" IVar="2" Cut="2.5690488815307617e+01" cType="1" res="-1.5933116897940636e-02" rms="1.9766633212566376e-01" purity="2.1362024545669556e-01" nType="0">
          <Node pos="l" depth="2" NCoef="0" IVar="-1" Cut="0.0000000000000000e+00" cType="1" res="1.1118341237306595e-02" rms="1.9312971830368042e-01" purity="5.4743254184722900e-01" nType="-99"/>
          <Node pos="r" depth="2" NCoef="0" IVar="-1" Cut="0.0000000000000000e+00" cType="1" res="-1.7954479902982712e-02" rms="1.9790039956569672e-01" purity="1.5146909654140472e-01" nType="-99"/>
        </Node>
        <Node pos="r" depth="1" NCoef="0" IVar="0" Cut="5.4516711235046387e+00" cType="1" res="1.7818067222833633e-02" rms="1.8429009616374969e-01" purity="8.8292485475540161e-01" nType="0">
          <Node pos="l" depth="2" NCoef="0" IVar="-1" Cut="0.0000000000000000e+00" cType="1" res="2.1157965064048767e-02" rms="1.6616833209991455e-01" purity="9.2680376768112183e-01" nType="-99"/>
          <Node pos="r" depth="2" NCoef="0" IVar="-1" Cut="0.0000000000000000e+00" cType="1" res="-2.2695800289511681e-02" rms="3.3509722352027893e-01" purity="2.9461175203323364e-01" nType="-99"/>
        </Node>
      </Node>
    </BinaryTree>
    <BinaryTree type="DecisionTree" boostWeight="1.0000000000000000e+00" itree="56">
      <Node pos="s" depth="0" NCoef="0" IVar="3" Cut="2.3637895584106445e+01" cType="1" res="4.3627250124700367e-04" rms="1.9510926306247711e-01" purity="4.9923506379127502e-01" nType="0">
        <Node pos="l" depth="1" NCoef="0" IVar="2" Cut="2.8192218780517578e+01" cType="1" res="1.5178743749856949e-02" rms="1.8488554656505585e-01" purity="6.4537930488586426e-01" nType="0">
          <Node pos="l" depth="2" NCoef="0" IVar="-1" Cut="0.0000000000000000e+00" cType="1" res="3.1266082078218460e-02" rms="1.5239295363426208e-01" purity="8.5244119167327881e-01" nType="-99"/>
          <Node pos="r" depth="2" NCoef="0" IVar="-1" Cut="0.0000000000000000e+00" cType="1" res="-4.7224126756191254e-03" rms="2.1355392038822174e-01" purity="4.1300147771835327e-01" nType="-99"/>
        </Node>
        <Node pos="r" depth="1" NCoef="0" IVar="6" Cut="7.1008408069610596e-01" cType="1" res="-1.6953743994235992e-02" rms="2.0516207814216614e-01" purity="3.2684531807899475e-01" nType="0">
          <Node pos="l" depth="2" NCoef="0" IVar="-1" Cut="0.0000000000000000e+00" cType="1" res="-2.6907177641987801e-02" rms="1.7483645677566528e-01" purity="1.3453021645545959e-01" nType="-99"/>
          <Node pos="r" depth="2" NCoef="0" IVar="-1" Cut="0.0000000000000000e+00" cType="1" res="3.7943606730550528e-03" rms="2.5606709718704224e-01" purity="7.3258113861083984e-01" nType="-99"/>
        </Node>
      </Node>
    </BinaryTree>
    <BinaryTree type="DecisionTree" boostWeight="1.0000000000000000e+00" itree="57">
      <Node pos="s" depth="0" NCoef="0" IVar="5" Cut="5.1999402046203613e-01" cType="1" res="9.4469881150871515e-04" rms="1.9358548521995544e-01" purity="4.9913054704666138e-01" nType="0">
        <Node pos="l" depth="1" NCoef="0" IVar="7" Cut="6.1165928840637207e-01" cType="1" res="-1.6117390245199203e-02" rms="1.6447441279888153e-01" purity="2.0756849646568298e-01" nType="0">
          <Node pos="l" depth="2" NCoef="0" IVar="-1" Cut="0.0000000000000000e+00" cType="1" res="-2.7500139549374580e-02" rms="1.4229497313499451e-01" purity="8.5695728659629822e-02" nType="-99"/>
          <Node pos="r" depth="2" NCoef="0" IVar="-1" Cut="0.0000000000000000e+00" cType="1" res="7.5492653995752335e-03" rms="2.3217806220054626e-01" purity="7.0949673652648926e-01" nType="-99"/>
        </Node>
        <Node pos="r" depth="1" NCoef="0" IVar="0" Cut="1.8650218963623047e+01" cType="1" res="1.4825009740889072e-02" rms="2.1336719393730164e-01" purity="7.3632144927978516e-01" nType="0">
          <Node pos="l" depth="2" NCoef="0" IVar="-1" Cut="0.0000000000000000e+00" cType="1" res="1.3902933336794376e-02" rms="2.1421597898006439e-01" purity="7.7273362874984741e-01" nType="-99"/>
          <Node pos="r" depth="2" NCoef="0" IVar="-1" Cut="0.0000000000000000e+00" cType="1" res="-5.0500851124525070e-02" rms="1.7555420100688934e-01" purity="2.0779235288500786e-02" nType="-99"/>
        </Node>
      </Node>
    </BinaryTree>
    <BinaryTree type="DecisionTree" boostWeight="1.0000000000000000e+00" itree="58">
      <Node pos="s" depth="0" NCoef="0" IVar="4" Cut="4.2621460556983948e-01" cType="1" res="-1.3240114785730839e-03" rms="1.9208963215351105e-01" purity="4.9603471159934998e-01" nType="0">
        <Node pos="l" depth="1" NCoef="0" IVar="2" Cut="2.8033199310302734e+01" cType="1" res="-2.4839418008923531e-02" rms="1.7387869954109192e-01" purity="2.0606121420860291e-01" nType="0">
          <Node pos="l" depth="2" NCoef="0" IVar="-1" Cut="0.0000000000000000e+00" cType="1" res="-6.3123870640993118e-03" rms="1.8160508573055267e-01" purity="4.7889757156372070e-01" nType="-99"/>
          <Node pos="r" depth="2" NCoef="0" IVar="-1" Cut="0.0000000000000000e+00" cType="1" res="-2.8191287070512772e-02" rms="1.7128781974315643e-01" purity="1.2738850712776184e-01" nType="-99"/>
        </Node>
        <Node pos="r" depth="1" NCoef="0" IVar="0" Cut="7.6959266662597656e+00" cType="1" res="8.8009666651487350e-03" rms="1.9856332242488861e-01" purity="6.2088793516159058e-01" nType="0">
          <Node pos="l" depth="2" NCoef="0" IVar="-1" Cut="0.0000000000000000e+00" cType="1" res="1.2864246964454651e-02" rms="1.9821073114871979e-01" purity="7.2366684675216675e-01" nType="-99"/>
          <Node pos="r" depth="2" NCoef="0" IVar="-1" Cut="0.0000000000000000e+00" cType="1" res="-2.9155978932976723e-02" rms="1.9501458108425140e-01" purity="5.2486725151538849e-02" nType="-99"/>
        </Node>
      </Node>
    </BinaryTree>
    <BinaryTree type="DecisionTree" boostWeight="1.0000000000000000e+00" itree="59">
      <Node pos="s" depth="0" NCoef="0" IVar="6" Cut="-6.1998128890991211e-01" cType="1" res="4.1805146611295640e-04" rms="1.9253748655319214e-01" purity="5.0050413608551025e-01" nType="0">
        <Node pos="l" depth="1" NCoef="0" IVar="6" Cut="-8.7372332811355591e-01" cType="1" res="-2.0190963521599770e-02" rms="1.3397929072380066e-01" purity="4.6171050518751144e-02" nType="0">
          <Node pos="l" depth="2" NCoef="0" IVar="-1" Cut="0.0000000000000000e+00" cType="1" res="-3.6503627896308899e-02" rms="1.2331597506999969e-01" purity="2.4553341791033745e-02" nType="-99"/>
          <Node pos="r" depth="2" NCoef="0" IVar="-1" Cut="0.0000000000000000e+00" cType="1" res="-4.3487730436027050e-03" rms="1.6433006525039673e-01" purity="1.2005203217267990e-01" nType="-99"/>
        </Node>
        <Node pos="r" depth="1" NCoef="0" IVar="0" Cut="7.7647962570190430e+00" cType="1" res="1.1117924004793167e-02" rms="2.1601527929306030e-01" purity="7.3638671636581421e-01" nType="0">
          <Node pos="l" depth="2" NCoef="0" IVar="-1" Cut="0.0000000000000000e+00" cType="1" res="1.3457221910357475e-02" rms="2.1149769425392151e-01" purity="8.0983638763427734e-01" nType="-99"/>
          <Node pos="r" depth="2" NCoef="0" IVar="-1" Cut="0.0000000000000000e+00" cType="1" res="-3.2548040151596069e-02" rms="2.4219968914985657e-01" purity="7.7008180320262909e-02" nType="-99"/>
        </Node>
      </Node>
    </BinaryTree>
    <BinaryTree type="DecisionTree" boostWeight="1.0000000000000000e+00" itree="60">
      <Node pos="s" depth="0" NCoef="0" IVar="0" Cut="-4.1083397865295410e+00" cType="1" res="-7.3777587385848165e-04" rms="1.9051405787467957e-01" purity="5.0468790531158447e-01" nType="0">
        <Node pos="l" depth="1" NCoef="0" IVar="6" Cut="-2.4174903333187103e-01" cType="1" res="-3.1426414847373962e-02" rms="2.3520940542221069e-01" purity="1.3981802761554718e-01" nType="0">
          <Node pos="l" depth="2" NCoef="0" IVar="-1" Cut="0.0000000000000000e+00" cType="1" res="-1.8079759553074837e-02" rms="1.4002276957035065e-01" purity="3.6170795559883118e-02" nType="-99"/>
          <Node pos="r" depth="2" NCoef="0" IVar="-1" Cut="0.0000000000000000e+00" cType="1" res="-2.6576619595289230e-02" rms="3.5019588470458984e-01" purity="3.4116452932357788e-01" nType="-99"/>
        </Node>
        <Node pos="r" depth="1" NCoef="0" IVar="0" Cut="4.2445831298828125e+00" cType="1" res="6.7567354999482632e-03" rms="1.7709496617317200e-01" purity="5.9379321336746216e-01" nType="0">
          <Node pos="l" depth="2" NCoef="0" IVar="-1" Cut="0.0000000000000000e+00" cType="1" res="1.6378039494156837e-02" rms="1.6880044341087341e-01" purity="8.0390369892120361e-01" nType="-99"/>
          <Node pos="r" depth="2" NCoef="0" IVar="-1" Cut="0.0000000000000000e+00" cType="1" res="-2.1559171378612518e-02" rms="1.9203488528728485e-01" purity="9.8580338060855865e-02" nType="-99"/>
        </Node>
      </Node>
    </BinaryTree>
    <BinaryTree type="DecisionTree" boostWeight="1.0000000000000000e+00" itree="61">
      <Node pos="s" depth="0" NCoef="0" IVar="0" Cut="-4.1083397865295410e+00" cType="1" res="-1.5089735388755798e-03" rms="1.8849639594554901e-01" purity="4.9642330408096313e-01" nType="0">
        <Node pos="l" depth="1" NCoef="0" IVar="7" Cut="-1.4738121628761292e-01" cType="1" res="-2.9850292950868607e-02" rms="2.3205046355724335e-01" purity="1.3965184986591339e-01" nType="0">
          <Node pos="l" depth="2" NCoef="0" IVar="-1" Cut="0.0000000000000000e+00" cType="1" res="-1.7165824770927429e-02" rms="1.7916998267173767e-01" purity="4.8433575779199600e-02" nType="-99"/>
          <Node pos="r" depth="2" NCoef="0" IVar="-1" Cut="0.0000000000000000e+00" cType="1" res="-2.9915578663349152e-02" rms="3.4307181835174561e-01" purity="4.1839718818664551e-01" nType="-99"/>
        </Node>
        <Node pos="r" depth="1" NCoef="0" IVar="7" Cut="-8.1025934219360352e-01" cType="1" res="5.5729420855641365e-03" rms="1.7522300779819489e-01" purity="5.8557319641113281e-01" nType="0">
          <Node pos="l" depth="2" NCoef="0" IVar="-1" Cut="0.0000000000000000e+00" cType="1" res="-2.3656360805034637e-02" rms="1.7299090325832367e-01" purity="5.9613816440105438e-02" nType="-99"/>
          <Node pos="r" depth="2" NCoef="0" IVar="-1" Cut="0.0000000000000000e+00" cType="1" res="1.4029856771230698e-02" rms="1.7485879361629486e-01" purity="7.9726684093475342e-01" nType="-99"/>
        </Node>
      </Node>
    </BinaryTree>
    <BinaryTree type="DecisionTree" boostWeight="1.0000000000000000e+00" itree="62">
      <Node pos="s" depth="0" NCoef="0" IVar="4" Cut="1.4096553623676300e-01" cType="1" res="5.6901271454989910e-04" rms="1.8964092433452606e-01" purity="5.0395107269287109e-01" nType="0">
        <Node pos="l" depth="1" NCoef="0" IVar="2" Cut="2.5121513366699219e+01" cType="1" res="-2.3862754926085472e-02" rms="1.6304737329483032e-01" purity="1.5198700129985809e-01" nType="0">
          <Node pos="l" depth="2" NCoef="0" IVar="-1" Cut="0.0000000000000000e+00" cType="1" res="1.4115243684500456e-03" rms="1.6594229638576508e-01" purity="4.4275352358818054e-01" nType="-99"/>
          <Node pos="r" depth="2" NCoef="0" IVar="-1" Cut="0.0000000000000000e+00" cType="1" res="-2.9775688424706459e-02" rms="1.6211406886577606e-01" purity="1.0100584477186203e-01" nType="-99"/>
        </Node>
